#pragma once
#include "definitions.h"

// Conv layer weights
float conv_weights[FILTERS][KRN_ROWS][KRN_COLS] = {
    {
        { 0.45743755, -0.543356, -0.6239587, -0.85184115, -0.08372486, 0.38459045, 0.48394907 },
        { -0.16230524, -0.6299437, -0.5519041, -0.58998036, 0.0036600519, 0.30118442, 0.39734778 },
        { -0.49006692, -0.42570916, -0.49089372, -0.24100721, 0.17784257, 0.282522, 0.3754195 },
        { -0.443615, -0.53012645, -0.31900528, -0.11443295, 0.26234573, 0.4113907, 0.16567299 },
        { -0.75266266, -0.4277992, -0.11518812, 0.230811, 0.2512787, 0.34171817, 0.08909047 },
        { -0.1358056, 0.27963203, 0.3399126, 0.29641035, 0.13274977, 0.19261093, -0.14457905 },
        { 0.44432676, 0.34644502, 0.20852496, 0.074438766, 0.16672559, -0.09854105, -0.41969097 }
    },
    {
        { 0.026962526, -0.040316407, 0.1343549, 0.31752524, 0.21837065, 0.3049404, 0.14323346 },
        { 0.2746848, 0.23067893, 0.025498869, 0.29313636, 0.091231234, 0.2416493, -0.12947904 },
        { 0.4173386, 0.18273792, 0.10587609, -0.28716007, -0.31662968, -0.55291593, -0.931645 },
        { 0.49751303, 0.18028943, -0.29574504, -0.66060495, -0.67436314, -0.80914176, -0.4672268 },
        { 0.38487962, 0.07921334, -0.76423466, -0.64467436, -0.4343969, 0.18596812, 0.42457485 },
        { 0.3719154, -0.04739937, -0.60120255, -0.6825382, 0.1586623, 0.48718554, 0.6158044 },
        { 0.3159091, -0.29743075, -0.7306045, -0.47053772, 0.32194468, 0.37620866, 0.012694657 }
    },
    {
        { 0.0095339725, 0.0034549553, -0.22867067, -0.39316744, -0.31012848, -0.21513613, -0.2055857 },
        { -0.076136716, 0.106016375, 0.2831426, -0.07361281, -0.429777, -0.6373869, -0.66496825 },
        { 0.21900758, 0.42648676, 0.51269466, 0.30949172, 0.0006087008, -0.21213144, -0.54566914 },
        { 0.18758374, 0.23020908, 0.2698729, 0.24563585, 0.29304224, -0.058095444, -0.39818388 },
        { -0.37853372, -0.47539255, -0.2835129, 0.15032229, 0.54802305, 0.49572963, -0.031612642 },
        { -0.56084025, -0.17633596, 0.059113942, 0.2731715, 0.35507652, 0.30909848, 0.43594193 },
        { -0.15267293, 0.067731984, -0.04426518, -0.15452331, 0.021242937, 0.17910038, 0.2563065 }
    },
    {
        { 0.11326703, 0.112978, -0.13547158, -0.010799831, -0.068517424, -0.07120699, -0.14928174 },
        { 0.2675839, 0.40543187, 0.40429872, 0.30367666, 0.2594206, 0.31125262, 0.35791528 },
        { 0.28046483, 0.303974, 0.38277724, 0.3415042, 0.28353447, 0.3708777, 0.33236665 },
        { -0.28976786, -0.037252244, 0.33939508, 0.34287193, 0.40938455, 0.44690412, 0.3797596 },
        { -0.5148946, -0.4035794, -0.19654736, 0.050702166, 0.07825312, -0.0041390457, 0.100032754 },
        { -0.8235657, -0.76070416, -0.7595814, -0.5327771, -0.59443367, -0.6002605, -0.6551687 },
        { -0.28769135, -0.45140886, -0.7236549, -0.72270447, -0.70648736, -0.45169622, -0.2905867 }
    }
};

// Conv layer biases
float conv_biases[FILTERS] = { -0.03240981, -0.014000542, -0.039956663, 0.13414018 };
