/*
 * This file is auto-generated by gen-weights.py
 */

#pragma once

#include "definitions.h"


// Conv layer weights.
float conv_weights[FILTERS][KRN_ROWS][KRN_COLS]
	= {
			{
				{ 0.18668033182621002, 0.33898892998695374, -0.22391687333583832, -0.3240552842617035, -0.3612070083618164, -0.5309686660766602, 0.3192873001098633 },
				{ 0.626659095287323, -0.0216668788343668, 0.4042885899543762, -0.7515796422958374, -0.552185595035553, -0.4761120080947876, 0.07013058662414551 },
				{ 0.26236867904663086, 0.22379475831985474, 0.1851532906293869, -0.8867872357368469, -0.7674039602279663, -0.8750502467155457, 0.551150918006897 },
				{ 0.7529957294464111, 0.3521959185600281, -0.03565545380115509, -1.1570663452148438, -0.8972506523132324, -0.35638344287872314, 0.21155095100402832 },
				{ 0.3060790002346039, 0.04661288112401962, -0.2899444103240967, -1.101080298423767, -0.6319829821586609, -0.24120786786079407, 0.643693745136261 },
				{ 0.28667834401130676, 0.09254390001296997, -0.5942133069038391, -0.8988244533538818, -0.5562410354614258, 0.17741377651691437, 0.58622807264328 },
				{ -0.11071939766407013, -0.44694995880126953, -0.3571469783782959, -0.6532124876976013, 0.05573481321334839, 0.3285757601261139, 0.6244337558746338 }
			},
			{
				{ -0.04149027168750763, 0.37073394656181335, 0.19815698266029358, 0.07382917404174805, 0.024573171511292458, -0.3202259838581085, 0.37678441405296326 },
				{ 0.3437212407588959, 0.2558915317058563, -0.18805526196956635, -0.2658902406692505, -0.04847421124577522, -0.5651146173477173, -0.43731772899627686 },
				{ -0.44054609537124634, 0.3669114112854004, 0.45696356892585754, -0.010593565180897713, 0.16658790409564972, 0.10119208693504333, -0.6964733600616455 },
				{ -0.15940500795841217, 0.28454717993736267, 0.1851905733346939, 0.5151625275611877, 0.08599434792995453, 0.3041605055332184, -0.5365193486213684 },
				{ -0.6046870350837708, -0.023954205214977264, 0.4421105682849884, 0.2602686882019043, -0.024760356172919273, 0.20160886645317078, 0.0850185751914978 },
				{ -0.09408518671989441, -0.5358991622924805, 0.3681466579437256, 0.1765984743833542, 0.1959119737148285, 0.2417881041765213, 0.16159574687480927 },
				{ -0.5282433032989502, -0.4711051285266876, 0.09823808819055557, -0.04065132886171341, -0.1002475842833519, 0.3422152101993561, -0.2952418923377991 }
			},
			{
				{ 0.059767670929431915, 0.44729629158973694, -0.09969349950551987, 0.09842078387737274, 0.17591680586338043, -0.06412210315465927, 0.2481730580329895 },
				{ -0.06756392121315002, 0.29294493794441223, 0.059503328055143356, 0.5242266058921814, 0.11913937330245972, 0.357870876789093, 0.5899858474731445 },
				{ 0.4961729049682617, 0.08638516813516617, 0.533251941204071, 0.5118617415428162, 0.45836836099624634, 0.3293074667453766, 0.2532811760902405 },
				{ -0.37758761644363403, -0.4308749735355377, -0.1608843207359314, 0.1340571641921997, 0.0877535343170166, -0.005035297945141792, -0.2938845753669739 },
				{ -0.7145096063613892, -0.2925792634487152, -0.6021749377250671, -0.7469069957733154, -0.6816738843917847, -0.4402034282684326, -0.5388988256454468 },
				{ -0.40681618452072144, -0.42792925238609314, -0.8594133257865906, -0.3873904049396515, -0.6930545568466187, -0.9038229584693909, -0.3767918348312378 },
				{ -0.05467182770371437, -0.23670609295368195, 0.11136861890554428, -0.3205201029777527, -0.26432690024375916, 0.4086613655090332, 0.18685542047023773 }
			},
			{
				{ 0.017044758424162865, -0.18869532644748688, -0.6475657224655151, -0.5051099061965942, -0.3966093957424164, -0.18280217051506042, -0.0036642425693571568 },
				{ -0.7389633655548096, -0.8130046725273132, -0.08835680037736893, 0.015699375420808792, 0.47722142934799194, 0.5309199094772339, 0.5654633045196533 },
				{ -0.3731725513935089, -0.29112398624420166, 0.31778383255004883, 0.5613128542900085, 0.25673046708106995, 0.38332095742225647, 0.07420612126588821 },
				{ 0.32858166098594666, 0.020665111020207405, 0.5198949575424194, 0.5057647228240967, -0.027770858258008957, 0.2777416408061981, -0.4526321291923523 },
				{ 0.41998934745788574, 0.6519920229911804, 0.2592543065547943, 0.3259908854961395, -0.1945616751909256, -0.0382019504904747, -0.6636912226676941 },
				{ -0.0224640853703022, -0.1001669242978096, -0.14103487133979797, -0.3905600309371948, 0.05784904584288597, -0.2579880952835083, -0.2647334039211273 },
				{ 0.2865903973579407, 0.11786174774169922, 0.05578286945819855, -0.2973734438419342, -0.05304015427827835, -0.46252816915512085, -0.19859077036380768 }
			}
		};

// Conv layer biases.
float conv_biases[FILTERS] = { -0.0008596493862569332, -0.026887722313404083, 0.09309408068656921, -0.1744302660226822 };
