/*
 * This file is auto-generated by gen-weights.py
 */

#pragma once

#include "definitions.h"


// Dense layer weights.
float dense_weights[FLAT_SIZE][DENSE_SIZE]
	 = {
			{ -0.17414534091949463, 0.025768397375941277, 0.03245677053928375, 0.09081868827342987, -0.22225014865398407, 0.05272866412997246, 0.05053054168820381, -0.09470012038946152, 0.00750292744487524, 0.09432484954595566 },
			{ -0.2159557044506073, -0.09139785170555115, 0.11230792850255966, -0.054042622447013855, -0.16763487458229065, 0.001326829893514514, 0.200201615691185, -0.09898219257593155, -0.09403333067893982, 0.0197627954185009 },
			{ -0.03817620500922203, -0.05653742700815201, 0.12424851208925247, -0.06967911869287491, -0.3357091546058655, -0.06347531825304031, 0.3086974322795868, -0.35264644026756287, 0.06190764904022217, -0.15377049148082733 },
			{ 0.007091151550412178, 0.039504483342170715, 0.12763595581054688, -0.019775817170739174, -0.38778409361839294, 0.0805942714214325, 0.15536555647850037, -0.5071480870246887, 0.06763361394405365, -0.06890230625867844 },
			{ 0.062080301344394684, 0.030415665358304977, 0.0859997496008873, 0.06283556669950485, -0.3260906934738159, 0.1015668585896492, 0.07840801775455475, -0.22369550168514252, -0.06464400887489319, 0.11367042362689972 },
			{ -0.04721604287624359, 0.020749306306242943, -0.00016127049457281828, 0.02196631208062172, -0.16123351454734802, 0.150331512093544, 0.11538022011518478, -0.2168159931898117, -0.07756657898426056, -0.013883830979466438 },
			{ -0.040970560163259506, -0.005570137873291969, -0.046771932393312454, -0.05287880077958107, -0.18848003447055817, -0.0365164689719677, 0.07762091606855392, -0.36332571506500244, 0.043490782380104065, -0.26527780294418335 },
			{ 0.08602649718523026, 0.0031677670776844025, -0.026292189955711365, -0.12922923266887665, -0.2446303516626358, 0.0527588352560997, 0.07981139421463013, -0.41269341111183167, 0.06539317965507507, -0.12165462970733643 },
			{ -0.07128475606441498, 0.05238916724920273, -0.11921735852956772, -0.07013856619596481, -0.03723979741334915, 0.009039069525897503, 0.2857181131839752, -0.34974056482315063, -0.02537968009710312, -0.18452808260917664 },
			{ -0.07845918089151382, -0.11406747996807098, -0.06568222492933273, -0.3572000563144684, 0.029704710468649864, -0.19781184196472168, 0.32873326539993286, 0.07474265247583389, -0.03885634243488312, -0.30382150411605835 },
			{ -0.11469235271215439, -0.18235360085964203, 0.1851695477962494, -0.36688655614852905, -0.07808338850736618, 0.046335965394973755, 0.2027430683374405, -0.06976384669542313, -0.1191510558128357, -0.18930114805698395 },
			{ -0.057310063391923904, -0.11098138988018036, -0.14242511987686157, -0.10204742848873138, -0.1893073171377182, 0.1511174887418747, 0.14751216769218445, -0.13259461522102356, -0.06317031383514404, -0.07654529809951782 },
			{ 0.026080595329403877, -0.039495278149843216, -0.10577979683876038, 0.012483037076890469, -0.27258169651031494, -0.15266716480255127, 0.4151400327682495, -0.0652809888124466, -0.07776351273059845, -0.06799860298633575 },
			{ -0.14398306608200073, -0.13211405277252197, 0.052082598209381104, -0.028576182201504707, -0.18019364774227142, 0.0498669408261776, -0.061027318239212036, 0.041931383311748505, -0.08287210762500763, 0.05682690069079399 },
			{ -0.21216988563537598, -0.015648499131202698, -0.171991229057312, 0.14598950743675232, -0.09321328997612, -0.0016210282919928432, 0.1397162526845932, 0.07335619628429413, -0.055142201483249664, 0.005000737961381674 },
			{ 0.09383714199066162, 0.1355796754360199, -0.14249175786972046, 0.02686547301709652, 0.10924012213945389, 0.010853754356503487, 0.15271665155887604, 0.0007229820475913584, -0.11077769100666046, -0.15700562298297882 },
			{ -0.03549409657716751, -0.0695614293217659, -0.1676558405160904, -0.08330050110816956, -0.08138024806976318, 0.09947054088115692, 0.13065099716186523, -0.034435223788022995, 0.06445503979921341, 0.11452888697385788 },
			{ -0.06968972831964493, 0.09751725196838379, -0.07993199676275253, -0.028781501576304436, -0.01899823546409607, 0.004091636277735233, 0.15812468528747559, -0.030155137181282043, 0.037191808223724365, 0.04583454132080078 },
			{ 0.010269314050674438, 0.10729105025529861, 0.045671477913856506, -0.062026869505643845, -0.09650815278291702, -0.0675390362739563, 0.029631536453962326, -0.10710196942090988, 0.15453031659126282, -0.026342377066612244 },
			{ 0.07029792666435242, 0.10248992592096329, -0.005390504375100136, 0.012522652745246887, 0.0679950937628746, -0.025833284482359886, 0.1645650863647461, -0.08538384735584259, 0.10037107765674591, -0.21452105045318604 },
			{ 0.03432758152484894, 0.08954671025276184, 0.02402302622795105, 0.044011954218149185, 0.00842711515724659, -0.08609232306480408, 0.1718553900718689, -0.19170497357845306, 0.06265322864055634, -0.28718531131744385 },
			{ 0.0027344729751348495, -0.07460014522075653, 0.008043425157666206, -0.12762652337551117, 0.07295376062393188, -0.05933316424489021, 0.05242938548326492, -0.14231927692890167, 0.22866225242614746, -0.023954754695296288 },
			{ -0.07523758709430695, 0.19295406341552734, -0.2649838924407959, -0.4345880448818207, 0.22172440588474274, 0.08357212692499161, 0.17101994156837463, -0.38650989532470703, 0.12262938171625137, -0.2585102319717407 },
			{ 0.048942096531391144, 0.1596526950597763, -0.25757941603660583, -0.28343215584754944, 0.0829416811466217, 0.12435171008110046, 0.1524028182029724, -0.16843019425868988, 0.0583074577152729, -0.5672547817230225 },
			{ -0.26370787620544434, -0.0021171141415834427, -0.16976289451122284, -0.29438409209251404, 0.01947883516550064, 0.22306205332279205, 0.11527051031589508, -0.3316488564014435, 0.037407051771879196, -0.2979947030544281 },
			{ -0.1983518749475479, -0.025905463844537735, -0.28190091252326965, -0.18458886444568634, -0.001960215624421835, 0.14947770535945892, 0.40989378094673157, -0.2587268352508545, 0.006973943207412958, -0.3017057180404663 },
			{ -0.19453097879886627, -0.1649726927280426, -0.1767086535692215, -0.23169556260108948, 0.06463083624839783, 0.06992437690496445, 0.18166519701480865, -0.11899001896381378, 0.005543835461139679, -0.19954121112823486 },
			{ -0.28352653980255127, -0.07718165963888168, 0.0577518604695797, -0.12854662537574768, 0.12110095471143723, 0.16057012975215912, 0.011548126116394997, -0.12926897406578064, -0.11698208749294281, -0.15583838522434235 },
			{ -0.17060209810733795, -0.1535252332687378, -0.04193795844912529, 0.12503808736801147, 0.051359206438064575, -0.040871184319257736, 0.15068674087524414, 0.06658273935317993, -0.027892854064702988, -0.24336309731006622 },
			{ 0.15333117544651031, 0.016123492270708084, -0.23714658617973328, -0.04206213355064392, 0.003906614612787962, 0.03478199988603592, 0.04450077936053276, 0.08029882609844208, -0.09404593706130981, -0.052476730197668076 },
			{ -0.03537748008966446, -0.11058154702186584, -0.10570739209651947, -0.009511557407677174, -0.07238306850194931, 0.016569413244724274, 0.12401079386472702, -0.015552467666566372, 0.01766522228717804, 0.13638658821582794 },
			{ -0.13810785114765167, 0.021920815110206604, -0.12397992610931396, -0.03674762323498726, 0.07017356902360916, 0.056873008608818054, 0.10111185908317566, 0.004784833639860153, 0.17110031843185425, -0.0721624344587326 },
			{ -0.13085445761680603, -0.05261867120862007, -0.11336115747690201, -0.0575471855700016, 0.0834420695900917, -0.10013280063867569, 0.12131521105766296, 0.019563890993595123, 0.11082177609205246, 0.049631666392087936 },
			{ -0.07284365594387054, -0.08058519661426544, -0.06057975813746452, -0.2183980941772461, 0.06978701055049896, -0.06375228613615036, 0.1335262805223465, -0.3539414703845978, 0.15404322743415833, 0.0944158062338829 },
			{ -0.03484557196497917, 0.10146290063858032, -0.012840921059250832, -0.2859988808631897, 0.18004964292049408, -0.17270724475383759, 0.24353854358196259, -0.5324760675430298, -0.0007810071110725403, 0.06856273859739304 },
			{ 0.09207472205162048, 0.23779235780239105, -0.28842705488204956, -0.41085708141326904, 0.41753333806991577, -0.08071489632129669, 0.2340618371963501, -0.38341933488845825, -0.04803607240319252, -0.05826682969927788 },
			{ -0.08313355594873428, 0.4068070948123932, -0.6675630807876587, -0.24896278977394104, 0.484296053647995, 0.003196416422724724, 0.15798823535442352, -0.4501804709434509, 0.08572984486818314, -0.33912521600723267 },
			{ -0.33563604950904846, 0.28619837760925293, -0.2908918261528015, -0.09184621274471283, 0.36644041538238525, 0.33766505122184753, -0.020540479570627213, -0.09718184173107147, -0.06388109177350998, -0.25991037487983704 },
			{ -0.3417852520942688, 0.0688261166214943, -0.0863456130027771, -0.06308209151029587, 0.19503942131996155, 0.21006269752979279, 0.12084248661994934, 0.02150619402527809, -0.009719163179397583, -0.4497798681259155 },
			{ -0.27910855412483215, 0.04685157909989357, -0.06932950019836426, 0.08838712424039841, 0.21651792526245117, 0.13219894468784332, -0.039424773305654526, -0.23201967775821686, -0.032286789268255234, -0.3147057592868805 },
			{ -0.12799756228923798, -0.06209039315581322, 0.13188959658145905, -0.10181805491447449, 0.07165008783340454, -0.010215019807219505, -0.10362105071544647, -0.08669239282608032, -0.09334174543619156, -0.18527483940124512 },
			{ -0.07912477105855942, 0.06153751537203789, 0.17927676439285278, 0.09491103887557983, 0.034297481179237366, 0.0014327364042401314, 0.020430441945791245, -0.4759504497051239, -0.12885798513889313, -0.4556804597377777 },
			{ -0.3015061914920807, -0.05494494363665581, -0.13363401591777802, 0.08626662194728851, -0.01920868270099163, -0.06125785782933235, 0.11583639681339264, 0.01707633025944233, -0.003113914281129837, -0.14457811415195465 },
			{ 0.0744825154542923, 0.069729283452034, -0.18633905053138733, -0.09008833765983582, -0.04109368100762367, -0.11646318435668945, -0.03527709096670151, 0.11498698592185974, -0.004392582923173904, 0.12758494913578033 },
			{ 0.113040991127491, -0.12334875762462616, -0.1387472003698349, -0.06960482895374298, -0.0399528406560421, 0.1071910709142685, 0.13487549126148224, -0.029340466484427452, 0.07373230159282684, 0.052615292370319366 },
			{ -0.005852231290191412, -0.164315864443779, 0.02456994540989399, -0.22148561477661133, 0.06280205398797989, -0.05960875004529953, 0.2089501917362213, -0.21297743916511536, 0.05554210767149925, 0.15984784066677094 },
			{ -0.16690009832382202, -0.24905350804328918, -0.07196076959371567, -0.28262069821357727, 0.17375348508358002, 0.053089529275894165, -0.008446912281215191, -0.3764220178127289, 0.11325538903474808, 0.24715310335159302 },
			{ 0.025925030931830406, -0.052761588245630264, -0.15857987105846405, -0.39032691717147827, 0.2622465491294861, 0.11528105288743973, 0.21406246721744537, -0.2844530940055847, -0.04473467543721199, -0.05403459072113037 },
			{ 0.04036155715584755, 0.16068428754806519, -0.058519475162029266, -0.3069859743118286, 0.46133360266685486, 0.05707187205553055, 0.3223396837711334, -0.3747378885746002, -0.287550687789917, -0.3469669222831726 },
			{ -0.12841340899467468, 0.43290868401527405, -0.0645807608962059, -0.10526026040315628, 0.45121055841445923, -0.232986718416214, 0.32622238993644714, -0.2621735632419586, -0.20103971660137177, -0.45751920342445374 },
			{ -0.20754766464233398, 0.27522289752960205, -0.3317686915397644, -0.036839455366134644, 0.49434521794319153, -0.19256064295768738, 0.20256781578063965, -0.21043917536735535, -0.198112353682518, -0.42406997084617615 },
			{ -0.4870401918888092, 0.09832792729139328, -0.07925496250391006, 0.16360676288604736, 0.28274548053741455, -0.09108638763427734, 0.01929360069334507, 0.13716423511505127, -0.13927863538265228, -0.183013454079628 },
			{ -0.33125221729278564, 0.11817115545272827, -0.07520780712366104, 0.07794061303138733, 0.09351956099271774, 0.08706354349851608, -0.01133312564343214, 0.22709299623966217, -0.10169363021850586, -0.29181161522865295 },
			{ -0.23788420855998993, 0.0639573484659195, -0.05202865228056908, -0.027631256729364395, 0.0489349439740181, 0.15270692110061646, -0.04782164841890335, 0.006028437055647373, -0.07880021631717682, -0.05354481562972069 },
			{ 0.05357793718576431, 0.04341517388820648, 0.1655256152153015, -0.05927968770265579, 0.20416441559791565, -0.14806775748729706, 0.034185707569122314, 0.11538174748420715, -0.08095133304595947, -0.13585910201072693 },
			{ 0.16263198852539062, -0.02899746038019657, 0.10012464225292206, 0.06871260702610016, 0.008949586190283298, -0.12965524196624756, -0.09997318685054779, -0.08639125525951385, -0.11200985312461853, -0.12675751745700836 },
			{ -0.2740798592567444, 0.06147826462984085, -0.16612619161605835, -0.06926950067281723, -0.05360309034585953, 0.08304723352193832, 0.18620148301124573, 0.0453551821410656, -0.004308306612074375, -0.037528812885284424 },
			{ 0.13963694870471954, 0.016575943678617477, -0.2177337408065796, -0.16821962594985962, 0.12729056179523468, -0.023016205057501793, 0.029604842886328697, -0.030786307528614998, 0.10664596408605576, 0.1576824188232422 },
			{ 0.1390419602394104, -0.16592003405094147, -0.10501015931367874, -0.16141162812709808, 0.16555054485797882, -0.0060135722160339355, 0.2483917623758316, -0.17016157507896423, 0.159906268119812, 0.08144799619913101 },
			{ -0.02604682929813862, -0.1395910680294037, -0.10944310575723648, -0.33129531145095825, 0.058288998901844025, 0.02154836803674698, 0.1728057861328125, -0.23201365768909454, 0.023515798151493073, 0.20917628705501556 },
			{ 0.05757815018296242, -0.2647266089916229, -0.30325183272361755, -0.309226393699646, 0.32629987597465515, 0.1515086442232132, 0.09652186185121536, -0.36595237255096436, -0.09631502628326416, 0.0880986899137497 },
			{ 0.05241275206208229, -0.15813851356506348, -0.03654344379901886, -0.09943275153636932, 0.2894773483276367, 0.17376238107681274, 0.2108606994152069, -0.23111365735530853, -0.13411442935466766, -0.10520288348197937 },
			{ 0.021240945905447006, 0.07020066678524017, 0.03661380335688591, -0.14714361727237701, 0.3571409583091736, 0.1323241889476776, 0.1491343230009079, -0.03912975639104843, -0.32995668053627014, -0.33332937955856323 },
			{ -0.02986796945333481, 0.13691005110740662, 0.13575085997581482, 0.022014722228050232, 0.2738008499145508, -0.028863098472356796, 0.014552927576005459, -0.019688542932271957, -0.2654682993888855, -0.04705347865819931 },
			{ -0.1528613567352295, 0.23779737949371338, 0.00804232619702816, 0.17271967232227325, 0.2608857750892639, -0.44687768816947937, -0.006287106778472662, -0.043177470564842224, -0.10982443392276764, -0.12176220118999481 },
			{ -0.0631718784570694, -0.06892278045415878, -0.021414462476968765, 0.2544216215610504, 0.30929532647132874, -0.5453382730484009, -0.1480264812707901, 0.08849954605102539, -0.003627158235758543, -0.23595298826694489 },
			{ -0.23661695420742035, 0.007955923676490784, 0.006059369537979364, 0.1828153282403946, 0.2660622000694275, -0.20166440308094025, -0.29505178332328796, 0.16136251389980316, 0.05674075335264206, -0.16443394124507904 },
			{ -0.20309746265411377, 0.01709076575934887, 0.045403651893138885, 0.11777123808860779, -0.04595372825860977, -0.15925681591033936, -0.1403810679912567, 0.1059156134724617, 0.032400235533714294, -0.14524002373218536 },
			{ 0.04792577773332596, 0.20100641250610352, 0.1395784467458725, 0.12294954061508179, 0.019314736127853394, -0.14504142105579376, -0.10605618357658386, 0.10495466738939285, 0.02947581745684147, -0.10335947573184967 },
			{ 0.09397715330123901, -0.04423351585865021, -0.047366753220558167, 0.10591233521699905, 0.10428762435913086, -0.08529037982225418, -0.20841486752033234, -0.0334874726831913, 0.10101787000894547, -0.17704321444034576 },
			{ -0.07931685447692871, 0.11023715883493423, -0.28394559025764465, -0.1549232453107834, -0.07060204446315765, -0.10335303843021393, 0.12867720425128937, 0.0004659161495510489, 0.06636740267276764, 0.06071457266807556 },
			{ 0.07102084159851074, 0.03209321200847626, -0.12267986685037613, -0.17692001163959503, 0.04750636965036392, -0.25047433376312256, 0.18386059999465942, -0.03404034301638603, -0.013663331978023052, 0.053307659924030304 },
			{ 0.22144266963005066, -0.18873749673366547, -0.005900056567043066, -0.16208495199680328, 0.07891517132520676, -0.10237675160169601, 0.16267770528793335, -0.19235211610794067, -0.017824653536081314, 0.11087856441736221 },
			{ 0.17427897453308105, -0.0379430390894413, -0.11576653271913528, -0.17038726806640625, 0.0066876886412501335, -0.039494678378105164, 0.2079850286245346, -0.2529242932796478, -0.12481429427862167, 0.026452723890542984 },
			{ 0.04684719443321228, 0.013624138198792934, -0.22600756585597992, -0.0020141873974353075, 0.20537294447422028, 0.09475743770599365, 0.07682085037231445, -0.17888988554477692, -0.20530886948108673, -0.10777808725833893 },
			{ 0.05242570862174034, 0.03913891687989235, -0.09782436490058899, 0.14589829742908478, 0.07822246849536896, 0.08155262470245361, 0.14560045301914215, -0.027983618900179863, -0.29251065850257874, -0.13280172646045685 },
			{ 0.05131668969988823, 0.20594137907028198, -0.020124634727835655, -0.0038124199490994215, 0.056866101920604706, 0.0749937891960144, 0.04429245367646217, 0.2838842272758484, -0.18780837953090668, -0.11009732633829117 },
			{ -0.017285719513893127, 0.10681769996881485, 0.014121067710220814, -0.15738005936145782, 0.05660732090473175, -0.15458044409751892, 0.07876770943403244, 0.21864955127239227, -0.12999756634235382, -0.23063407838344574 },
			{ 0.07640482485294342, 0.13702736794948578, 0.19696606695652008, -0.1542666256427765, 0.12433522194623947, -0.2956048250198364, -0.22237563133239746, 0.030249960720539093, -0.01783878728747368, -0.1907653957605362 },
			{ 0.05667278915643692, 0.08198309689760208, 0.17881375551223755, -0.07584060728549957, 0.046707116067409515, -0.5174100995063782, -0.2933356761932373, 0.13912752270698547, 0.053223464637994766, 0.01448965072631836 },
			{ 0.0306791290640831, 0.061486463993787766, 0.10309770703315735, 0.17339220643043518, -0.002886633388698101, -0.6101134419441223, -0.44637593626976013, -0.003575354814529419, 0.17040786147117615, -0.05459984391927719 },
			{ -0.1206311583518982, 0.09484905004501343, 0.043870411813259125, 0.0014472672482952476, -0.014396315440535545, -0.4318886697292328, -0.24289222061634064, 0.12193391472101212, 0.18675334751605988, 0.005197589751332998 },
			{ 0.06105036661028862, 0.13339361548423767, -0.029080163687467575, -0.005746877286583185, -0.011306940577924252, -0.36789268255233765, -0.14596636593341827, 0.06442112475633621, 0.11896994709968567, -0.04706873744726181 },
			{ 0.03467731922864914, 0.01590941846370697, -0.08695634454488754, -0.0699414387345314, -0.1612974852323532, 0.0011630440130829811, -0.14222528040409088, -0.0480489619076252, 0.16165488958358765, -0.014527672901749611 },
			{ -0.05269506201148033, 0.16110220551490784, -0.0814596563577652, -0.04253200814127922, -0.04464726150035858, 0.02506483718752861, -0.04495382308959961, -0.0001881984353531152, -0.0646200031042099, -0.016735149547457695 },
			{ 0.10763899981975555, -0.09919436275959015, 0.034890253096818924, -0.1848749816417694, -0.08046729117631912, -0.10645264387130737, 0.1527959704399109, -0.04869507625699043, -0.04471985623240471, 0.05330232158303261 },
			{ 0.14589600265026093, -0.1531154215335846, 0.11689076572656631, -0.23417869210243225, 0.002018061699345708, -0.2532002925872803, 0.2118808776140213, -0.18069639801979065, 0.06390142440795898, -0.030029434710741043 },
			{ 0.24606040120124817, -0.1511782854795456, 0.010451346635818481, -0.11073022335767746, -0.0419485978782177, -0.03862845525145531, 0.27605322003364563, -0.08440820127725601, -0.09326490014791489, 0.007724508177489042 },
			{ 0.081957146525383, 0.04008791223168373, -0.0892498642206192, 0.01967737451195717, 0.16423891484737396, -0.023312509059906006, 0.16529196500778198, 0.07701578736305237, -0.1613059937953949, 0.0031448532827198505 },
			{ 0.04502905160188675, 0.0649673268198967, -0.24036042392253876, 0.260588139295578, -0.22743092477321625, -0.15030790865421295, 0.0950959175825119, 0.05423511192202568, -0.0631493628025055, -0.1654697209596634 },
			{ -0.020775238052010536, 0.12358730286359787, -0.1291055530309677, -0.003063877345994115, -0.1196696013212204, -0.15983478724956512, 0.031267713755369186, 0.26347586512565613, -0.12355879694223404, -0.1766148954629898 },
			{ 0.17648673057556152, 0.11113297939300537, 0.09983577579259872, -0.4504377841949463, 0.11951186507940292, 0.0808505266904831, -0.19274646043777466, 0.18232056498527527, -0.028936099261045456, -0.21404999494552612 },
			{ 0.12499184161424637, 0.11483938246965408, 0.1977834850549698, -0.3882846534252167, -0.10599401593208313, -0.15372394025325775, -0.30885204672813416, 0.11361024528741837, -0.08712420612573624, -0.026030458509922028 },
			{ 0.21891441941261292, 0.10099345445632935, 0.2384820580482483, -0.2709345519542694, 0.06637036800384521, -0.5124163627624512, -0.4309177100658417, 0.004489553160965443, -0.0854383185505867, 0.21853365004062653 },
			{ 0.11990632116794586, 0.10921555757522583, 0.1934288740158081, -0.0823209285736084, -0.013072715140879154, -0.36876338720321655, -0.3925839960575104, -0.08078934252262115, 0.00017590048082638532, 0.06757308542728424 },
			{ 0.07108251005411148, 0.006949166301637888, 0.06649167090654373, -0.03084985725581646, -0.06616614758968353, -0.33623942732810974, -0.18050764501094818, 0.11500994861125946, -0.0593973770737648, 0.10635674744844437 },
			{ 0.12175895273685455, -0.005701086949557066, -0.004312808625400066, -0.12056145071983337, -0.04113146662712097, -0.3913666307926178, 0.030932145193219185, 0.11901740729808807, 0.0022157104685902596, 0.11640184372663498 },
			{ 0.1702539622783661, -0.050327494740486145, -0.16844840347766876, -0.1360856294631958, -0.25646501779556274, 0.03536336123943329, 0.016741063445806503, -0.061516474932432175, 0.18756549060344696, 0.040559373795986176 },
			{ -0.0019884188659489155, -0.009529754519462585, 0.03704983741044998, 0.028340443968772888, -0.03402956575155258, -0.08797767758369446, -0.15141063928604126, -0.03433459624648094, -0.07907290011644363, 0.012732897885143757 },
			{ 0.038064487278461456, -0.21581801772117615, 0.21955671906471252, -0.15182188153266907, -0.1326802521944046, 0.04010462015867233, 0.08589544892311096, -0.11282023787498474, 0.05905694514513016, -0.037702031433582306 },
			{ 0.16543887555599213, -0.15063311159610748, 0.19379813969135284, -0.2819380760192871, 0.1127810850739479, -0.18245461583137512, 0.11945603787899017, -0.03536717966198921, -0.000175320019479841, -0.039084985852241516 },
			{ 0.13318601250648499, -0.15581411123275757, 0.13161301612854004, -0.20970600843429565, -0.15280774235725403, -0.19741696119308472, 0.1829734891653061, 0.19270236790180206, 0.02508864738047123, -0.16297893226146698 },
			{ 0.15899662673473358, -0.02554352581501007, -0.03413685783743858, -0.1522350162267685, -0.08156833052635193, -0.2058328539133072, 0.26718246936798096, 0.09951955825090408, 0.10696360468864441, -0.214805006980896 },
			{ -0.11368875950574875, 0.05065377801656723, -0.20584912598133087, 0.09462999552488327, -0.19385863840579987, -0.11678776144981384, 0.08045149594545364, 0.1784200817346573, 0.06712985038757324, -0.18637889623641968 },
			{ 0.10870523005723953, 0.18519361317157745, -0.16063737869262695, -0.4049150347709656, -0.056305572390556335, -0.06570633500814438, -0.010377947241067886, 0.2759808599948883, -0.15163680911064148, -0.010939733125269413 },
			{ 0.2128453254699707, 0.24522918462753296, 0.07365850359201431, -0.375004380941391, 0.1006610095500946, 0.07808975130319595, -0.1574188470840454, 0.2464623600244522, -0.2730100154876709, -0.07379134744405746 },
			{ 0.09552904963493347, 0.15779712796211243, 0.19378356635570526, -0.050035808235406876, -0.04504469782114029, -0.025509905070066452, -0.1991189569234848, -0.04249328747391701, -0.29957181215286255, 0.22928404808044434 },
			{ 0.13295476138591766, 0.17808081209659576, 0.12981979548931122, -0.2596256732940674, 0.027875114232301712, -0.10087981820106506, -0.16228294372558594, -0.04691067710518837, -0.17664511501789093, 0.2931407392024994 },
			{ 0.2524026930332184, 0.06064872816205025, 0.03722883015871048, -0.00725161237642169, -0.021390508860349655, -0.1666077971458435, -0.021767117083072662, 0.04086900129914284, -0.2757680416107178, 0.127762109041214 },
			{ 0.08484663814306259, 0.010062669403851032, -0.01949547603726387, -0.12485993653535843, -0.049404025077819824, -0.12831251323223114, -0.023137761279940605, 0.11494787782430649, -0.16682037711143494, 0.10566206276416779 },
			{ 0.10699760913848877, -0.15816599130630493, -0.06460919231176376, -0.13584035634994507, 0.04279380291700363, -0.33274275064468384, 0.09980311989784241, 0.11659737676382065, -0.15166375041007996, 0.21323636174201965 },
			{ 0.1684131771326065, -0.15491224825382233, -0.22724461555480957, -0.07473738491535187, -0.12825076282024384, -0.11945217847824097, 0.17266367375850677, 0.017200633883476257, -0.04802427813410759, 0.08061140775680542 },
			{ -0.032190799713134766, -0.0764719694852829, 0.07982947677373886, 0.029915161430835724, 0.11542092263698578, -0.04162079095840454, -0.07927898317575455, -0.04034861549735069, -0.020763227716088295, 0.07499021291732788 },
			{ 0.06419295072555542, -0.1818244904279709, 0.04823656752705574, -0.10309002548456192, -0.11064373701810837, 0.04686052352190018, 0.051953356713056564, 0.09996381402015686, 0.08043622970581055, -0.01713748648762703 },
			{ 0.004586220718920231, 0.03619861230254173, 0.04531535506248474, -0.16058902442455292, -0.015814870595932007, -0.1768733114004135, -0.022229570895433426, 0.09620413929224014, 0.039138536900281906, -0.20448173582553864 },
			{ 0.11132854968309402, -0.09689342230558395, 0.12761825323104858, -0.2738523781299591, -0.28560274839401245, -0.08113390952348709, 0.11199687421321869, 0.08467861264944077, 0.21847616136074066, -0.34597906470298767 },
			{ 0.11052630841732025, -0.13671088218688965, 0.17256617546081543, -0.28492414951324463, -0.04973595216870308, -0.11492906510829926, 0.2426324039697647, 0.021752525120973587, 0.20214037597179413, -0.47436508536338806 },
			{ 0.06754650920629501, 0.24932150542736053, -0.033159274607896805, -0.07391922175884247, -0.059815339744091034, 0.11165329813957214, -0.014160259626805782, 0.22327372431755066, 0.06677966564893723, -0.286910742521286 },
			{ 0.160276859998703, 0.2194012552499771, -0.062491077929735184, -0.327446311712265, -0.14610087871551514, 0.03677419200539589, 0.07932844012975693, 0.11534710973501205, -0.06105741858482361, -0.06827940791845322 },
			{ 0.1806327849626541, 0.16645486652851105, 0.05408811941742897, -0.14049887657165527, -0.26797327399253845, 0.06881505995988846, 0.01584542728960514, 0.017814181745052338, -0.1336086541414261, -0.07704821228981018 },
			{ 0.05628782883286476, 0.1572747677564621, 0.017545288428664207, -0.14177283644676208, -0.2374206781387329, -0.009336667135357857, -0.10740089416503906, -0.09528172761201859, -0.13993671536445618, 0.14295122027397156 },
			{ 0.21205928921699524, 0.0041663083247840405, -0.08967813849449158, -0.005396447144448757, -0.06863034516572952, -0.06190362200140953, -0.032692089676856995, -0.04944038763642311, -0.16292420029640198, 0.22696544229984283 },
			{ 0.20726917684078217, -0.02523995190858841, -0.08427464962005615, 0.0030961704906076193, -0.04435635358095169, -0.05367666482925415, 0.09114496409893036, 0.11580073833465576, -0.23045822978019714, 0.07017738372087479 },
			{ 0.09362822771072388, -0.16980032622814178, -0.20090703666210175, -0.05471470579504967, 0.09013153612613678, -0.0069033377803862095, 0.13122321665287018, 0.13476167619228363, -0.19713672995567322, 0.16621439158916473 },
			{ 0.14289158582687378, -0.2564226984977722, -0.22279417514801025, 0.026640184223651886, 0.02761717513203621, -0.11341682076454163, 0.05413085222244263, 0.06129966676235199, -0.19013777375221252, 0.04802343249320984 },
			{ 0.042410723865032196, -0.21276609599590302, -0.1157437413930893, -0.06931927055120468, -0.012519692070782185, 0.07432012259960175, 0.09287891536951065, -0.024164346978068352, -0.10306516289710999, -0.034680649638175964 },
			{ 0.07315293699502945, -0.07546109706163406, 0.13117516040802002, -0.12296362966299057, 0.001390412449836731, -0.058017220348119736, -0.09437157213687897, -0.0552852563560009, -0.10331965237855911, -0.05920576676726341 },
			{ 0.11384184658527374, 0.09731198847293854, 0.0585804358124733, -0.12906543910503387, 0.029989024624228477, -0.12203333526849747, -0.10330770164728165, 0.007195014972239733, 0.12646359205245972, -0.013147803954780102 },
			{ 0.021926958113908768, 0.03661248832941055, 0.07983646541833878, -0.032193925231695175, 0.05044475197792053, -0.1698744297027588, -0.020378723740577698, 0.15079356729984283, 0.02089400216937065, -0.1050674170255661 },
			{ 0.021822238340973854, -0.01605762355029583, 0.13495874404907227, -0.1714959293603897, -0.07559484243392944, 0.013824372552335262, 0.04513740912079811, 0.12613216042518616, 0.09819839894771576, -0.13463722169399261 },
			{ -0.02877812087535858, -0.08678321540355682, 0.2715432047843933, -0.2461193948984146, -0.05813426151871681, -0.07102667540311813, -0.014222481288015842, 0.05696561932563782, 0.20539142191410065, -0.27161961793899536 },
			{ 0.0965752899646759, 0.0551752895116806, 0.11949052661657333, -0.22865994274616241, -0.044738952070474625, -0.0936066284775734, -0.04690856859087944, 0.09606638550758362, 0.1307268887758255, -0.05634133145213127 },
			{ 0.09471409767866135, 0.09740879386663437, -0.006191146560013294, -0.1691322922706604, 0.010697226040065289, -0.025373777374625206, 0.04347428306937218, -0.02412935346364975, -0.08386769890785217, -0.10989834368228912 },
			{ -0.05611002817749977, 0.15521949529647827, -0.08576156944036484, -0.20718367397785187, -0.01528967171907425, 0.02123059518635273, -0.005786426831036806, 0.0650697574019432, 0.08680097758769989, 0.06655099242925644 },
			{ -0.009477207437157631, -0.000431865977589041, -0.09593882411718369, -0.036580752581357956, -0.10573719441890717, 0.006961076054722071, 0.0644683837890625, 0.057053253054618835, -0.024278784170746803, 0.12553784251213074 },
			{ 0.21832311153411865, -0.2604295015335083, -0.2323956936597824, 0.06418705731630325, 0.03514310345053673, 0.17164617776870728, 0.10929107666015625, 0.02946050837635994, 0.01772703416645527, 0.1612321436405182 },
			{ 0.030328063294291496, -0.35523721575737, -0.25852730870246887, 0.08841849863529205, -0.012027114629745483, 0.06845024228096008, 0.08057298511266708, 0.17441166937351227, 0.10499639809131622, 0.050120048224925995 },
			{ 0.08983692526817322, -0.15889911353588104, -0.31364479660987854, 0.061513856053352356, 0.054615508764982224, 0.077327661216259, 0.0009015409741550684, 0.16453464329242706, -0.062340084463357925, 0.07171069085597992 },
			{ 0.07189220190048218, -0.1491832733154297, -0.14289490878582, 0.08203719556331635, 0.1523989886045456, -0.08021722733974457, -0.04170907661318779, 0.0285036601126194, -0.05241383984684944, -0.06810880452394485 },
			{ 0.04335496574640274, -0.06822887063026428, -0.14325396716594696, -0.05132436752319336, -0.03424221649765968, 0.08318118751049042, 0.03607466444373131, -0.16428130865097046, -0.030753592029213905, 0.013153504580259323 },
			{ -0.04280860722064972, -0.07063189148902893, 0.10020875930786133, 0.03138646483421326, -0.05107492208480835, -0.022333132103085518, -0.03908688575029373, 0.038433682173490524, -0.0016395103884860873, -0.026192983612418175 },
			{ 0.10241931676864624, -0.01720251515507698, 0.0463305227458477, -0.0430346354842186, -0.03758396580815315, -0.0010280549759045243, -0.13338229060173035, 0.2026004195213318, -0.09879665821790695, 0.028939206153154373 },
			{ 0.07284082472324371, 0.039942219853401184, 0.11457420885562897, -0.05068936571478844, 0.05749502778053284, -0.11167781800031662, 0.038866203278303146, 0.0034021753817796707, 0.0962514728307724, 0.005208482500165701 },
			{ 0.07063144445419312, 0.041064437478780746, 0.1780681312084198, -0.2676320970058441, 0.026014693081378937, -0.12611766159534454, 0.03347938880324364, -0.026197727769613266, 0.006197676062583923, -0.07337038218975067 },
			{ -0.09783858805894852, -0.04377339035272598, 0.18739506602287292, -0.17806366086006165, -0.008006485179066658, 0.030393298715353012, -0.22024431824684143, 0.16326825320720673, 0.01941607892513275, -0.15036271512508392 },
			{ -0.14949266612529755, 0.18478605151176453, 0.17502453923225403, -0.11877816170454025, 0.14940637350082397, -0.06316651403903961, -0.3683275282382965, 0.13062971830368042, 0.02253885567188263, 0.04122364521026611 },
			{ -0.1790992170572281, 0.21941281855106354, -0.17733608186244965, -0.14751873910427094, 0.17084123194217682, 0.04365207254886627, -0.4629691541194916, 0.08553623408079147, -0.1612223982810974, -0.022857176139950752 },
			{ -0.18886417150497437, 0.07207319885492325, -0.30013883113861084, -0.20735639333724976, 0.12446878850460052, -0.0455964021384716, -0.12728410959243774, 0.11605780571699142, 0.026977429166436195, 0.15806229412555695 },
			{ -0.2318412959575653, -0.04642762616276741, -0.3313849866390228, 0.001769438968040049, 0.1146468073129654, 0.1525004804134369, -0.15766993165016174, 0.050564736127853394, -0.023066170513629913, 0.03881603106856346 },
			{ -0.051198992878198624, -0.13049758970737457, -0.2732831835746765, 0.12179186195135117, -0.0010977325728163123, 0.2107960283756256, 0.0010666026500985026, -0.009820258244872093, 0.0040235635824501514, -0.05796654522418976 },
			{ -0.029064888134598732, -0.0750684067606926, -0.16726988554000854, 0.13120636343955994, -0.08234015107154846, 0.08940701186656952, -0.017990004271268845, -0.04250556603074074, 0.08644405752420425, -0.01402555126696825 },
			{ -0.037285346537828445, -0.04836713895201683, -0.05325054004788399, 0.005787814501672983, -0.031103769317269325, 0.00013327015039976686, -0.023796064779162407, 0.03804711252450943, 0.022444138303399086, 0.009104568511247635 },
			{ -0.03816073760390282, -0.06209284067153931, -0.12123182415962219, 0.11407507210969925, 0.09355868399143219, -0.0333867073059082, 0.09102419763803482, 0.08630751818418503, -0.008266485296189785, -0.21747174859046936 },
			{ -0.023114632815122604, 0.14608921110630035, -0.15071341395378113, 0.04119851067662239, -0.09712003916501999, 0.03820749372243881, -0.00450787041336298, -0.1986449807882309, 0.030669666826725006, 0.0028931046836078167 },
			{ 0.013510309159755707, -0.0015704111428931355, -0.01178450882434845, 0.055412657558918, -0.0856405720114708, 0.031237902119755745, -0.04118511825799942, 0.19763566553592682, -0.10566341131925583, 0.03637007996439934 },
			{ 0.051147378981113434, -0.11702310293912888, -0.014670124277472496, -0.009576098993420601, -0.0355687290430069, -0.05632039159536362, -0.1537802815437317, 0.10163699090480804, -0.10124160349369049, 0.057248108088970184 },
			{ 0.04949880763888359, -0.018727166578173637, 0.13287866115570068, -0.006276718340814114, -0.05656767264008522, -0.005663242191076279, -0.0843362882733345, -0.10235655307769775, 0.0072252280078828335, 0.050317052751779556 },
			{ -0.1509544998407364, -0.014439865946769714, 0.08900497853755951, -0.13864409923553467, -0.10282790660858154, -0.11225201189517975, -0.039198242127895355, -0.02365250326693058, 0.0632878839969635, 0.10577363520860672 },
			{ 0.05349871143698692, -0.05289273336529732, 0.09451284259557724, -0.2500767707824707, -0.035486701875925064, -0.04808042570948601, 0.057081110775470734, 0.11009831726551056, -0.020172299817204475, 0.09633541852235794 },
			{ -0.5281201601028442, 0.16442973911762238, 0.029749227687716484, -0.21790950000286102, 0.13977579772472382, -0.24470806121826172, -0.15703105926513672, 0.21838340163230896, -0.3786807060241699, 0.1349009871482849 },
			{ -0.45899978280067444, 0.26924756169319153, -0.3313896059989929, -0.4053468108177185, 0.20635779201984406, -0.05903388559818268, -0.1588641256093979, 0.2509613037109375, -0.30958306789398193, 0.19867205619812012 },
			{ -0.32038614153862, 0.07151106745004654, -0.24010464549064636, -0.07263138145208359, 0.19543352723121643, 0.10890969634056091, -0.1713097095489502, 0.23185817897319794, -0.28820064663887024, 0.11749210953712463 },
			{ -0.24250328540802002, -0.08752468228340149, -0.4011531174182892, 0.0882938876748085, 0.13418002426624298, -0.09370221197605133, -0.17361527681350708, 0.18156540393829346, -0.07278285175561905, 0.1391444057226181 },
			{ -0.23845160007476807, -0.054420921951532364, -0.09245980530977249, -0.03618479147553444, 0.19889654219150543, 0.0745902881026268, 0.011472510173916817, 0.04814828559756279, 0.017340989783406258, -0.022023361176252365 },
			{ -0.22122372686862946, 0.14312869310379028, 0.0189938023686409, 0.016823863610625267, 0.05985872820019722, 0.10239935666322708, -0.05698816105723381, -0.11297397315502167, -0.05963875725865364, -0.02731117606163025 },
			{ -0.12410171329975128, -0.04543517529964447, -0.09224195033311844, 0.035319942981004715, -0.025826316326856613, -0.013449248857796192, -0.0667455643415451, -0.03516600653529167, -0.012756716459989548, -0.052856944501399994 },
			{ 0.0503816232085228, -0.01853886991739273, -0.11192633956670761, 0.01825479231774807, 0.05667662248015404, -0.0909000039100647, -0.0672682374715805, -0.20890139043331146, 0.03042406402528286, 0.015703625977039337 },
			{ -0.008897913619875908, 0.013159229420125484, -0.10938132554292679, -0.05707819387316704, -0.14495576918125153, 0.17619632184505463, -0.10487319529056549, -0.3236258924007416, 0.015640225261449814, 0.0557045042514801 },
			{ -0.06823184341192245, -0.011129423975944519, -0.06603921204805374, -0.01781487464904785, -0.27392780780792236, 0.03085186704993248, -0.10541912168264389, 0.04093199968338013, -0.17161934077739716, -0.03407776355743408 },
			{ 0.0047573186457157135, -0.039647314697504044, 0.04431271553039551, -0.010825477540493011, 0.03195272758603096, -0.1904260665178299, -0.3356670141220093, -0.04686228558421135, 0.07562730461359024, 0.06789673119783401 },
			{ -0.0781644880771637, 0.17531833052635193, 0.15213921666145325, -0.044120799750089645, -0.03441833332180977, 0.06284016370773315, -0.04680350422859192, -0.1570328176021576, 0.11114402115345001, -0.12582619488239288 },
			{ -0.08423753827810287, 0.09481456875801086, -0.05222120136022568, -0.15937156975269318, -0.033863894641399384, -0.056807830929756165, -0.028564082458615303, 0.046123992651700974, -0.10286497324705124, -0.00428730109706521 },
			{ 0.21830374002456665, 0.09755093604326248, -0.059743016958236694, -0.3652375042438507, -0.11586513370275497, -0.15598048269748688, 0.14605534076690674, 0.061327528208494186, 0.06983591616153717, 0.176042839884758 },
			{ -0.06932290643453598, 0.17816707491874695, -0.28197208046913147, -0.3084641695022583, 0.26636984944343567, -0.5447580218315125, -0.15720276534557343, 0.34572356939315796, -0.16623449325561523, 0.2526249587535858 },
			{ -0.07511582225561142, -0.07231897115707397, -0.3460575044155121, -0.30584385991096497, 0.15509387850761414, -0.20991958677768707, -0.1426096260547638, 0.33720019459724426, -0.15631181001663208, 0.22106271982192993 },
			{ -0.32686662673950195, -0.0017827586270868778, -0.23520557582378387, -0.02275978960096836, 0.29423290491104126, -0.24597209692001343, -0.2238484025001526, 0.17708711326122284, 0.05760018527507782, 0.1280033439397812 },
			{ -0.3946141302585602, 0.050840746611356735, -0.3024818003177643, 0.0437757708132267, 0.20841370522975922, -0.04421347379684448, -0.07409463822841644, 0.23208074271678925, 0.07115419954061508, 0.1174202710390091 },
			{ -0.15688283741474152, 0.09897148609161377, -0.0672903060913086, -0.05601406469941139, 0.15301333367824554, -0.03470708802342415, -0.14440792798995972, 0.1304430216550827, -0.05084754526615143, 0.027706468477845192 },
			{ -0.08985255658626556, 0.05100071802735329, 0.02203376777470112, 0.06887465715408325, -0.012188680469989777, 0.08846753090620041, -0.13842572271823883, 0.010455796495079994, -0.005676806904375553, -0.041716739535331726 },
			{ -0.256222665309906, 0.05437493696808815, -0.05544412508606911, -0.0097334124147892, 0.07605234533548355, -0.02643745206296444, -0.06667613983154297, -0.029552945867180824, 0.028633955866098404, 0.016807926818728447 },
			{ -0.1811504364013672, -0.03348482400178909, -0.03008945845067501, -0.09190824627876282, -0.008099814876914024, -0.025873957201838493, -0.07956130057573318, -0.04323805496096611, 0.10827361047267914, -0.030103931203484535 },
			{ -0.06952385604381561, -0.12181659042835236, 0.0661061555147171, -0.170695498585701, 0.020498834550380707, 0.09441374242305756, -0.1370856910943985, -0.3071242570877075, -0.15173931419849396, 0.17691348493099213 },
			{ -0.24213826656341553, -0.21014036238193512, -0.08308287709951401, 0.019754305481910706, -0.18080022931098938, 0.223805770277977, -0.10330208390951157, 0.19209235906600952, -0.032952286303043365, 0.05019383132457733 },
			{ 0.09364669024944305, 0.06802306324243546, 0.18049933016300201, 0.005274890456348658, -0.11455745995044708, -0.05201384052634239, -0.2411392629146576, -0.1231045350432396, -0.1589728146791458, 0.11589405685663223 },
			{ -0.013930297456681728, 0.11190450191497803, -0.04136096313595772, -0.03269100561738014, -0.037878040224313736, -0.03294224292039871, -0.08330359309911728, 0.05781497061252594, -0.05466176196932793, -0.07085362821817398 },
			{ 0.14522875845432281, -0.12836791574954987, -0.2191309928894043, 0.13687832653522491, -0.0667371079325676, -0.12835021317005157, 0.07549731433391571, 0.08437951654195786, -0.2856331169605255, 0.2504774034023285 },
			{ 0.048521265387535095, 0.21442368626594543, -0.4863986372947693, 0.010188295505940914, -0.02652936615049839, -0.22891825437545776, -0.03391816094517708, 0.14667032659053802, -0.07945297658443451, 0.08432500064373016 },
			{ -0.06787009537220001, 0.029973410069942474, -0.36801278591156006, -0.2099984735250473, 0.09098412096500397, -0.23944519460201263, -0.15833383798599243, 0.3021456301212311, -0.20630522072315216, 0.2258879691362381 },
			{ -0.12792985141277313, -0.016336511820554733, -0.6060654520988464, -0.06514859199523926, 0.030692147091031075, -0.195973739027977, -0.1559639424085617, 0.13928450644016266, -0.09104018658399582, 0.2049677073955536 },
			{ -0.36922377347946167, 0.1464926302433014, -0.40000125765800476, 0.13639743626117706, 0.12729711830615997, -0.13462288677692413, -0.4301687180995941, 0.15273883938789368, -0.0193167794495821, 0.06426630914211273 },
			{ -0.3915192782878876, -0.001030708895996213, -0.26867052912712097, -0.07232163846492767, 0.15859133005142212, 0.02318793162703514, -0.13992758095264435, 0.08129182457923889, 0.026863282546401024, 0.09108827263116837 },
			{ -0.10280313342809677, -0.031586904078722, -0.11766189336776733, -0.02112932689487934, 0.06414993107318878, -0.007289815694093704, -0.10729662328958511, -0.0385565310716629, 0.07227285951375961, 0.17350205779075623 },
			{ -0.15433554351329803, 0.007438180968165398, 0.08256359398365021, 0.007681576535105705, 0.013904336839914322, 0.04814319685101509, -0.00505403708666563, 0.01775493659079075, -0.07221846282482147, -0.02890198491513729 },
			{ -0.20753994584083557, 0.08689843118190765, -0.01202542893588543, -0.19703169167041779, -0.10969381034374237, -0.012825156562030315, 0.05116675794124603, 0.017475372180342674, 0.10649260878562927, -0.007934249006211758 },
			{ -0.012471928261220455, -0.10924281924962997, 0.0726897194981575, -0.14880713820457458, -0.11921624094247818, 0.1497603803873062, -0.13112062215805054, -0.05046060308814049, -0.02018776349723339, 0.11399813741445541 },
			{ -0.2083888053894043, -0.10919633507728577, 0.011918257921934128, -0.10290474444627762, -0.07089018076658249, 0.16030214726924896, -0.15368397533893585, -0.24018815159797668, 0.024169988930225372, 0.14320914447307587 },
			{ 0.17865855991840363, 0.11395706236362457, -0.09617765992879868, -0.004754571244120598, -0.051921699196100235, 0.09596669673919678, 0.0016755071701481938, 0.0366772785782814, -0.05387325957417488, -0.005105374380946159 },
			{ -0.11057916283607483, 0.07142041623592377, -0.11067558825016022, 0.09083076566457748, -0.17144210636615753, -0.06938813626766205, 0.19966672360897064, -0.1272282749414444, -0.15985345840454102, -0.0443565770983696 },
			{ -0.16974949836730957, -0.3066813349723816, 0.0332375131547451, 0.21867285668849945, -0.3223441243171692, -0.22190824151039124, 0.23759734630584717, -0.13620783388614655, -0.007621923461556435, -0.20052948594093323 },
			{ -0.35747620463371277, -0.20378205180168152, 0.10729704052209854, -0.08398430794477463, -0.4480823576450348, 0.016096267849206924, 0.3601931035518646, -0.2990548610687256, -0.13144725561141968, -0.37060657143592834 },
			{ -0.3432849943637848, -0.28011196851730347, 0.26704975962638855, -0.14203333854675293, -0.44857606291770935, 0.15168632566928864, 0.324245810508728, -0.35008835792541504, -0.20784492790699005, -0.4354568421840668 },
			{ -0.2714552879333496, 0.034010790288448334, 0.33212289214134216, -0.2346041053533554, -0.4028892517089844, 0.038710206747055054, 0.1957176774740219, -0.3560757637023926, -0.46814244985580444, -0.6463876962661743 },
			{ -0.13136446475982666, 0.003040795214474201, 0.0006915935082361102, -0.061287250369787216, -0.19466669857501984, 0.1039961576461792, 0.20517969131469727, -0.38128963112831116, -0.36280810832977295, -0.7081531882286072 },
			{ -0.12232912331819534, -0.10875866562128067, 0.0024057270493358374, -0.06133412569761276, -0.40313491225242615, -0.14560505747795105, 0.12254207581281662, -0.3602864444255829, 0.02602216973900795, -0.5964481234550476 },
			{ -0.20313775539398193, -0.15820680558681488, 0.08978447318077087, -0.10278662294149399, -0.3873802423477173, 0.14219681918621063, 0.04898298904299736, -0.7317050099372864, 0.1483188271522522, -0.47628071904182434 },
			{ -0.07538804411888123, -0.442432701587677, -0.15193641185760498, -0.04026586934924126, -0.4219057261943817, 0.1797930896282196, 0.3077772557735443, 0.13190241158008575, 0.12223346531391144, -0.33960774540901184 },
			{ -0.3280830979347229, -0.33212581276893616, -0.2568293511867523, -0.3807339370250702, 0.007863936014473438, -0.007477768696844578, 0.3013805150985718, -0.3373262882232666, 0.038351722061634064, -0.15789714455604553 },
			{ -0.0696401372551918, -0.4203832447528839, -0.12450952082872391, -0.28408634662628174, -0.21357674896717072, -0.010181387886404991, 0.181531623005867, 0.19099760055541992, 0.11000733822584152, -0.15238377451896667 },
			{ -0.08175194263458252, -0.18012388050556183, 0.04901488125324249, -0.1311822235584259, -0.04130164161324501, -0.08851733803749084, 0.0721905380487442, 0.015446769073605537, -0.1432378590106964, -0.06384415179491043 },
			{ -0.013948322273790836, 0.06330906599760056, 0.016420282423496246, -0.08284533023834229, -0.06470084190368652, 0.05575750768184662, 0.04953103885054588, -0.030413413420319557, -0.006691832095384598, 0.058230992406606674 },
			{ -0.0008189960499294102, -0.07047524303197861, -0.032213374972343445, 0.06487203389406204, -0.04807956516742706, 0.02640615962445736, 0.05934799462556839, -0.01652207039296627, -0.050752390176057816, -0.062265779823064804 },
			{ -0.2270222157239914, 0.1836145669221878, -0.15961237251758575, -0.1301221400499344, -0.11489364504814148, 0.06523185968399048, 0.25224971771240234, 0.08896756172180176, -0.3860354721546173, -0.2862355709075928 },
			{ -0.04821208864450455, 0.025906626135110855, -0.15555627644062042, 0.07348761707544327, -0.0883140042424202, -0.09251668304204941, 0.27278465032577515, -0.03316330164670944, 0.06170734390616417, -0.4034357964992523 },
			{ -0.0625915676355362, 0.04153936728835106, 0.009071924723684788, -0.08260095119476318, -0.0947175845503807, 0.022958723828196526, 0.12351395934820175, -0.27586469054222107, -0.03152342140674591, -0.06821635365486145 },
			{ -0.13927865028381348, -0.10008963197469711, 0.1319127082824707, 0.03968081623315811, -0.0700569674372673, 0.010857128538191319, 0.06005434691905975, -0.42245274782180786, 0.06415599584579468, 0.03475891798734665 },
			{ -0.056964583694934845, 0.04390659183263779, 0.09835032373666763, 0.004095138981938362, -0.037816569209098816, -0.05093760788440704, 0.07311197370290756, -0.43191224336624146, 0.15039180219173431, -0.13566884398460388 },
			{ -0.0728384405374527, 0.11500205099582672, 0.04246965050697327, 0.007936013862490654, 0.05808674544095993, -0.04663081839680672, 0.06658731400966644, -0.10564452409744263, 0.03152680769562721, -0.32573649287223816 },
			{ -0.1248614490032196, 0.055268991738557816, 0.15646415948867798, 0.13330049812793732, 0.12054961174726486, 0.002012199256569147, -0.11516684293746948, -0.31092020869255066, 0.019617021083831787, -0.4234553575515747 },
			{ -0.040514446794986725, 0.10806633532047272, 0.26347389817237854, 0.10849509388208389, 0.06510645896196365, -0.04384626820683479, -0.04937993362545967, -0.5582515597343445, -0.04657416790723801, -0.5834038257598877 },
			{ -0.026536114513874054, -0.06584201753139496, 0.050898268818855286, 0.08940672129392624, 0.05583960935473442, -0.06544818729162216, 0.08544643223285675, -0.5068249106407166, -0.12442688643932343, -0.46399441361427307 },
			{ -0.1438359171152115, -0.22303025424480438, -0.048369936645030975, 0.09189039468765259, 0.23160134255886078, -0.15532882511615753, 0.0011453466722741723, -0.6587197780609131, 0.27814969420433044, -0.8673757314682007 },
			{ -0.2678973376750946, -0.23166079819202423, 0.026692036539316177, -0.35134151577949524, -0.05160187929868698, -0.05620452016592026, 0.10654211789369583, 0.03920312225818634, 0.15981455147266388, -0.5960437059402466 },
			{ -0.31488603353500366, -0.25993940234184265, -0.01691002957522869, -0.20714838802814484, -0.012314282357692719, 0.0007455995073541999, -0.06163419038057327, -0.4099045395851135, 0.18839703500270844, -0.28645747900009155 },
			{ -0.06429930776357651, -0.09858958423137665, -0.010207166895270348, -0.09083859622478485, 0.0087303277105093, 0.03447822853922844, -0.02102796919643879, -0.10252124816179276, 0.004120390396565199, -0.05030959099531174 },
			{ -0.010553957894444466, -0.13288167119026184, -0.09570498764514923, 0.14838722348213196, -0.0968051329255104, -0.20646291971206665, -0.08498259633779526, 0.06425537914037704, -0.12050698697566986, -0.32113829255104065 },
			{ -0.1377958506345749, 0.06369194388389587, -0.0728585496544838, 0.1101612076163292, 0.10801296681165695, 0.07466591149568558, 0.07191910594701767, 0.01629027910530567, -0.1413184553384781, -0.2073489874601364 },
			{ -0.009599532932043076, 0.1509026288986206, -0.04015713930130005, 0.036130160093307495, 0.10413362830877304, -0.025971468538045883, 0.19174276292324066, 0.07927299290895462, -0.16766415536403656, -0.03878207877278328 },
			{ -0.028995543718338013, 0.1324363797903061, -0.10440795868635178, 0.028836198151111603, 0.16511818766593933, -0.005672284867614508, -0.012748677283525467, 0.12316536903381348, 0.035005465149879456, 0.027421263977885246 },
			{ 0.019759178161621094, 0.05912541225552559, -0.00921914167702198, 0.013382959179580212, 0.06667939573526382, 0.03591056540608406, 0.08837420493364334, 0.06667295098304749, 0.007180196698755026, -0.10080259293317795 },
			{ -0.051016535609960556, 0.11991165578365326, -0.0009928223444148898, -0.09743840992450714, 0.024741066619753838, 0.057776328176259995, -0.10182585567235947, 0.008835554122924805, -0.07079114764928818, -0.05290914326906204 },
			{ -0.16213373839855194, 0.011571953073143959, 0.07752548903226852, 0.006148623768240213, -0.030902033671736717, -0.12527494132518768, -0.09327145665884018, 0.08793223649263382, -0.05454803630709648, -0.04422778636217117 },
			{ -0.12600812315940857, 0.08470330387353897, 0.08805698901414871, 0.104794442653656, -0.033171284943819046, -0.11530227959156036, -0.13354653120040894, -0.13352933526039124, 0.14278551936149597, -0.05407492443919182 },
			{ 0.014846999198198318, -0.01789029873907566, 0.17398735880851746, 0.1263609677553177, 0.022476520389318466, -0.12157144397497177, -0.17539335787296295, -0.06329613924026489, 0.05726729333400726, -0.0502147302031517 },
			{ 0.03735502064228058, -0.12870733439922333, 0.23896490037441254, 0.017890967428684235, 0.2179994434118271, -0.30552974343299866, -0.1443440467119217, -0.3631855249404907, 0.011973186396062374, 0.04363339766860008 },
			{ 0.06782045215368271, -0.29631322622299194, 0.3069491386413574, 0.04730149358510971, 0.051667992025613785, -0.28832873702049255, 0.057488732039928436, -0.4662178158760071, 0.16466858983039856, -0.027022559195756912 },
			{ 0.16510656476020813, -0.18465805053710938, 0.20762383937835693, 0.026423372328281403, 0.03272659704089165, -0.3572254776954651, 0.12432068586349487, -0.30956438183784485, 0.14202606678009033, -0.10310027748346329 },
			{ -0.24664942920207977, -0.3117193281650543, -0.04853077977895737, -0.046685244888067245, 0.03950762376189232, -0.08955447375774384, 0.17019400000572205, -0.46938827633857727, 0.1653502732515335, -0.40475448966026306 },
			{ -0.13217538595199585, -0.3028469979763031, -0.07547425478696823, -0.3579794466495514, -0.11556261777877808, 0.12189678102731705, 0.03635695204138756, -0.2404106706380844, -0.0024374707136303186, -0.24974633753299713 },
			{ -0.03441409766674042, -0.3383093774318695, -0.010450287722051144, 0.036849986761808395, -0.036367665976285934, -0.30218854546546936, -0.15692369639873505, 0.12052640318870544, 0.05598202720284462, -0.08244652301073074 },
			{ -0.2700057625770569, -0.06488101929426193, 0.05956529080867767, -0.261382132768631, 0.2019599825143814, -0.10522443801164627, 0.018188271671533585, 0.14023487269878387, -0.1761787384748459, -0.18448711931705475 },
			{ -0.2392355352640152, 0.08828014135360718, -0.21972449123859406, 0.049433331936597824, 0.05141710489988327, -0.04976407811045647, 0.12314171344041824, 0.24888233840465546, -0.017196306958794594, -0.05169880762696266 },
			{ -0.03462544456124306, 0.1351788341999054, -0.2909853458404541, -0.012459544464945793, 0.27367621660232544, -0.055967118591070175, -0.002049432834610343, 0.17330530285835266, 0.006134770344942808, -0.23727881908416748 },
			{ -0.0506122000515461, -0.012042287737131119, -0.20204779505729675, -0.011960278265178204, 0.20117709040641785, 0.011808741837739944, -0.07390882074832916, 0.1309647262096405, 0.0062882867641747, -0.16501471400260925 },
			{ -0.012166094034910202, 0.001577563933096826, -0.03158855438232422, 0.0673082023859024, 0.1826796680688858, 0.08363218605518341, -0.12428920716047287, 0.14476849138736725, -0.01111482921987772, -0.22874197363853455 },
			{ 0.07480466365814209, 0.006230126600712538, -0.008212783373892307, 0.11675485223531723, -0.04746754840016365, 0.03224536031484604, -0.23824773728847504, 0.06892012059688568, -0.06488904356956482, -0.09091796725988388 },
			{ 0.06371618062257767, 0.0212089903652668, 0.1286756843328476, 0.10174320638179779, -0.179955393075943, -0.079277902841568, -0.24864616990089417, -0.04331919923424721, 0.06434615701436996, 0.05704003944993019 },
			{ 0.06037705019116402, -0.15292353928089142, 0.11664891242980957, 0.023382658138871193, -0.0375884547829628, -0.1472283899784088, -0.245893657207489, -0.09684403985738754, 0.08259022980928421, 0.08696986734867096 },
			{ -0.022946780547499657, -0.24467487633228302, 0.024503350257873535, 0.06969665735960007, -0.051384758204221725, -0.08017521351575851, -0.17537342011928558, 0.05757446587085724, 0.2082846462726593, 0.12953199446201324 },
			{ 0.20533305406570435, -0.3199431896209717, -0.00792442262172699, 0.015651041641831398, -0.2324596643447876, -0.16128098964691162, -0.107075534760952, -0.14210157096385956, 0.16744382679462433, 0.04045063257217407 },
			{ 0.0809430181980133, -0.09043847769498825, 0.09167031198740005, 0.008057308383286, -0.10107008367776871, -0.12553249299526215, -0.006593857426196337, -0.42153027653694153, 0.01796245016157627, 0.01226077415049076 },
			{ 0.12913833558559418, -0.16621927917003632, -0.14199374616146088, -0.07231569290161133, 0.12992975115776062, -0.08510643988847733, 0.09190305322408676, -0.35284459590911865, 0.07996908575296402, -0.05674634873867035 },
			{ -0.23623722791671753, -0.1743910014629364, -0.11854780465364456, -0.19116602838039398, 0.04829472675919533, 0.028331376612186432, 0.10807349532842636, -0.5624773502349854, 0.03323570638895035, -0.3911104202270508 },
			{ 0.16253940761089325, -0.07653974741697311, -0.15903031826019287, -0.008777677081525326, -0.12230145186185837, -0.22357553243637085, -0.17103910446166992, 0.2001488357782364, 0.08772684633731842, -0.1375441551208496 },
			{ -0.2313302904367447, 0.1110774576663971, -0.0241867545992136, -0.17136450111865997, -0.028760496526956558, -0.05639372020959854, 0.1024429053068161, 0.19691568613052368, -0.06346074491739273, -0.11772776395082474 },
			{ -0.09934839606285095, 0.04580455273389816, -0.29037150740623474, 0.0027133950497955084, 0.06605952978134155, -0.14960704743862152, 0.042970605194568634, 0.2455771118402481, 0.008346389047801495, -0.14789484441280365 },
			{ -0.010363775305449963, 0.09956374764442444, -0.37842482328414917, -0.04773572459816933, 0.1273365318775177, 0.05958826094865799, -0.05579099431633949, 0.23254482448101044, 0.02755109593272209, -0.15107081830501556 },
			{ -0.07251600921154022, -0.03692725673317909, -0.25097888708114624, -0.17772622406482697, 0.22544527053833008, 0.10657540708780289, -0.018131835386157036, 0.2639961242675781, 0.06726138293743134, -0.032031767070293427 },
			{ -0.09357811510562897, -0.14719359576702118, -0.15678100287914276, -0.0657259002327919, 0.03282269462943077, 0.13454808294773102, -0.14984029531478882, 0.08709613978862762, 0.09021839499473572, -0.11123567819595337 },
			{ -0.07351517677307129, 0.12396582961082458, 0.00729153398424387, 0.1429004669189453, -0.21414904296398163, 0.040512993931770325, -0.3120885193347931, 0.10227478295564651, 0.037787970155477524, -0.04797927290201187 },
			{ 0.11448071151971817, -0.035145316272974014, 0.16148540377616882, 0.02467966079711914, -0.08158501982688904, -0.04023763909935951, -0.3186466097831726, 0.0907258465886116, 0.19053895771503448, 0.10405440628528595 },
			{ 0.18818341195583344, 0.04408596456050873, 0.08788568526506424, -0.10508397966623306, 0.009340123273432255, -0.09864463657140732, -0.2050679326057434, 0.08046311140060425, 0.05586867406964302, -0.009649639949202538 },
			{ 0.13112255930900574, -0.09630455076694489, -0.030215995386242867, -0.0732581838965416, -0.08448436856269836, -0.04533608257770538, -0.25050944089889526, 0.00817881990224123, 0.016662292182445526, 0.09686960279941559 },
			{ 0.19109468162059784, -0.19558268785476685, 0.009517556987702847, -0.051388803869485855, -0.17572137713432312, -0.22022131085395813, -0.15756137669086456, -0.028245018795132637, 0.022823847830295563, 0.06575069576501846 },
			{ 0.053905706852674484, 0.07601282745599747, -0.0778813362121582, -0.004195665940642357, -0.16280145943164825, -0.08371181041002274, -0.14454494416713715, -0.1320033222436905, 0.03374234586954117, 0.0568888820707798 },
			{ 0.10600337386131287, -0.06439046561717987, 0.12086354196071625, -0.11911371350288391, -0.07382364571094513, 0.035862356424331665, -0.011471351608633995, -0.26312270760536194, 0.012118780054152012, -0.035229820758104324 },
			{ -0.08480257540941238, -0.17668573558330536, -0.02608911693096161, -0.1806008666753769, 0.19026483595371246, 0.11297891288995743, 0.012423304840922356, -0.3789859414100647, 0.018217796459794044, -0.20121543109416962 },
			{ 0.05159928277134895, -0.19027702510356903, -0.10362651944160461, -0.043086711317300797, -0.27848514914512634, -0.17777854204177856, -0.23897230625152588, 0.24963445961475372, -0.0006532492698170245, -0.08176680654287338 },
			{ 0.11249760538339615, -0.03567655012011528, -0.03958852216601372, -0.1012897863984108, -0.024235403165221214, -0.1076139584183693, 0.06735812872648239, -0.0006817657267674804, 0.08792367577552795, 0.06180495023727417 },
			{ 0.001495141419582069, -0.03252940997481346, -0.047747764736413956, -0.279154509305954, 0.15852102637290955, 0.009978980757296085, 0.0429399348795414, 0.12206968665122986, -0.10231006890535355, 0.048389848321676254 },
			{ 0.011629325337707996, -0.027587080374360085, -0.1154833436012268, -0.27882328629493713, 0.08072442561388016, 0.04383538290858269, 0.17587250471115112, -0.003709912532940507, 0.03995400294661522, -0.006635009311139584 },
			{ 0.0886390209197998, -0.22673754394054413, -0.1403563767671585, -0.2794007956981659, 0.11411972343921661, -0.022343534976243973, 0.027181345969438553, 0.005655958317220211, 0.2112446427345276, -0.020992187783122063 },
			{ 0.012234245426952839, -0.212350532412529, -0.1330953985452652, -0.15271778404712677, 0.0970504954457283, 0.05715738981962204, -0.022924507036805153, 0.018969589844346046, 0.18019317090511322, 0.08501434326171875 },
			{ -0.15156811475753784, -0.06887120753526688, -0.09843759983778, -0.17498020827770233, -0.16989202797412872, 0.12002436816692352, -0.19800856709480286, -0.08690572530031204, 0.24839051067829132, 0.07442375272512436 },
			{ 0.12050965428352356, -0.0016179427038878202, -0.13114608824253082, -0.053558349609375, -0.21247413754463196, 0.01713067851960659, -0.25732630491256714, 0.003438647836446762, 0.24322523176670074, 0.1643398553133011 },
			{ 0.14987827837467194, 0.09172341972589493, -0.06029481440782547, -0.08896466344594955, 0.009464641101658344, -0.07812310010194778, -0.219258114695549, 0.12957768142223358, 0.03938910737633705, 0.1406557857990265 },
			{ 0.18530310690402985, 0.03768432140350342, 0.03402785584330559, 0.028850236907601357, 0.0915643647313118, -0.09361641108989716, -0.29205524921417236, 0.019211318343877792, -0.05712654069066048, 0.12394604086875916 },
			{ 0.21321909129619598, -0.055450018495321274, -0.09325307607650757, -0.06107821315526962, -0.022028278559446335, -0.11386802792549133, 0.01890590600669384, -0.028448915109038353, -0.024992411956191063, 0.12565220892429352 },
			{ 0.16051815450191498, 0.005552540998905897, -0.07590977847576141, -0.056724317371845245, -0.15238749980926514, -0.05541875958442688, -0.023334220051765442, -0.032657042145729065, 0.07120966166257858, 0.058410052210092545 },
			{ 0.14036275446414948, 0.15328912436962128, -0.05430666357278824, 0.05308450385928154, -0.23942109942436218, -0.08473525196313858, -0.1149190366268158, -0.037596844136714935, 0.07561223953962326, -0.0863356813788414 },
			{ 0.06228428706526756, -0.24599887430667877, 0.05907893553376198, -0.4085637032985687, 0.10556698590517044, 0.18862752616405487, -0.2950427830219269, -0.23063305020332336, -0.011805906891822815, -0.017528273165225983 },
			{ -0.07990814000368118, -0.21244511008262634, 0.21655230224132538, 0.048993028700351715, 0.1023886650800705, -0.25538432598114014, -0.122679203748703, -0.06942974776029587, -0.050266072154045105, -0.08722100406885147 },
			{ 0.08936227113008499, 0.1313745379447937, 0.09608524292707443, -0.049359992146492004, -0.10061775892972946, -0.09141451120376587, -0.06431104242801666, -0.12949848175048828, 0.10184110701084137, 0.2015683948993683 },
			{ -0.10361772775650024, 0.22127899527549744, 0.11756205558776855, -0.19290941953659058, 0.22345997393131256, -0.11168378591537476, -0.023869674652814865, -0.1418486386537552, 0.2076472043991089, -0.041638776659965515 },
			{ 0.030088016763329506, 0.015674373134970665, 0.09407419711351395, -0.3456811308860779, 0.09042271226644516, -0.08310193568468094, 0.03353129327297211, -0.16023333370685577, 0.2542697489261627, 0.003679486457258463 },
			{ 0.049924079328775406, -0.33000701665878296, -0.15826429426670074, -0.3698869049549103, 0.09698829799890518, 0.05226399749517441, 0.003053715918213129, -0.0878746435046196, 0.15360204875469208, 0.04306524246931076 },
			{ -0.008067929185926914, -0.308409720659256, -0.11721982061862946, -0.24181686341762543, 0.14599162340164185, 0.17098930478096008, 0.053342632949352264, -0.12229911983013153, 0.1866171509027481, -0.02706104889512062 },
			{ -0.01565271057188511, -0.031494297087192535, -0.13344451785087585, -0.055128373205661774, 0.01391130592674017, 0.12380819767713547, -0.0028934532310813665, -0.18509113788604736, 0.1076728031039238, -0.01580212265253067 },
			{ -0.10159439593553543, 0.11172480881214142, -0.17594242095947266, 0.009499133564531803, -0.06280849874019623, 0.011583886109292507, -0.06003078073263168, -0.04678044840693474, 0.08437416702508926, 0.05267292261123657 },
			{ 0.007119351532310247, 0.014230589382350445, -0.16845665872097015, 0.04988062381744385, -0.07915914058685303, -0.01909446157515049, -0.06423216313123703, 0.05715559795498848, -0.14512930810451508, 0.1568571925163269 },
			{ 0.15687009692192078, 0.01135100144892931, -0.06483517587184906, -0.040667496621608734, 0.012792794965207577, -0.0724770799279213, -0.091835156083107, 0.12017571926116943, -0.09907297044992447, -0.008526208810508251 },
			{ 0.06850806623697281, -0.02051708847284317, -0.02640593983232975, -0.025588836520910263, -0.0007707529002800584, -0.08549787104129791, 0.024220319464802742, -0.013646216131746769, -0.09266747534275055, 0.06021472439169884 },
			{ 0.22076362371444702, 0.06935495883226395, -0.18618221580982208, -0.06907226890325546, -0.016378052532672882, -0.09652477502822876, 0.08167939633131027, 0.06868410855531693, -0.018629565834999084, 0.040854040533304214 },
			{ 0.08556026965379715, 0.12844271957874298, -0.0761350467801094, 0.03586471453309059, -0.17115269601345062, -0.09258005023002625, -0.03466366231441498, -0.06807544082403183, 0.1395951509475708, -0.08017542213201523 },
			{ -0.0035637475084513426, -0.052108049392700195, -0.03657745197415352, -0.4492449164390564, -0.08715082705020905, 0.2290298491716385, -0.21018657088279724, -0.0711502954363823, 0.062070224434137344, -0.03371484577655792 },
			{ -0.1449964940547943, -0.1929854303598404, 0.25501275062561035, 0.057484906166791916, 0.001542245619930327, -0.17632219195365906, -0.1083880215883255, -0.024431560188531876, 0.12902210652828217, -0.28546619415283203 },
			{ -0.17603722214698792, 0.07009439170360565, -0.009613307192921638, 0.048347145318984985, -0.08873842656612396, 0.1620689481496811, -0.09612181037664413, -0.30899617075920105, 0.0017358367331326008, 0.14431346952915192 },
			{ -0.009076557122170925, -0.28761017322540283, -0.1155635192990303, -0.06204155087471008, 0.040663573890924454, 0.144941046833992, -0.012434501200914383, -0.126132071018219, 0.22672659158706665, 0.032024137675762177 },
			{ 0.1019798070192337, -0.2524667978286743, -0.13297314941883087, -0.23661690950393677, 0.12723466753959656, -0.2889693081378937, -0.06028404459357262, -0.018207425251603127, 0.3231143653392792, 0.08190437406301498 },
			{ 0.13188226521015167, -0.5222511291503906, -0.18292482197284698, -0.3762242794036865, 0.039981767535209656, -0.111329585313797, 0.0792452022433281, -0.04099510237574577, 0.20629453659057617, 0.18700458109378815 },
			{ 0.15034542977809906, -0.31412896513938904, -0.13642866909503937, -0.15647399425506592, 0.16490411758422852, -0.05701838806271553, 0.08079585433006287, -0.05351516604423523, 0.09446767717599869, -0.03123718500137329 },
			{ -0.056541383266448975, -0.049233194440603256, -0.08982206881046295, 0.0004225461161695421, 0.016038373112678528, 0.09335605055093765, 0.15165117383003235, -0.04345434904098511, 0.11867022514343262, -0.1307181715965271 },
			{ -0.23873305320739746, 0.0299027469009161, -0.150938019156456, 0.13147705793380737, -0.1225220188498497, -0.008198599331080914, 0.07311567664146423, -0.21888479590415955, 0.06933018565177917, -0.21611875295639038 },
			{ -0.16744279861450195, 0.0363449864089489, -0.11984626948833466, 0.055574771016836166, -0.07614824920892715, -0.08239676803350449, -0.013172158040106297, 0.014863891527056694, 0.03821472451090813, 0.08419863879680634 },
			{ -0.05051900073885918, -0.005281473975628614, -0.12017765641212463, 0.10803049802780151, -0.0006710226880386472, 0.014467629604041576, 0.012198391370475292, 0.01675880327820778, 0.030130276456475258, 0.03488321602344513 },
			{ 0.11190994828939438, -0.07668941468000412, -0.15317143499851227, 0.03522112965583801, 0.05840292572975159, 0.0007098625646904111, 0.06401101499795914, 0.08253087103366852, 0.007741792127490044, 0.012785802595317364 },
			{ 0.15163210034370422, 0.008812107145786285, -0.07838897407054901, -0.058406099677085876, -0.11230659484863281, -0.004945576190948486, -0.013925840146839619, 0.030756842344999313, -0.023992443457245827, 0.04389554634690285 },
			{ 0.10056639462709427, 0.08765681833028793, -0.2979716956615448, -0.13594159483909607, -0.1757354736328125, -0.08234458416700363, 0.14040637016296387, -0.13989771902561188, 0.1879662275314331, -0.032406728714704514 },
			{ 0.054534200578927994, 0.06448066234588623, 0.05591084063053131, -0.3990960717201233, -0.18301796913146973, -0.12333019077777863, 0.2414487600326538, -0.36117684841156006, 0.02457278221845627, 0.08414816856384277 },
			{ -0.17151091992855072, 0.10108508169651031, 0.09998345375061035, 0.11278575658798218, 0.039854273200035095, 0.04970517382025719, -0.09933913499116898, -0.02603083662688732, -0.2224423885345459, -0.06618820875883102 },
			{ -0.20262405276298523, -0.22897553443908691, 0.03423359990119934, 0.1788838654756546, 0.009854394942522049, 0.04068264737725258, -0.20920154452323914, -0.37486955523490906, -0.02294767089188099, 0.15824586153030396 },
			{ -0.04965188726782799, -0.07486069947481155, -0.013413944281637669, 0.16613231599330902, -0.12129770219326019, 0.1318872570991516, -0.007919210009276867, -0.16054829955101013, -0.08705250918865204, 0.14461572468280792 },
			{ 0.0261020977050066, -0.2084299474954605, -0.15685266256332397, 0.09250935912132263, -0.036306172609329224, 0.09558947384357452, -0.1324949711561203, -0.053911589086055756, 0.03612038865685463, 0.054683003574609756 },
			{ 0.143498957157135, -0.3052941560745239, -0.014887197874486446, -0.10916164517402649, 0.028634704649448395, -0.03163516893982887, 0.047868967056274414, -0.07579664885997772, 0.026218758895993233, 0.06909526139497757 },
			{ 0.09984101355075836, -0.2604990005493164, -0.1506558507680893, -0.14040720462799072, 0.0232593584805727, -0.11095336079597473, 0.02457379177212715, -0.038699742406606674, 0.035812124609947205, 0.009090249426662922 },
			{ 0.05438460782170296, -0.07683476060628891, -0.06810040026903152, 0.11468764394521713, -0.0432797372341156, -0.017083855345845222, 0.16278913617134094, -0.14520567655563354, 0.22833524644374847, -0.21429486572742462 },
			{ -0.299490362405777, 0.036604080349206924, -0.0657099187374115, 0.06169840693473816, -0.04642597213387489, -0.00606199586763978, -0.017373010516166687, -0.08549153059720993, 0.17214909195899963, -0.15519538521766663 },
			{ -0.1845894157886505, 0.14757542312145233, -0.1591494232416153, 0.08261627703905106, -0.05033089220523834, -0.10248720645904541, 0.08892112225294113, -0.005617091897875071, 0.059447623789310455, 0.008457554504275322 },
			{ -0.08673998713493347, -0.1285032033920288, -0.06154942139983177, 0.016404112800955772, 0.041560083627700806, -0.04043002426624298, 0.06918371468782425, 0.027925431728363037, 0.10779739171266556, 0.10110689699649811 },
			{ -0.09405381232500076, -0.2093300074338913, -0.08116035908460617, 0.06344394385814667, 0.03299831971526146, -0.044962458312511444, 0.018987225368618965, -0.02843940071761608, 0.07524966448545456, 0.007661766838282347 },
			{ 0.06327556073665619, -0.12191077321767807, -0.14306055009365082, -0.0162604171782732, 0.02117460034787655, -0.1146908551454544, 0.1020958349108696, -0.09328107535839081, 0.03834984824061394, -0.003695187158882618 },
			{ -0.0033919380512088537, -0.017659956589341164, -0.18840180337429047, -0.24528367817401886, 0.01829570159316063, 0.060054417699575424, 0.06840074062347412, -0.08141877502202988, 0.0834815725684166, 0.10869666188955307 },
			{ 0.15949833393096924, 0.14706730842590332, 0.12095619738101959, -0.15123145282268524, -0.05525581166148186, 0.0009693393367342651, 0.18898539245128632, 0.06642984598875046, -0.13803385198116302, -0.3130262792110443 },
			{ -0.021834906190633774, -0.024769967421889305, 0.040407560765743256, 0.05100918188691139, 0.15465928614139557, 0.13194158673286438, -0.12858402729034424, -0.2652811110019684, -0.06819174438714981, -0.2064398229122162 },
			{ -0.16719035804271698, 0.13033002614974976, -0.040789905935525894, 0.10333043336868286, 0.06549390405416489, 0.13858148455619812, -0.09310369193553925, -0.19564226269721985, -0.17088502645492554, -0.046451386064291 },
			{ -0.0685347318649292, 0.058577295392751694, -0.1526631861925125, 0.07611392438411713, -0.06377673149108887, 0.23149128258228302, -0.23493066430091858, -0.15456709265708923, -0.04333771392703056, 0.04219524562358856 },
			{ 0.0013568057911470532, -0.0834275558590889, -0.18118561804294586, 0.05468243360519409, -0.0680031105875969, 0.07571716606616974, -0.013280083425343037, -0.03196943551301956, -0.08470381796360016, 0.04410561919212341 },
			{ 0.1331530511379242, -0.1358737349510193, -0.047725461423397064, -0.029561199247837067, 0.009486187249422073, -0.0031813299283385277, -0.05215097963809967, -0.13898879289627075, -0.12560705840587616, -0.030352547764778137 },
			{ 0.13269254565238953, -0.11637052893638611, 0.02735111676156521, -0.03439408913254738, -0.04417327791452408, -0.04712865874171257, 0.09612371027469635, -0.04750042036175728, -0.04387809336185455, -0.1342635601758957 },
			{ 0.1719864159822464, -0.07709064334630966, 0.01196137722581625, 0.02031629905104637, -0.1482442170381546, -0.1471892148256302, 0.08433675020933151, -0.178255096077919, 0.013891974464058876, -0.18532483279705048 },
			{ -0.2104717344045639, 0.07049553841352463, 0.13179786503314972, 0.03700832650065422, -0.14208318293094635, -0.22128964960575104, 0.1393103450536728, -0.09119513630867004, 0.3022805154323578, -0.14806120097637177 },
			{ -0.328753799200058, 0.19711187481880188, 0.009586276486515999, -0.07078493386507034, 0.05672040954232216, -0.0983496904373169, 0.06006024032831192, 0.1611948162317276, 0.0670185387134552, -0.07178386300802231 },
			{ -0.1804516464471817, -0.055362507700920105, -0.06925822049379349, -0.03281077742576599, -0.0004504464450292289, -0.04852671176195145, 0.037972286343574524, 0.0907243862748146, -0.0035450696013867855, -0.011352324858307838 },
			{ -0.034833431243896484, -0.013003715313971043, -0.06920909136533737, 0.01907389611005783, 0.09804593771696091, -0.03981588035821915, -0.009613385424017906, 0.07278613746166229, -0.07846463471651077, 0.009317652322351933 },
			{ 0.025005685165524483, 0.0514729805290699, 0.01768387481570244, -0.0693117156624794, 0.01775159128010273, 0.026521582156419754, 0.05086062103509903, 0.02699296362698078, -0.09862124174833298, -0.029064306989312172 },
			{ -0.0016428910894319415, -0.02459317445755005, -0.002224863041192293, 0.001979661174118519, 0.014813450165092945, -0.07331151515245438, 0.025245599448680878, -0.0732312723994255, 0.03224088251590729, 0.050779979676008224 },
			{ 0.20034024119377136, 0.006504201330244541, 0.04234838858246803, -0.02498454973101616, -0.13053244352340698, -0.0036977031268179417, -0.03228871151804924, -0.026087507605552673, 0.000887361413333565, -0.3468363881111145 },
			{ 0.0815959945321083, -0.05599403381347656, -0.017258157953619957, 0.11714141070842743, -0.18665750324726105, 0.11606943607330322, -0.20262469351291656, -0.17703795433044434, -0.35491377115249634, -0.09277917444705963 },
			{ -0.11831747740507126, 0.09295442700386047, -0.14538738131523132, 0.11782119423151016, -0.20514169335365295, 0.2403118908405304, -0.43088623881340027, -0.11015279591083527, -0.2523363530635834, 0.05017361417412758 },
			{ -0.04826058819890022, -0.04066050052642822, -0.26660773158073425, 0.1946416050195694, -0.02864258550107479, 0.03663114830851555, -0.2033703476190567, -0.09927400946617126, 0.03407078981399536, 0.24811170995235443 },
			{ 0.14895816147327423, -0.0824328139424324, -0.08972823619842529, 0.1715373396873474, -0.09471140801906586, -0.03883238509297371, 0.015293508768081665, 0.007110352162271738, 0.08849845826625824, 0.07901488244533539 },
			{ 0.10062181204557419, -0.2318270206451416, -0.004304561764001846, 0.05279434472322464, -0.12754034996032715, 0.01839960366487503, 0.12370604276657104, -0.29665571451187134, -0.00682104704901576, -0.005490223411470652 },
			{ 0.1111183762550354, -0.0713559091091156, 0.11841534823179245, 0.007932175882160664, -0.32097381353378296, 0.013662055134773254, 0.03568379580974579, -0.10461726039648056, 0.01959972269833088, 0.0036359482910484076 },
			{ 0.12347748130559921, 0.0110300462692976, 0.06314357370138168, -0.13886712491512299, -0.3092999756336212, -0.13641618192195892, 0.16275648772716522, -0.12107019126415253, -0.019139615818858147, -0.12537556886672974 },
			{ 0.04831421747803688, 0.05351785942912102, 0.06605580449104309, -0.08502031862735748, -0.019588924944400787, -0.1483256220817566, 0.14042928814888, -0.04599297419190407, 0.0022106794640421867, -0.15356096625328064 },
			{ -0.14974160492420197, 0.17698371410369873, 0.08239389955997467, -0.10889477282762527, 0.05905913561582565, -0.08173015713691711, -0.08330770581960678, 0.10960100591182709, -0.05591239035129547, -0.1154802218079567 },
			{ -0.11201907694339752, 0.033832062035799026, 0.08341872692108154, -0.0327116921544075, 0.10849785059690475, -0.08940010517835617, 0.017063941806554794, 0.014518235810101032, -0.07699790596961975, -0.06737711280584335 },
			{ -0.07714425027370453, 0.09848053753376007, 0.09766695648431778, 0.054840438067913055, 0.03406614065170288, -0.07571947574615479, -0.04330205172300339, 0.009403231553733349, -0.026211190968751907, -0.13974174857139587 },
			{ -0.06612379103899002, -0.01700783520936966, 0.0801452174782753, -0.08156851679086685, 0.15330182015895844, 0.049394723027944565, -0.1094122976064682, 0.029229996725916862, -0.17417660355567932, -0.037163522094488144 },
			{ -0.11397545039653778, 0.031017368659377098, 0.010230702348053455, -0.029792452231049538, 0.029869189485907555, 0.10223767161369324, 0.0011569730704650283, -0.09232823550701141, -0.0005922348937019706, 0.06537893414497375 },
			{ 0.02502153068780899, 0.04941638931632042, -0.12581345438957214, -0.017307445406913757, -0.09149684011936188, -0.11663676798343658, -0.1088276281952858, 0.06517084687948227, 0.0432906374335289, -0.01978551596403122 },
			{ -0.16219407320022583, -0.09414252638816833, -0.35164692997932434, 0.25969234108924866, 0.10635079443454742, -0.06985350698232651, 0.06431006640195847, 0.1761990785598755, -0.1139092743396759, -0.16222232580184937 },
			{ -0.009377916343510151, -0.05734391137957573, -0.332983136177063, 0.4429788887500763, -0.13318641483783722, 0.17291319370269775, -0.08727341145277023, -0.0041574751958251, -0.4148157238960266, 0.021787401288747787 },
			{ 0.04923365265130997, -0.05568334832787514, -0.1710028499364853, 0.3087957203388214, -0.175322026014328, 0.06553337723016739, -0.24282845854759216, -0.16218870878219604, 0.05341396853327751, -0.08243674784898758 },
			{ 0.21415001153945923, -0.025918740779161453, 0.0025820941664278507, 0.1159500703215599, -0.040528491139411926, -0.07125699520111084, -0.07850254327058792, -0.1360129863023758, 0.03920433297753334, -0.04231395572423935 },
			{ 0.2203986793756485, -0.08285447210073471, 0.04218205437064171, 0.07979749143123627, -0.18574942648410797, 0.04560777172446251, 0.028064098209142685, -0.23678305745124817, 0.01643015258014202, -0.07935290038585663 },
			{ 0.10103669762611389, -0.1350930631160736, 0.11215386539697647, -0.024819763377308846, -0.13039298355579376, -0.06843157857656479, 0.08543433248996735, -0.16337049007415771, 0.022279808297753334, -0.10480072349309921 },
			{ 0.13042065501213074, 0.03693125769495964, 0.10187672823667526, -0.05076371133327484, -0.17988359928131104, -0.008861813694238663, 0.1890598088502884, -0.07234569638967514, 0.03699839487671852, -0.06134018674492836 },
			{ 0.047010768204927444, 0.156793013215065, 0.11982801556587219, -0.12173383682966232, -0.05097132548689842, -0.14016306400299072, 0.06073518842458725, 0.01198920700699091, -0.05407034233212471, -0.1032954677939415 },
			{ -0.014435884542763233, 0.009764891117811203, 0.09361877292394638, -0.07284805178642273, -0.01791343092918396, 0.007323917001485825, 0.05421827360987663, 0.034460071474313736, -0.04325636848807335, 0.010659141466021538 },
			{ -0.15339796245098114, 0.13770648837089539, 0.12776444852352142, -0.062402866780757904, 0.10737010836601257, -0.10242860019207001, -0.014172591269016266, -0.03339894115924835, -0.03173549473285675, -0.033094000071287155 },
			{ -0.15568429231643677, 0.05456407740712166, 0.037754714488983154, -0.04546789452433586, 0.12577101588249207, 0.0035635842941701412, -0.11043424159288406, -0.031770963221788406, -0.13006561994552612, 0.09260718524456024 },
			{ -0.04054555296897888, 0.004698460455983877, 0.01877068541944027, -0.051670100539922714, 0.04790962114930153, 0.05964316800236702, 0.010638028383255005, -0.031865838915109634, -0.0707303136587143, 0.015617932192981243 },
			{ -0.06844614446163177, 0.01615087315440178, 0.014529163017868996, -0.02040507271885872, -0.021144384518265724, 0.1371617615222931, -0.004488922655582428, -0.2873014211654663, -0.02039523236453533, 0.13762763142585754 },
			{ -0.06711840629577637, 0.23343594372272491, -0.07329493761062622, -0.21680353581905365, -0.12311609834432602, -0.006876428611576557, 0.02054019831120968, -0.08631224185228348, -0.16294105350971222, 0.2578493356704712 },
			{ 0.10410620272159576, 0.0327632836997509, -0.033847734332084656, 0.11422611027956009, -0.09171230345964432, -0.12044558674097061, -0.07721932232379913, 0.01602354273200035, -0.17516495287418365, -0.1247325986623764 },
			{ -0.06873328238725662, -0.12020272016525269, -0.07295240461826324, 0.018693482503294945, -0.02323911339044571, -0.14102385938167572, -0.16022928059101105, -0.14359119534492493, 0.22607748210430145, 0.35675033926963806 },
			{ -0.018569065257906914, 0.013983194716274738, -0.006647068075835705, 0.14786644279956818, -0.048538874834775925, -0.005330946296453476, -0.0409395731985569, -0.10665305703878403, -0.11362466961145401, 0.05708637833595276 },
			{ 0.0456295944750309, -0.04893410578370094, 0.005517472513020039, 0.16927576065063477, -0.09545781463384628, 0.05337049067020416, -0.09954772889614105, 0.011629683896899223, 0.04084455221891403, -0.0794718936085701 },
			{ 0.24406619369983673, 0.03567526489496231, -0.01904143951833248, -0.10793333500623703, -0.07749241590499878, -0.0374901257455349, -0.1456461250782013, -0.016459329053759575, 0.06117246299982071, -0.20888786017894745 },
			{ 0.02064998261630535, 0.11748938262462616, 0.043217238038778305, -0.16268138587474823, -0.0024526435881853104, -0.047518983483314514, 0.10499615967273712, -0.04671638831496239, 0.12173668295145035, -0.1448611468076706 },
			{ -0.023117197677493095, 0.04635460302233696, 0.05131751298904419, -0.026550715789198875, -0.03723512589931488, -0.04993847757577896, -0.018515601754188538, 0.02526252716779709, -0.04118812084197998, -0.006726184394210577 },
			{ -0.0363367423415184, -0.011041367426514626, 0.10526689887046814, -0.03911223262548447, 0.048441946506500244, -0.014410891570150852, 0.016448182985186577, -0.021206503733992577, 0.046725593507289886, -0.11633734405040741 },
			{ -0.18062105774879456, 0.07392461597919464, 0.04227222874760628, -0.060762591660022736, -0.10511238127946854, 0.009881211444735527, -0.038649268448352814, 0.009539153426885605, -0.0653613954782486, -0.01193898357450962 },
			{ -0.06933814287185669, 0.009384616278111935, 0.01498337835073471, -0.01054175104945898, -0.025914587080478668, 0.009120342321693897, -0.12778879702091217, 0.01801084168255329, -0.05850696563720703, 0.10472127795219421 },
			{ -0.13793979585170746, 0.13083681464195251, 0.16204257309436798, 0.03258839622139931, -0.037778425961732864, -0.07895626127719879, -0.06253538280725479, -0.08266881853342056, -0.1668444126844406, 0.11453797668218613 },
			{ -0.06637847423553467, -0.04546697437763214, 0.051525846123695374, -0.028668534010648727, -0.0015048753703013062, -0.009042552672326565, -0.04396144673228264, -0.1207699105143547, 0.08614420890808105, 0.006141935475170612 },
			{ -0.10706852376461029, -0.1099599227309227, 0.007569938898086548, -0.06767434626817703, 0.04530123993754387, -0.0001854420406743884, -0.06674584001302719, -0.26610180735588074, -0.05812777206301689, 0.020203618332743645 },
			{ -0.13903111219406128, -0.006415406242012978, 0.061363585293293, -0.10813136398792267, -0.15564076602458954, 0.14990605413913727, -0.24716025590896606, -0.3646750748157501, -0.18413370847702026, 0.22044134140014648 },
			{ -0.3844431936740875, -0.18304046988487244, -0.0341809056699276, -0.08097091317176819, -0.22007405757904053, 0.2808857858181, -0.025208426639437675, 0.029349779710173607, 0.03929488733410835, -0.006123457103967667 },
			{ 0.20441411435604095, -0.022510388866066933, 0.04351116716861725, 0.002405620878562331, 0.009025059640407562, 0.10061918944120407, -0.4076104760169983, -0.0408862940967083, -0.04651652276515961, -0.068157859146595 },
			{ -0.03595398738980293, -0.02375374361872673, -0.05802282318472862, -0.0003713729092851281, -0.20010708272457123, 0.09263820946216583, -0.20634867250919342, -0.24209251999855042, 0.2624848484992981, -0.10827375203371048 },
			{ 0.19380296766757965, 0.078539177775383, -0.07129319757223129, 0.05956193804740906, -0.143146812915802, -0.12710130214691162, -0.15663455426692963, 0.03771403059363365, -0.22333930432796478, 0.09479479491710663 },
			{ 0.05936198681592941, -0.05560585856437683, -0.017616031691432, 0.03971559554338455, 0.06468093395233154, -0.12651416659355164, -0.1985284835100174, 0.048064857721328735, -0.06677059829235077, 0.07457005232572556 },
			{ 0.03174269199371338, 0.011333491653203964, 0.03729129210114479, 0.0942591056227684, 0.06804685294628143, -0.035842131823301315, 0.019673587754368782, 0.07524324953556061, -0.034305423498153687, 0.06434936076402664 },
			{ -0.11919897794723511, 0.043195128440856934, -0.01005001924932003, 0.04804422706365585, 0.003955609630793333, 0.028191741555929184, -0.07428443431854248, -0.02493639849126339, 0.021848006173968315, 0.01682850532233715 },
			{ -0.014490264467895031, 0.200352281332016, 0.05137921869754791, 0.15699413418769836, -0.05973406508564949, -0.04512150585651398, -0.024790076538920403, -0.02884920872747898, -0.10173853486776352, 0.02468983642756939 },
			{ -0.0339692085981369, 0.12272197008132935, -0.15278039872646332, 0.053853195160627365, -0.08260319381952286, -0.01572141982614994, 0.05167496204376221, -0.0446285754442215, -0.06800194084644318, 0.12009970843791962 },
			{ -0.010386914014816284, -0.11304483562707901, -0.1193368062376976, 0.14352314174175262, -0.07453851401805878, -0.007196624297648668, -0.06782381236553192, 0.01084210630506277, 0.07269655913114548, 0.0577494278550148 },
			{ -0.024137206375598907, 0.07099076360464096, 0.048780012875795364, -0.049050912261009216, -0.09004148840904236, -0.004954004194587469, 0.07414081692695618, 0.034069743007421494, -0.06054261699318886, 0.001673318212851882 },
			{ -0.17919133603572845, 0.04102640226483345, -0.045038916170597076, -0.182672917842865, -0.02196819707751274, -0.0868610367178917, 0.10137767344713211, -0.10022734105587006, 0.15932101011276245, 0.11705700308084488 },
			{ -0.16965222358703613, -0.19422659277915955, 0.012762587517499924, -0.16953088343143463, 0.012440397404134274, 0.1889747530221939, -0.17357054352760315, -0.205213725566864, 0.18511797487735748, -0.018344448879361153 },
			{ -0.1362949013710022, -0.07124940305948257, -0.04173552244901657, 0.004828356206417084, 0.047179579734802246, 0.1987721472978592, -0.23945750296115875, -0.24586954712867737, -0.29171139001846313, 0.13949911296367645 },
			{ 0.060974251478910446, 0.0649491399526596, -0.02118910849094391, -0.031018175184726715, -0.0823136493563652, -0.0017608089838176966, 0.03511561453342438, 0.055350080132484436, -0.02196202613413334, 0.06394936144351959 },
			{ 0.00014578065020032227, 0.01899457722902298, -0.0594969280064106, 0.024331089109182358, -0.14748308062553406, 0.1292441487312317, 0.008580015040934086, -0.03708631917834282, 0.018068009987473488, -0.08827636390924454 },
			{ 0.029315359890460968, -0.04056112468242645, 0.08134859800338745, -0.08073051273822784, -0.1629335880279541, 0.07727985829114914, -0.007602255791425705, 0.0003269844746682793, 0.1251564621925354, 0.0815553069114685 },
			{ 0.012581932358443737, 0.04483440890908241, -0.07688328623771667, 0.035733576864004135, -0.1484723687171936, -0.06938251852989197, 0.018135998398065567, -0.15667521953582764, 0.09800037741661072, -0.011446240358054638 },
			{ 0.042370010167360306, 0.11665421724319458, 0.0009265975095331669, -0.030450016260147095, -0.004227949306368828, -0.06289254128932953, -0.07766839861869812, -0.05155561491847038, -0.018825430423021317, 0.019005002453923225 },
			{ -0.0040597738698124886, -0.03840440884232521, -0.0652187317609787, -0.10388761758804321, -0.11655726283788681, 0.1035531684756279, -0.1568906307220459, -0.0033435916993767023, 0.08794713020324707, -0.026874404400587082 },
			{ 0.19993123412132263, -0.030318373814225197, 0.008496497757732868, -0.05500478297472, -0.03729318827390671, 0.005401672329753637, -0.04846498370170593, -0.032341934740543365, -0.06450115144252777, -0.001299958792515099 },
			{ 0.16408023238182068, 0.024215515702962875, -0.07374700158834457, -0.1396346390247345, -0.04169659689068794, -0.1440720558166504, -0.11763736605644226, -0.05914740636944771, 0.11824824661016464, -0.037408191710710526 },
			{ 0.003303823061287403, -0.015232151374220848, -0.05890123173594475, -0.12251623719930649, -0.04594873636960983, 0.003686104668304324, 0.08681078255176544, -0.11648324877023697, -0.0019846251234412193, -0.008913157507777214 },
			{ 0.028153231367468834, -0.03285360336303711, -0.04098362475633621, -0.04035523533821106, 0.007310035638511181, -0.1355963945388794, 0.11221665143966675, -0.08920132368803024, -0.005266828928142786, -0.08540976047515869 },
			{ 0.16257666051387787, 0.04993899539113045, -0.047791365534067154, -0.16087155044078827, -0.004740302450954914, -0.025786779820919037, 0.03945814073085785, -0.04934258386492729, -0.08200225234031677, -0.09153509885072708 },
			{ -0.01741819456219673, -0.027146995067596436, 0.08390964567661285, -0.05834822729229927, -0.023521605879068375, 0.10688605159521103, -0.022262880578637123, 0.050917211920022964, -0.006155530922114849, 0.06537346541881561 },
			{ 0.08854863792657852, 0.035995565354824066, 0.04574483260512352, -0.01341458410024643, -0.14716960489749908, 0.037750814110040665, -0.05597608536481857, -0.02314715087413788, 0.09847673773765564, -0.005420856177806854 },
			{ -0.005720166023820639, 0.03577851504087448, 0.03226901590824127, -0.04853476211428642, -0.042893219739198685, 0.12224601954221725, -0.011541000567376614, -0.024718575179576874, 0.01260611042380333, 0.004088606219738722 },
			{ -0.04851384460926056, -0.03968482464551926, -0.08990547060966492, -0.0086057772859931, -0.024764584377408028, 0.06829255074262619, -0.0462346076965332, 0.017111647874116898, 0.032201990485191345, -0.08920604735612869 },
			{ 0.0475676953792572, 0.09987970441579819, -0.1900576502084732, -0.07668991386890411, -0.038538720458745956, 0.06577669829130173, -0.0287384781986475, 0.06671371310949326, 0.0007542899111285806, -0.08986146003007889 },
			{ 0.08201748877763748, 0.0879492536187172, -0.10185464471578598, -0.035040102899074554, -0.08333531022071838, 0.0001284337049582973, 0.005938292481005192, 0.039869360625743866, 0.058075033128261566, 0.06527102738618851 },
			{ 0.04319603368639946, -0.022372115403413773, -0.06181975454092026, 0.03235834464430809, 0.04822031781077385, 0.056691963225603104, -0.12429019808769226, 0.013448803685605526, -0.056700170040130615, -0.05534323677420616 },
			{ 0.0016491856658831239, -0.014069161377847195, -0.08448150008916855, 0.13453227281570435, 0.1549260914325714, -0.11627133935689926, -0.15752942860126495, -0.015866531059145927, 0.06190090626478195, -0.1784987896680832 },
			{ 0.1319708228111267, -0.05913499370217323, -0.1022203266620636, 0.1712959259748459, -0.0012966699432581663, -0.10800722241401672, -0.10932011902332306, 0.07253532856702805, -0.02424517460167408, -0.2481871247291565 },
			{ 0.10329677909612656, -0.027407096698880196, 0.21501734852790833, 0.09669282287359238, -0.044420771300792694, -0.04437157139182091, -0.08947810530662537, 0.055499520152807236, -6.437583942897618e-05, -0.15458180010318756 },
			{ -0.15228816866874695, 0.11430271714925766, 0.17826753854751587, -0.05954999104142189, -0.016160381957888603, 0.08083412051200867, -0.09950779378414154, 0.12431888282299042, -0.17255184054374695, -0.035909563302993774 },
			{ 0.08876539766788483, 0.06384952366352081, 0.09442318975925446, -0.06485790014266968, 0.009186649695038795, 0.03211503475904465, -0.018482137471437454, -0.09044817835092545, -0.2815713584423065, 0.035529106855392456 },
			{ 0.036291200667619705, 0.24080558121204376, -0.16833706200122833, -0.16626718640327454, 0.034184981137514114, 0.21731586754322052, 0.11246499419212341, -0.11897486448287964, -0.42184799909591675, -0.03412473201751709 },
			{ 0.0997295156121254, 0.12942489981651306, -0.1656809151172638, -0.17749056220054626, 0.03410149738192558, 0.013992955908179283, 0.3110576272010803, -0.06806159764528275, -0.1749146282672882, -0.01843438856303692 },
			{ 0.013789997436106205, -0.025710271671414375, -0.0530446320772171, -0.16728940606117249, -0.03261794522404671, 0.08023529499769211, 0.20451398193836212, 0.04861311614513397, 0.08936923742294312, 0.026918107643723488 },
			{ 0.039438460022211075, 0.021946854889392853, -0.059643592685461044, -0.08711231499910355, -0.1838313490152359, 0.19072842597961426, -0.05772745609283447, -0.09503480046987534, 0.11592956632375717, 0.054591819643974304 },
			{ 0.10331793129444122, 0.037940043956041336, -0.01750454306602478, -0.02754974365234375, -0.03358820825815201, -0.028287919238209724, 0.019771557301282883, 0.015416596084833145, 0.10674344003200531, -0.04344514012336731 },
			{ -0.038752682507038116, 0.022954940795898438, -0.06022242084145546, 0.0008859397494234145, -0.08673768490552902, 0.05515424907207489, -0.04707670211791992, -0.04987793415784836, -0.032077591866254807, -0.04683338850736618 },
			{ -0.02535184659063816, -0.008764143101871014, -0.055692173540592194, -0.08796439319849014, -0.05731755495071411, -0.0449359305202961, -0.08193960785865784, -0.08803409337997437, -0.01999502070248127, 0.08339852839708328 },
			{ 0.12492556869983673, 0.027798818424344063, 0.15799705684185028, 0.0002350719878450036, -0.2757767140865326, -0.042096350342035294, -0.06186485290527344, 0.00013460693298839033, 0.07707986980676651, 0.05429011583328247 },
			{ 0.00828493107110262, -0.15372692048549652, 0.2989335060119629, 0.03171100839972496, -0.19411513209342957, -0.12219388037919998, -0.11419805884361267, -0.18491694331169128, -0.0027208211831748486, -0.0993141233921051 },
			{ -0.08354764431715012, -0.3935241997241974, 0.5093600153923035, 0.13707424700260162, -0.2646932899951935, -0.17233780026435852, -0.3252405822277069, -0.23878327012062073, 0.010352466255426407, 0.08767542243003845 },
			{ -0.3341808021068573, -0.392210990190506, 0.3654981255531311, 0.21132273972034454, -0.5658230185508728, -0.3898930251598358, -0.29290571808815, -0.5371654629707336, 0.0008339052437804639, 0.2916557788848877 },
			{ -0.04458525776863098, -0.13056758046150208, 0.27143365144729614, 0.1955982893705368, -0.6921852827072144, -0.1925877034664154, -0.28007909655570984, -0.3067433536052704, -0.040373388677835464, 0.4603651463985443 },
			{ -0.07204540818929672, -0.05285749211907387, 0.010676154866814613, 0.1958715319633484, -0.6876746416091919, 0.02580750174820423, -0.037195876240730286, -0.008456137962639332, -0.0059011466801166534, 0.1651797592639923 },
			{ -0.0590929239988327, 0.12016696482896805, -0.12407775968313217, 0.021010395139455795, -0.39079412817955017, 0.18177443742752075, 0.06392252445220947, 0.1880100667476654, -0.3757489323616028, -0.4130961298942566 },
			{ -0.1186908483505249, 0.14315949380397797, -0.25008314847946167, -0.4380020499229431, -0.02306661754846573, 0.3476605713367462, -0.06564661860466003, 0.1742362231016159, -0.11249452829360962, -0.631397008895874 },
			{ -0.11261500418186188, -0.03592446818947792, -0.10418453067541122, -0.2823432385921478, -0.05507800728082657, 0.29234087467193604, -0.053162213414907455, -0.12136093527078629, -0.13671118021011353, -0.2304002344608307 },
			{ -0.21716248989105225, -0.07412584125995636, -0.01701958477497101, -0.3454349637031555, -0.11969511955976486, 0.23912028968334198, 0.12035924941301346, -0.0876578837633133, 0.017642812803387642, -0.1428593248128891 },
			{ -0.23695853352546692, -0.028153104707598686, -0.274074912071228, -0.08960816264152527, -0.0020438742358237505, 0.19495292007923126, -0.049468427896499634, -0.12790440022945404, 0.1293964684009552, 0.0063494546338915825 },
			{ -0.0053029474802315235, -0.06792856752872467, -0.0068618012592196465, -0.09259533137083054, -0.15835700929164886, 0.277072012424469, 0.003648424753919244, -0.0848526731133461, 0.008572717197239399, -0.004272023215889931 },
			{ 0.10417937487363815, -0.0214353259652853, -0.0802094116806984, 0.09575264900922775, -0.07196439802646637, 0.042777497321367264, -0.019964447245001793, 0.008408027701079845, -0.04839378967881203, -0.05369003862142563 },
			{ 0.01839505508542061, 0.15410229563713074, 0.028838403522968292, 0.060517288744449615, -0.11727152019739151, -0.059455111622810364, -0.010931919328868389, 0.10092062503099442, -0.02708531729876995, -0.10607834905385971 },
			{ -0.004736148286610842, 0.17981217801570892, 0.04618010297417641, 0.09027217328548431, -0.1572912335395813, -0.26385822892189026, -0.18629616498947144, 0.06810320168733597, 0.06225517764687538, -0.006374678108841181 },
			{ -0.20744307339191437, 0.06764866411685944, 0.12737882137298584, 0.11545513570308685, -0.2702490985393524, -0.3489290773868561, -0.27250733971595764, 0.09056206792593002, -0.11062265187501907, -0.16108669340610504 },
			{ -0.36548537015914917, -0.06326117366552353, 0.17640788853168488, 0.29139819741249084, -0.24860550463199615, -0.3251170217990875, -0.40123841166496277, 0.17357631027698517, -0.20031340420246124, -0.359404981136322 },
			{ -0.29612311720848083, -0.2675003111362457, 0.1588631272315979, 0.12449222058057785, -0.367446631193161, -0.14903128147125244, -0.31789928674697876, 0.28711801767349243, -0.12439502775669098, -0.04263903945684433 },
			{ -0.12631988525390625, -0.09146826714277267, 0.0010748504428192973, 0.11510012298822403, -0.6495972871780396, 0.07313065230846405, -0.14370733499526978, 0.2830049991607666, -0.16356761753559113, -0.07183346152305603 },
			{ 0.04804131016135216, 0.06927521526813507, 0.06866435706615448, -0.039666853845119476, -0.47107040882110596, 0.09300369769334793, -0.011108086444437504, 0.20277343690395355, -0.26037120819091797, 0.14237742125988007 },
			{ 0.05768613889813423, 0.0030791056342422962, -0.020291078835725784, -0.13222917914390564, -0.24197816848754883, 0.22010663151741028, -0.01712726429104805, 0.19694216549396515, -0.13228003680706024, 0.1569393426179886 },
			{ -0.23783491551876068, -0.27605491876602173, -0.09679209440946579, -0.23329360783100128, -0.2807805836200714, 0.1344357281923294, 0.1359909474849701, 0.16078156232833862, 0.051253750920295715, -0.07187055796384811 },
			{ -0.4571651816368103, -0.5395209789276123, -0.40850093960762024, -0.4721541404724121, -0.2531037926673889, 0.24230122566223145, 0.1906033754348755, -0.09517078846693039, 0.079293392598629, 0.019513703882694244 },
			{ -0.3326316773891449, -0.3269319236278534, -0.6273059844970703, -0.36798596382141113, 0.03940330073237419, 0.29050585627555847, 0.17174634337425232, -0.1709425300359726, 0.23195162415504456, -0.2839873135089874 },
			{ -0.23883095383644104, -0.27451708912849426, -0.329156756401062, -0.2078462541103363, 0.10603486746549606, 0.23679514229297638, 0.06383433192968369, -0.11139985173940659, 0.05848206579685211, -0.15403306484222412 },
