#pragma once
#include "definitions.h"

// Dense layer weights
float dense_weights[FLAT_SIZE][DENSE_SIZE] = {
    { 0.04620493, -0.10166454, -0.12372785, -0.2949655, -0.15042524, -0.085234016, -0.089665316, -0.11009891, -0.048837498, 0.012967843, -0.028798299, 0.027803263, 0.07726183, 0.011696612, -0.015579588, -0.17606091, -0.17786989, 0.017858338, -0.026694568, -0.0911633, -0.034992874, -0.016617907, -0.016812405, -0.08272329, -0.062296133, -0.033473555, 0.09322435, -0.1456291, -0.13997163, -0.16833173, -0.06950751, -0.09075711, -0.02786645, 0.016014876, -0.029499734, -0.040198438, -0.016277755, -0.07196221, -0.02295518, -0.13792442, -0.12269008, 0.0014798081, -0.22562781, -0.062191453, -0.008253783, 0.0429799, 0.06400233, -0.026986254, -0.008397247, -0.0020122079, 0.033281878, -0.08143206, -0.090602815, -0.087030895, -0.26326004, -0.12430321, -0.1634461, 0.006472658, 0.07453668, 0.047327507, -0.024817249, 0.06562543, 0.045303598, 0.072819546, -0.0947043, -0.23970069, -0.17728736, -0.377603, -0.19916326, -0.084362894, -0.024448805, 0.0655791, 0.102838166, 0.098179735, 0.07909147, 0.058979705, -0.06639509, -0.026911557, -0.20226493, -0.15847418, -0.073124416, -0.21013108, -0.42432204, -0.31305492, -0.09816038, 0.0151573755, 0.17040026, 0.14220594, 0.01902623, 0.011713324, -0.10342711, -0.18193138, 0.028719889, 0.057064977, 0.09936409, -0.042802613, -0.39460132, -0.21578817, -0.011765557, 0.11990819, 0.12966938, 0.124481454, 0.14039381, -0.014501035, -0.22170864, -0.058864824, 0.040811967, 0.13167702, 0.20460661, 0.030026225, -0.43077585, -0.30129546, 0.006388498, 0.09979801, 0.08057406, 0.09515778, 0.05063138, 0.032756772, -0.22126095, 0.0051860213, 0.15875551, 0.18599063, 0.18827339, 0.06780107, -0.19656481, -0.32545352, 0.04566109, 0.045160655, 0.037820462, 0.047845013, 0.0026300706, -0.048832774, -0.016022472, 0.028662495, 0.14550267, 0.24582797, 0.113413006, 0.034649506, -0.11571719, -0.18724893, 0.005185748, 0.0685838, -0.026110817, -0.0027180489, 0.009713247, -0.078506395, -0.059082855, 0.032790415, 0.14932717, 0.13903557, 0.17347667, -0.0030367235, 0.062185597, 0.099711455, 0.03815049, 0.059094764, -0.016973073, -0.045547534, 0.055597775, -0.042722005, -0.3083802, -0.2119674, -0.10911493, -0.05535121, -0.15587278, -0.1825372, 0.049623325, -0.0113391215, -0.041022174, 0.10328785, 0.049004216, -0.14918898, -0.062208153, -0.06597096, -0.4294523, -0.6643171, -0.52386653, -0.35434937, -0.45360065, -0.12791191, 0.15412915, -0.06740131, -0.16971667, 0.041914172, -0.0457877, -0.0866752, -0.026907055, -0.084545866, -0.33159807, -0.4922994, -0.537804, -0.42217857, -0.13596779, -0.19958965, -0.06523883, -0.19576159, -0.094438694, -0.1640615, -0.11761, -0.0035908644, -0.08867629, -0.13316263, -0.11236363, 0.025505794, -0.17429966, -0.14031903, -0.19577378, 0.030025454, -0.01368799, 0.025310345, -0.15769456, -0.03499926, 0.057449564, -0.16142575, -0.049711827, 0.0030021034, 0.03174305, -0.032465164, -0.06378713, -0.0038093817, -0.0907808, -0.12069643, 0.032520812, 0.025659284, -0.14886631, 0.1615837, -0.009170125, -0.045262847, -0.08861844, -0.1567137, -0.004744838, 0.017126497, -0.07539411, -0.15671994, -0.20154533, -0.21791676, 0.03040732, 0.06461531, 0.046015967, 0.04533679, 0.010778258, -0.027066264, -0.19677109, -0.03806748, 0.012674582, 0.012768134, -0.07813282, -0.18761428, -0.11315153, -0.106745325, 0.024974523, 0.14549513, 0.009325716, -0.01940077, -0.004905881, -0.17421284, -0.14580186, -0.018647349, 0.06460919, 0.05980235, -0.12849082, -0.11132573, 0.009615785, -0.05685285, 0.03600209, 0.14098999, 0.06611278, -0.013982926, -0.045120474, 0.041530844, 0.0058537954, -0.04806974, -0.060488697, 0.027161388, 0.012248288, -0.18077138, 0.0789596, 0.043031666, 0.060653113, 0.1551459, 0.006634249, -0.025061239, -0.02851928, 0.117375165, 0.14042856, 0.04492104, 0.0398645, 0.024555627, -0.22262481, -0.10134241, 0.0957009, 0.04803792, 0.049470756, 0.15177897, -0.07914849, -0.054780968, -0.25107676, -0.09969063, 0.12914798, 0.11669242, 0.062005915, 0.029595986, -0.31185484, -0.06561731, 0.07851057, 0.07897909, 0.015225864, 0.07717495, -0.013867725, -0.14308849, -0.6008631, -0.1587609, 0.1050898, 0.16515306, 0.11131132, 0.0011901049, -0.2540546, -0.08572402, 0.0019287276, -0.0022113791, 0.07224232, 0.09264094, -0.0012611451, -0.23406073, -0.59760267, -0.354174, -0.038556166, 0.098831825, 0.00095698866, 0.0119549045, -0.05836084, -0.014443369, 0.035798658, 0.014456696, 0.039141145, 0.0016869118, -0.11189854, -0.27474207, -0.4375473, -0.32561183, -0.109249696, -0.015407672, 0.18615112, 0.036511622, -0.0011322227, -0.047189835, 0.007384539, -0.00018361234, 0.049039844, -0.040235035, -0.031520665, -0.13200478, -0.315654, -0.16401327, -0.049440343, 0.0057037747, 0.07190268, 0.017676502, -0.06989857, -0.045093298, -0.055705983, 0.0027829024, 0.017015621, -0.100834854, -0.02753726, -0.04619235, -0.12147, -0.12781909, -0.020536955, 0.009558448, 0.030786885, -0.05472784, -0.019265689, -0.024288315, 0.03139165, -0.06500812, -0.042255756, -0.10910356, -0.057442855, 0.014823742, 0.023243202, 0.07638816, 0.017514572, 0.03549437, 0.028327016, 0.017082263, 0.039146725, 0.011457348, -0.030093683, -0.1946257, -0.16299492, -0.12782356, -0.14013666, -0.17240597, -0.17993355, -0.06969211, -0.08135012, -0.0695179, -0.067251615, -0.04547713, -0.027360374, -0.052675713, -0.058257855, -0.03616703, 0.03130733, -0.009771969, -0.27724114, -0.03238476, -0.034116052, -0.06143858, -0.055242553, 0.014259332, -0.06413923, 0.02108655, 0.03757389, 0.014526018, 0.025524678, -0.10122308, -0.1610154, -0.07954594, -0.31716022, 0.063089296, -0.056968182, 0.017498303, -0.01372702, -0.097097695, 0.013612744, -0.020131592, -0.008287597, 0.104250595, 0.21223527, 0.0858493, -0.04421724, -0.12510742, -0.050266583, 0.048277948, 0.12477208, 0.08504555, 0.020626545, 0.02514434, 0.0049799066, 0.15219657, 0.14584164, 0.04181036, 0.10272106, 0.096658856, 0.120414995, -0.17430685, 0.003198518, -0.01412854, 0.025115708, 0.105203606, 0.057274573, -0.06340167, 0.04123994, 0.18078443, 0.19689392, 0.21145907, 0.064450756, 0.07102572, 0.09975629, -0.006461063, 0.10532006, -0.030074142, 0.025731208, -0.024508277, 0.001757415, -0.0036935427, -0.118563816, -0.07982894, 0.12797645, 0.022111818, 0.121588774, 0.07312991, -0.01521165, -0.057300486, -0.03814004, -0.041582253, -0.12056026, -0.04493856, 0.019164952, -0.049205773, -0.18209523, -0.18278457, -0.22065008, -0.0044413614, -0.015386449, 0.11299509, 0.09697945, -0.024409454, -0.034063052, 0.020209663, -0.1259562, -0.036408033, -0.0062940298, -0.000331589, 0.024541391, -0.16930777, -0.25510824, -0.07721089, 0.015460616, 0.06480486, 0.06054004, 0.056340247, -0.054919638, -0.09788229, -0.12284959, 0.027338184, 0.04750539, 0.055695366, 0.10640079, -0.015560858, -0.2245195, -0.09982516, -0.020777535, -0.021687407, 0.0054378156, -0.003893074, -0.15264784, -0.12901805, -0.058527827, -0.013142182, -0.015842421, 0.11776819, 0.14130698, -0.04357293, -0.061382465, -0.08006488, -0.10727473, -0.114198685, -0.024052944, -0.043473348, -0.31331983, -0.29226252, -0.08149083, 0.121381246, 0.10118933, 0.14474356, 0.22146867, 0.17031741, -0.0007332339, -0.16525568, -0.2077182, -0.10654664, -0.043080088, -0.008231459, -0.13289276, -0.24877574, -0.0003564775, 0.15588987, 0.18402128, 0.1662441, 0.098868, 0.0755643, -0.013925781, -0.10082051, -0.1306617, -0.06274157, -0.1033394, -0.16174936, -0.04108373, -0.09977045, -0.05646078, 0.047365814, 0.12446408, 0.051695757, -0.07023715, -0.107630685, -0.13096176, -0.12071376, -0.13869227, -0.18636388, -0.22063953, -0.24558449, 0.03241357, -0.07624736, -0.03300435, -0.011312309, -0.112513825, -0.352361, -0.49206662, -0.5637917, -0.50761646, -0.36903813, -0.3500859, -0.31807828, -0.19393852, -0.076524846, 0.053019557, 0.103294566, 0.11675942, 0.13185886, 0.13773522, 0.09275696, 0.11686964, 0.07317042, 0.11941404, 0.084587246, 0.12855457, 0.11222553, 0.09243431, 0.08648016, 0.06262094, 0.059969127, 0.098465525, 0.10171945, 0.23328865, 0.09316811, 0.13799648, 0.083044946, 0.10251991, 0.053557362, 0.12218883, 0.07043342, 0.053992707, 0.07630056, 0.10060666, 0.030721337, 0.0859061, -0.094701625, -0.17228149, -0.16980638, -0.14515692, -0.012316091, 0.0604747, -0.090448774, -0.19530754, -0.08894331, -0.063390106, 0.08686628, 0.0384411, 0.14338313, -0.067326866, -0.17052867, -0.32171336, -0.29287273, -0.06415254, 0.024072431, 0.077965066, 0.09620045, -0.100927226, -0.24635711, -0.11523653, 0.005478693, 0.05854971, 0.048834216, -0.15219851, -0.1168978, -0.19879597, -0.1105286, -0.107570454, -0.06545836, -0.05604516, -0.021162672, 0.01771, -0.23737785, -0.19005972, -0.15256952, 0.062194515, 0.047608037, -0.15233116, -0.11972024, -0.20926704, -0.13153136, -0.13499703, -0.07742284, 0.013276853, -0.06555577, -0.122489326, -0.27411506, -0.2163276, -0.10742352, 0.076875806, 0.009414628, -0.106103204, -0.32136735, -0.38506433, -0.18078093, -0.15163058, -0.14949986, -0.059286866, -0.024468271, -0.013392074, -0.14623939, -0.084220536, -0.013268132, 0.034967836, -0.021419656, -0.14857304, -0.27345347, -0.37099457, -0.15514679, -0.40682545, -0.43710193, -0.27543753, -0.06730434, 0.049472664, -0.026620174, -0.020646304, 0.047664568, 0.022828745, 0.011961965, -0.03745423, -0.1365267, -0.044158794, -0.37346134, -0.44353297, -0.44063205, -0.08070114, 0.010575398, 0.062720574, 0.03641274, -0.016084388, 0.031444345, 0.053145908, -0.055402093, -0.13218424, -0.047102172, 0.08430696, 0.02452177, -0.041280523, 0.009857155, 0.029729761, 0.016236989, 0.045448974, 0.050167687, 0.021652535, 0.034444552, 0.012332047, -0.06656888, -0.0754043, -0.03089451, 0.025202163, 0.093007505, 0.034866966, 0.039453913, -0.0034533022, -0.025158642, -0.013433903, -0.003960191, -0.02565727, 0.059829116, 0.051338643, 0.034649275, -0.019573644, -0.015179084, 0.052462377, 0.05518026, 0.102123536, 0.07182519, -0.015894404, 0.018767286, -0.06024309, -0.025208665, -0.031844724, -0.036594607, 0.06385282, 0.07714893, 0.05130423, 0.07439755, 0.0476767, 0.06436462, 0.047483247, 0.035545446, 0.035141382, 0.025736779, 0.0029345418, -0.024613839, -0.010564162, -0.027001172, 0.11602345, 0.09062978, -0.0076535894, -0.13740012, -0.1769088, -0.058690235, -0.05986088, -0.04720369, 0.012193382, -0.02851085, -0.015446863, -0.034931246, 0.058718532, 0.06013496 },
    { 0.18235517, 0.09474401, 0.047851965, -0.087565884, 0.003873314, -0.04205259, 0.1413563, -0.056209292, -0.059753288, -0.05684069, -0.051700734, -0.030163502, -0.16312325, -0.29251447, 0.09430445, -0.007860638, 0.058728125, -0.15309638, -0.07102902, 0.06469889, -0.0017278434, 0.048928406, -0.01954203, -0.06902392, -0.10406418, 0.025450164, -0.033704247, -0.10380231, 0.07063186, 0.13738826, -0.069864705, -0.19501364, -0.05154037, -0.06870913, -0.03046739, -0.039193418, -0.012930703, -0.107608095, -0.017589912, 0.031213712, -0.08648364, -0.38750342, -0.20468862, 0.029001577, -0.1559405, -0.049289558, -0.01841867, -0.025079262, 0.015399782, 0.101283975, 0.14068006, 0.09338975, 0.08275316, -0.08821937, -0.23227908, -0.43972254, -0.20352906, 0.015212541, -0.06770404, -0.07247736, -0.01276769, 0.053776633, 0.09411214, 0.19352314, 0.18012872, 0.16221702, 0.04030421, 0.013067091, -0.05047156, -0.0252909, -0.15758872, -0.09877447, -0.06281001, -0.050513726, -0.05265246, 0.0017102817, 0.18504487, 0.17547962, 0.16719677, -0.12529871, -0.15573476, -0.18892579, -0.06542034, 0.003475297, -0.020903068, -0.009886438, -0.00509718, 0.03283372, -0.024234356, 0.11548562, 0.13105926, 0.2255132, 0.056860693, -0.27377763, -0.39138657, -0.2535012, -0.06773363, 0.06382053, 0.087358266, -0.026231471, -0.13687703, -0.020198736, -0.048216976, 0.072312854, 0.100151636, 0.10526802, -0.17343417, -0.042636912, -0.11354406, 0.009216599, 0.10284574, 0.13649735, 0.118660085, -0.051145248, -0.060932625, -0.065144435, -0.04977283, 0.09029545, 0.18814984, 0.08908761, -0.032785654, -0.0069418866, 0.05299688, 0.11019317, 0.1087955, 0.17421012, -0.21740896, -0.19749516, 0.048260916, -0.013460989, 0.032263923, 0.17581701, 0.17989822, 0.14638987, -0.3433701, -0.17190623, -0.02344167, 0.13595909, 0.040581863, -0.19858645, -0.1094379, -0.045037404, 0.032468546, 0.023754215, 0.009573623, 0.10368524, 0.21820697, -0.05783081, -0.40918252, -0.42529446, -0.22484183, -0.055372007, -0.0013657545, -0.2123337, -0.02781687, -0.025931537, -0.033304866, 0.01091149, -0.015061733, 0.07721936, 0.28972778, 0.05226985, 0.054092325, -0.23017949, -0.03746601, 0.1820853, 0.015678456, -0.012714063, -0.019940449, -0.0073131905, -0.08188806, 0.064642325, -0.022373255, -0.012225466, 0.10876851, 0.108488575, 0.10611444, -0.01596031, -0.25033155, -0.111681744, 0.15715733, -0.04332638, -0.19369102, -0.086308196, -0.083429195, 0.062472265, 0.0068922285, 0.015170434, -0.01056688, 0.053356554, 0.26512727, 0.09522057, 0.12007364, 0.10493487, 0.17592157, -0.30882496, 0.028734155, 0.042972572, -0.10176421, 0.07584406, 0.21649957, 0.101699896, 0.066115, 0.07015955, 0.17893259, 0.074557126, -0.017506476, 0.024814982, -0.043866813, -0.15560134, 0.064949825, 0.20675692, 0.09114056, -0.027114991, 0.19270195, 0.08041268, 0.273753, 0.23210075, 0.2784475, 0.2540833, 0.1441676, 0.20454314, -0.010704841, 0.05340013, -0.015837783, 0.0002612321, -0.10103983, -0.18777339, -0.16369127, -0.098464295, 0.08981215, 0.14309765, 0.35906452, 0.19584097, 0.050834853, 0.04603654, 0.03283351, 0.07071551, -0.0011511344, 0.01677074, 0.053694468, -0.1792955, -0.4796122, -0.45774117, -0.29588088, -0.025804777, 0.18383294, 0.08500735, -0.0114103835, 0.041384224, 0.012013555, 0.061747897, -0.2503786, -0.031934224, -0.02631722, 0.046651494, -0.23107368, -0.39421982, -0.2238735, -0.211532, -0.021018287, -0.035652272, -0.022764286, -0.016954673, 0.04561206, -0.01592479, -0.037008747, 0.041177563, -0.10216298, 0.2032695, -0.11021989, -0.030574072, -0.0362538, 0.07553637, 0.15720552, 0.06916778, -0.020160431, -0.048738174, 0.051566854, -0.073664606, 0.031819157, -0.0069088666, 0.2881734, 0.22723995, -0.04978447, -0.016627898, 0.09801425, -0.022738075, 0.14644349, 0.0862778, -0.0964851, -0.024161456, 0.1178099, -0.06378422, -0.05595671, 0.00605308, 0.019733064, 0.07324539, -0.2982656, -0.2970966, -0.025387287, 0.04958631, 0.16981912, 0.043467123, -0.13449152, -0.027173178, 0.022176212, -0.041367035, -0.13499282, 0.028472546, 0.1800549, 0.077200994, -0.5327348, -0.45193487, -0.056705907, 0.09505129, 0.22066744, -0.06919755, -0.26511535, -0.0009650217, -0.06810691, 0.06369545, 0.18198176, 0.27016446, 0.23461413, 0.15080895, -0.18675013, -0.1429318, -0.019482194, -0.022662517, -0.105596446, -0.2984282, -0.21856265, -0.0013810003, -0.037515845, 0.0743163, 0.13933693, 0.15134378, 0.011459832, 0.14410788, 0.009326398, -0.039443612, 0.074895464, -0.17236817, -0.17960772, -0.20749046, -0.10273378, 0.083784595, 0.044730727, 0.14021839, -0.040065058, -0.0790817, 0.25509238, 0.20064051, 0.12573329, 0.011334519, -0.099104494, -0.15146622, -0.0016358757, -0.019198468, 0.08618869, 0.08994432, 0.095790625, 0.09557394, 0.09818927, 0.16040899, 0.07881191, 0.044722535, -0.045602757, -0.023742165, -0.02821662, -0.08811232, 0.04075653, 0.086809136, 0.034946386, 0.09353272, 0.06585062, -0.13254318, -0.09722042, 0.023233974, -0.073380575, -0.040069662, -0.060607832, 0.050228573, -0.04640835, -0.006888725, -0.0035206452, -0.050938006, 0.04262842, 0.04326177, 0.018124089, -0.07514098, -0.031181904, -0.052658323, -0.031717893, -0.08067066, -0.032207746, 0.0305906, 0.05621726, -0.045880124, -0.08748872, -0.0075703203, -0.16248915, -0.2742806, -0.17584857, 0.0021379811, -0.003595925, 0.13246882, -0.052900568, -0.00018187043, 0.06748779, 0.060937192, 0.044160303, -0.026559364, -0.022404972, 0.015542243, -0.04024241, -0.0041593434, -0.1521273, -0.15972047, -0.044081442, -0.050318144, -0.05752036, -0.045201443, 0.08757219, 0.053832628, -0.044824887, -0.022959676, -0.072080925, -0.09073222, -0.089832924, -0.15531866, -0.29690954, -0.3656341, -0.10108311, -0.10677093, 0.029868495, -0.0043963576, -0.002807318, 0.022336505, 0.06719248, -0.021557419, -0.11279373, -0.21225917, -0.28449956, -0.15564105, -0.17166282, -0.21186599, -0.22179164, -0.03310105, 0.046052244, 0.122955866, -0.09786633, -0.08470346, 0.02001367, -0.07350415, -0.012657927, -0.1897777, -0.18563081, -0.061761234, -0.059704788, -0.27143946, 0.026113112, -0.030133888, 0.010979015, 0.03209454, -0.16687822, -0.17864235, -0.030405158, -0.0013871528, -0.061126288, -0.17281331, -0.22757132, -0.077504784, -0.0051131733, -0.2314787, 0.11340248, -0.03065444, 0.041172456, -0.01755282, -0.35415372, -0.3328101, -0.016133701, 0.010395801, -0.04411344, -0.3650561, -0.299669, -0.10738119, -0.021383984, -0.06849382, -0.15915804, -0.13091864, -0.08446992, -0.060265, -0.3245947, -0.4497909, -0.020057784, -0.028351288, -0.06370197, -0.30394602, -0.2869662, -0.09975644, 0.109782286, 0.08226341, -0.28658548, -0.15338522, -0.0064171334, -0.03922665, -0.18273519, -0.27597085, -0.13313161, -0.048881754, -0.04017471, -0.30396184, -0.19724652, 0.104627304, 0.2613933, 0.09037425, 0.0833483, 0.05057336, 0.072818495, 0.074437134, -0.010767781, -0.10262197, -0.15486594, -0.014159801, 0.020413538, -0.104111195, -0.059448738, 0.14469147, 0.104989685, 0.107087165, 0.05435223, 0.10294074, -0.072546035, -0.18743256, -0.12826067, -0.1511921, -0.1319044, -0.071919136, 0.073154226, 0.057819948, 0.20421146, 0.094231695, 0.04410416, 0.19068766, -0.08638478, -0.28003284, -0.18502769, -0.23265679, -0.118627965, -0.013403779, -0.009358336, -0.023111532, -0.029549506, 0.22143553, 0.16350433, -0.012414535, -0.10064394, 0.023277078, 0.022778066, -0.09530128, -0.029123602, 0.051470917, 0.2300077, 0.14055349, 0.09987975, 0.12201379, 0.20159969, 0.077295154, 0.11630412, 0.10869254, -0.16236007, -0.032504115, 0.017801818, 0.0074845683, -0.015001374, -0.01773002, -0.005741071, -0.0353723, -0.22737312, -0.027172776, -0.14130713, -0.31705496, -0.19518964, -0.019442037, -0.21357854, -0.15724377, 0.08289726, 0.07669732, 0.12393794, 0.13165157, 0.08370377, 0.08566236, 0.07476999, 0.15812945, 0.15424913, 0.114760384, 0.096666336, 0.11888467, 0.084778674, 0.13763334, 0.113135554, 0.10746275, 0.09031603, -0.0136073325, 0.029320464, -0.083259664, -0.31928205, -0.12902763, 0.10706554, 0.067179434, 0.14677162, 0.15819097, 0.11580131, 0.063024536, 0.13309297, 0.16014516, 0.11498764, 0.09359682, -0.023511995, -0.18717593, -0.05746222, -0.020985074, 0.0063724886, 0.067458995, -0.090139665, -0.025063086, 6.529082e-05, 0.061980166, 0.105693504, 0.12690918, 0.07223576, 0.085005075, 0.054423135, -0.15831517, -0.18163624, -0.09528597, -0.07488002, -0.2583507, -0.2678751, -0.14600965, -0.12647526, 0.0046319063, 0.07386642, 0.09739095, 0.11838985, 0.1311438, 0.0051979683, -0.11409475, -0.17615889, -0.08240487, -0.047185365, -0.42428425, -0.25694773, -0.005789786, -0.01721202, 0.013412141, 0.06214585, 0.033920363, 0.07136764, 0.039800685, -0.04024655, -0.07773197, -0.07205805, -0.0026668455, -0.1147402, -0.45459566, -0.27498308, -0.05828991, 0.030464096, -0.010252233, 0.11915521, 0.05795456, 0.013578204, 0.022714002, 0.018112162, -0.0739962, -0.09945437, -0.15615547, 0.05258502, -0.2462165, -0.1355613, 0.04506218, 0.11515168, 0.08659012, 0.1302847, 0.099692814, 0.1460075, 0.13727924, -0.0052426322, -0.06829589, -0.13108753, -0.11945358, 0.022261132, -0.16669884, -0.09374878, -0.0050491267, 0.13404265, 0.08195524, 0.09362205, 0.09247882, 0.17851815, 0.10637095, -0.20322509, -0.10100775, -0.06413698, -0.022934783, 0.08159722, -0.13577968, -0.1657897, 0.0012227168, 0.1409018, 0.07915022, 0.096398644, 0.13539381, 0.111706585, -0.05570471, -0.23093988, -0.12840647, -0.007158272, 0.017324332, 0.04781422, -0.22929274, -0.041506626, 0.08019447, 0.11135727, 0.08058774, 0.132647, 0.0067901085, -0.002656523, -0.046455245, -0.059533272, -0.09411269, 0.014055997, 0.062371634, 0.039741386, 0.0011146034, 0.06015287, 0.17448254, 0.1713171, 0.18480673, 0.11037045, 0.05033746, 0.04872261, 0.058562417, 0.03454531, 0.005787003, 0.0073716394, 0.022757411, 0.056631263, 0.09666036, 0.11004456, 0.15494816, 0.11127443, 0.17586085, 0.051158786, 0.019246234, -0.007265648, -0.013612862, -0.027821474, -0.0341697, -0.07621349, -0.011816903, 0.042123325, 0.053173594, 0.0752996, 0.07975963, 0.068772204, 0.08949419, 0.057688788, -0.021256188, 0.033627648, -0.025428113, -0.0023132989, -0.023280503, -0.094439544, -0.07721854, 0.0069530606, -0.04428171, 0.08243019, 0.071842104, 0.07983987, 0.0980729 },
    { -0.07057463, -0.08631821, -0.13285248, -0.0010357295, 0.13799246, 0.16134124, 0.019605178, 0.05582131, 0.039478943, -0.07016065, -0.067046694, -0.11975599, 0.010947244, 0.063868955, -0.16367091, -0.0059859436, 0.009547063, -0.016077662, -0.04057209, -0.059226446, -0.008723712, -0.08990617, -0.04626607, -0.06948913, 0.0139220515, 0.12088837, 0.060104165, -0.084867194, 0.06744402, 0.0106206685, 0.0014971517, 0.01763489, 0.02142185, -0.046765313, -0.04145277, -0.10699536, -0.1596819, -0.21828093, -0.3261269, -0.25240752, -0.2483401, -0.10422873, 0.073205955, -0.09134012, -0.015738508, -0.031407747, 0.0040627923, -0.039030608, 0.007250343, -0.08881277, -0.24002741, -0.32715315, -0.2927528, -0.38544744, -0.23242289, -0.104263864, 0.0068441588, -0.07720095, -0.09812022, -0.10052352, -0.06305118, -0.05939509, -0.07400373, 0.05631125, -0.08964736, -0.05544237, -0.08997698, -0.22801337, -0.2785247, -0.03778717, -0.06200331, -0.116972305, -0.18460901, -0.1297993, -0.060132954, -0.0130403675, 0.046117116, 0.07885083, 0.0461769, -0.035511494, -0.028753854, -0.045410633, 0.19569765, 0.27991194, -0.23874077, -0.12546575, -0.14678788, -0.04855028, -0.018203769, -0.09812443, 0.01219881, 0.14684635, 0.14179313, 0.17556468, 0.13260862, 0.062620476, 0.25320312, 0.21944235, -0.13909575, -0.06114407, -0.0017474137, -0.07945198, 0.018792612, -0.019944172, 0.020786744, 0.052698128, 0.13396822, 0.08819127, 0.16605185, 0.19283608, 0.39420384, 0.26255944, 0.036353864, 0.015595041, 0.04746803, 0.017471565, -0.020224294, 0.07610093, 0.013562257, 0.07346585, 0.06742418, 0.006332081, 0.040741816, 0.20339026, 0.34310326, 0.2883536, 0.1066505, 0.09655415, 0.117907785, 0.054213718, 0.10931903, -0.0012131479, 0.020246416, -0.014974006, 0.0849555, 0.032626197, 0.076864496, 0.29554048, 0.5019224, 0.44391593, 0.19699346, 0.05847166, 0.09459328, 0.03831943, 0.14992404, 0.020859106, -0.02643267, -0.051329773, -0.10798619, -0.06500683, 0.048358764, 0.23993099, 0.3337628, 0.12381609, 0.10974618, -0.019407727, 0.02044926, 0.11292047, 0.007390168, -0.039278556, -0.18294618, -0.20250681, -0.31498733, -0.069346905, 0.08092203, -0.05732799, 0.053321812, -0.009176033, 0.08406282, 0.0021601527, -0.027241848, 0.024252636, -0.0038463722, -0.19926608, -0.22924146, -0.23361278, -0.14280128, -0.12729143, -0.029440964, 0.08244268, -0.028203433, 0.021992456, -0.1623678, -0.16413684, -0.04915521, -0.14316784, -0.14419052, -0.1404471, -0.41193956, -0.42521426, -0.3415575, -0.29153806, 0.144051, 0.1396716, 0.0006941313, 0.13441986, -0.03224891, -0.001908299, 0.04522836, 0.07835226, -0.014031194, -0.0645214, -0.048797827, -0.07757676, -0.27688226, -0.08645329, 0.11707662, -0.15224794, -0.040201455, 0.10676278, 0.08064503, -0.23388252, -0.18622553, -0.04013112, -0.0586746, -0.16720644, -0.11317753, -0.15636663, -0.21053796, -0.15941352, -0.039876472, -0.15598439, 0.1110062, 0.1272999, 0.06044775, -0.009145547, -0.009893772, 0.029719299, 0.026907291, -0.07433651, -0.12189727, -0.29117188, -0.56328183, -0.31938142, -0.13914168, -0.103043996, 0.088950224, -0.014609278, -0.17062606, -0.013120705, 0.047676966, 0.20340627, 0.25408846, 0.012303719, -0.0003971274, -0.034480646, -0.08231541, -0.12304052, -0.04130697, 0.0010790575, 0.07419896, -0.019179856, -0.117760666, 0.14143945, 0.21399166, 0.06513225, -0.12354481, -0.120024726, -0.09547942, -0.014117484, 0.048159346, -0.046079084, -0.050502464, 0.0034944967, 0.053478293, -0.061549153, 0.060860585, 0.13763946, 0.40617824, 0.14380863, -0.009667348, -0.06292025, -0.18001132, -0.09503461, -0.006669051, 0.04869129, 0.015909268, 0.075266, -0.027605483, -0.06932495, 0.14203912, 0.42103195, 0.5055849, 0.3122351, 0.09243729, -0.0200343, -0.12804297, -0.09278238, -0.08839518, -0.024045892, 0.13030404, 0.04820722, -0.15799312, -0.09524569, 0.121481195, 0.38336912, 0.44141883, 0.27862415, 0.10057703, -0.0073351576, -0.118155725, -0.090323105, -0.064189, -0.0020615768, -0.005707017, -0.031910703, -0.08329607, -0.1252237, 0.06097994, -0.0029346396, 0.16028774, 0.08170111, 0.035067946, 0.075065225, 0.15703297, 0.19669728, 0.1255768, -0.078496866, -0.04819414, -0.109484896, -0.04950131, -0.09448823, 0.06569492, -0.14687087, -0.09644927, -0.104398176, 0.057159808, 0.16897742, 0.12388436, 0.12592159, -0.06677315, -0.09842131, -0.090927035, -0.11700064, -0.068886995, -0.098107785, -0.06430855, -0.08104117, -0.08863362, 0.010900286, 0.04791975, 0.14955588, 0.01644262, -0.05844778, -0.124951065, -0.16367224, -0.12202204, -0.11940176, -0.078333, -0.046010282, -0.1374539, -0.20310362, -0.20947637, -0.18640514, -0.038711075, 0.027150935, -0.019822374, -0.05101437, -0.107767105, -0.11634234, -0.0006105661, -0.03988361, -0.13336015, -0.06768932, 0.22717728, 0.071555115, 0.028877316, -0.022731127, 0.0052935043, -0.017856408, -0.12857011, -0.11157129, -0.07345068, 0.059781414, 0.08824907, -0.032651253, -0.095849745, -0.009139811, -0.07311698, -0.15271667, -0.04303471, -0.040736947, 0.029275037, 0.004572713, -0.002845236, 0.028338932, 0.02032333, 0.056110166, 0.006459102, -0.1476011, -0.10444322, -0.043980733, -0.14902772, 0.0013123349, 0.00977401, 0.093382485, 0.16107717, 0.06491094, 0.040349394, 0.10577123, 0.0132887205, -0.20770316, -0.05588656, 0.029205408, 0.003132396, -0.04016018, 0.07654836, -0.15276217, -0.1322724, -0.10213662, -0.06731839, 0.038854387, 0.043653306, 0.07882764, 0.13460249, 0.14123401, 0.06649677, 0.07122794, 0.012297568, -0.021923231, 0.04896093, -0.015957791, 0.009520373, -0.08354774, -0.09098205, -0.024255771, 0.04959857, 0.044362497, 0.07426253, 0.008285018, 0.05672688, 0.07877761, 0.063084275, -0.10017121, -0.07614254, -0.0523272, -0.116088584, -0.090077765, -0.038970076, 0.048725653, 0.09799945, 0.033987354, 0.0018677162, -0.0016163414, -0.0131973, 0.011805365, 0.010742614, -0.062096894, -0.15974599, -0.09984621, -0.14689244, -0.28841025, -0.23117594, -0.10127308, -0.04367596, -0.0010179466, -0.009776518, -0.07408562, -0.06569284, -0.08584554, -0.100288965, -0.03951036, -0.1952455, -0.03853832, 0.09777161, -0.104847126, -0.10112285, -0.122445576, -0.11799264, -0.09752582, -0.027444182, 0.020517087, -0.075273104, -0.1126176, -0.088449515, -0.08849142, 0.0709691, 0.18873441, 0.22050261, 0.0739082, -0.05509809, -0.07988097, -0.08153123, -0.1325315, -0.15001166, -0.13622932, -0.17380211, -0.1125918, -0.166577, 0.11948842, 0.13847472, 0.20681514, 0.14502159, 0.00079814956, -0.11624228, 0.013469405, 0.08667504, 0.04467603, -0.14017206, -0.202891, -0.21366364, -0.19949238, -0.05500617, 0.3401471, 0.098674946, 0.11473397, 0.015521873, -0.14970174, -0.16649596, -0.10421592, 0.024186168, 0.09352563, -0.08114428, -0.121194266, -0.110714264, -0.08915712, -0.008543264, 0.19754349, 0.05705252, -0.0152096255, -0.10845455, -0.16662408, -0.095016986, -0.02152717, 0.05411492, 0.10734039, 0.037155714, -0.0072604474, 0.032391805, -0.0017268606, -0.040262833, 0.07931798, -0.12990414, -0.083492555, -0.2290815, -0.15375201, -0.056681253, -0.0041237436, 0.12107897, 0.21560936, 0.28661296, 0.17871168, 0.16406281, 0.1841998, 0.045666557, -0.066546395, -0.35665563, -0.4920169, -0.39814293, -0.21449882, -0.10230083, -0.05499972, 0.06338041, 0.13100745, 0.18859361, 0.18715383, 0.23990232, 0.20505463, 0.04087476, 0.032865036, -0.025973087, -0.088441424, -0.12046139, -0.36055425, -0.41670254, -0.39160922, -0.2377058, -0.02397681, 0.14345585, 0.22741354, 0.16502903, -0.033103246, -0.0072512412, -0.0019188576, -0.00754892, -0.0033290524, -0.11377044, -0.2419989, -0.48703164, -0.6880053, -0.6745504, -0.60522723, -0.15432802, 0.098873496, -0.05673555, -0.11212661, -0.065681316, -0.042648364, -0.027323281, -0.011603657, -0.041180477, -0.013746249, -0.051508885, 0.018318655, -0.0067887167, -0.049590062, -0.012387073, 0.04582402, 0.030924575, 0.007921097, -0.014341101, -0.044131685, -0.052432932, -0.027176928, 0.07625364, 0.17457435, 0.13674489, 0.22146423, 0.33116126, 0.1289873, 0.007901061, -0.0841418, -0.17831747, -0.032973543, -0.04815696, -0.053402092, -0.033468403, -0.008536279, 0.062130835, 0.1620854, 0.18212248, 0.2149036, 0.22100331, 0.07391817, -0.038102094, -0.035605222, -0.14279865, -0.16205527, -0.11842028, 0.01564508, 0.05209754, 0.024191866, 0.14779015, 0.119295746, 0.14424558, 0.21128537, 0.1309382, 0.10800098, -0.0024177681, -0.04035914, -0.28955024, -0.38723806, -0.094935395, -0.003965375, 0.0060767694, 0.038538232, 0.09216977, 0.11828066, 0.12755732, 0.1310999, 0.16745853, 0.08804463, 0.0077884262, 0.0057098772, -0.20028348, -0.22502573, 0.0020187944, -0.039192293, -0.059628922, 0.031101517, 0.05461644, 0.18349586, 0.23433656, 0.20759134, 0.19048922, 0.020252543, 0.0020838329, -0.0053614094, -0.13526784, -0.10892819, -0.122470684, -0.06102271, -0.05708684, 0.067911, 0.1602385, 0.1502427, 0.20052533, 0.09383148, -0.09953894, -0.25782833, -0.19344424, -0.026936207, -0.09839953, -0.11149605, -0.123396255, -0.038390197, -0.08546821, -0.043631237, 0.0055972133, -0.13668613, -0.22492276, -0.13184638, -0.22622828, -0.096641794, 0.0241471, 0.0661489, -0.006861086, 0.090546645, 0.18204251, 0.20143369, 0.047740173, 0.021973083, -0.058085945, -0.15697075, -0.27607372, -0.08347193, -0.05535187, -0.010132531, 0.040296737, 0.08696606, 0.15619738, 0.2303551, 0.2846384, 0.22791296, -0.037909925, 0.0059860535, -0.035533056, -0.09162181, -0.101803035, -0.045372523, 0.0066424753, 0.1175939, 0.0789751, 0.20278662, 0.22877415, 0.2592028, 0.18137766, 0.11458987, 0.085511744, -0.026805863, -0.010021529, -0.07028551, -0.05311279, 0.010617896, 0.039957482, 0.10028919, 0.15803501, 0.23782545, 0.21244478, 0.1633023, 0.08710479, -0.10169986, 0.087842554, 0.00081109646, 0.040635202, 0.003536344, 0.044291366, 0.064579904, -0.003743074, 0.01622865, 0.0843775, 0.096561916, 0.1239336, 0.06727878, 0.02585692, -0.05696433, -0.042932965, -0.032705955, -0.004133476, -0.013009019, 0.05439047, 0.022973806, -0.019671395, 0.018152425, 0.07487571, 0.08636744, 0.08897337, -0.040281475, -0.031818986, -0.025186783, -0.05329313, -0.15952514, -0.26105264, -0.28799257, -0.17185439, -0.03335332, 0.01048988, 0.08749416, 0.055861417, 0.081293866, -0.010816017, -0.082278855, -0.043975625, -0.029176515 },
    { -0.018341836, -0.05073917, 0.084223755, 0.059012055, -0.14711627, -0.10022617, 0.008133682, 0.033128824, 0.094261475, 0.13268477, 0.119474486, 0.094637014, 0.03658864, -0.18515271, -0.05421679, -0.0076246248, 0.08398492, 0.040854644, -0.021715578, -0.06876635, -0.04219803, 0.010546268, 0.03167161, 0.09261927, 0.056374818, 0.024252359, 0.032680288, 0.038706463, -0.041765682, 0.06957144, -0.03776357, -0.1417741, -0.05003876, -0.050948776, -0.043369055, 0.003311471, -0.030079408, -0.06996516, -0.11174202, -0.19443983, -0.20685457, -0.18660274, 0.01911184, -0.043020036, -0.0313347, -0.0593468, -0.06420866, -0.057457935, -0.076163046, 0.042758197, -0.050565794, -0.059876032, -0.2757266, -0.45818514, -0.3380587, -0.37760115, -0.0051294663, -0.04076286, -0.071084425, -0.13583133, -0.12339488, -0.095602214, 0.028366642, 0.012605853, 0.05608327, 0.091153234, -0.06275418, -0.25782606, -0.5963409, -0.38199824, 0.07616478, -0.07448467, -0.088846765, -0.13077521, -0.12040975, -0.022232918, 2.0792184e-05, 0.093106516, 0.060773797, 0.10854443, 0.18399845, 0.07913185, -0.0024450864, -0.12380655, -0.04840193, -0.17802638, -0.19954903, -0.108301155, -0.1143137, -0.011685439, 0.039238915, 0.031002194, -0.08131435, -0.1100381, 0.0072496682, 0.07550199, 0.0782594, 0.15782718, -0.1518315, -0.26430556, -0.26933467, -0.1630837, -0.113668434, 0.037466113, 0.009983102, -0.14941621, -0.20511672, -0.20017491, -0.2864686, -0.10377167, -0.124679774, -0.16902067, -0.0058667297, -0.25511163, -0.24809788, -0.19482625, -0.17091554, -0.05379595, -0.1004237, -0.09073679, -0.07102201, -0.07982756, -0.20750873, -0.3136073, -0.37430236, -0.27770048, 0.05982375, -0.12671252, -0.2510978, -0.18544862, -0.16453177, -0.04545407, -0.019889915, -0.013861656, -0.0192149, -0.0027972292, 0.02907001, -0.1613138, -0.6391143, -0.28449404, 0.027293608, -0.12640265, -0.10846482, -0.122029416, -0.14387226, -0.039684176, -0.054490514, 0.007417338, 0.02396459, 0.14853548, 0.03948032, -0.13223827, -0.29876888, 0.024763327, 0.0044052596, -0.026065798, -0.05458032, -0.051656954, -0.08895104, 0.03385995, 0.01492831, 0.00397591, 0.21075827, 0.14619946, 0.06562785, -0.12803777, 0.038154922, 0.015515305, -0.07243054, -0.08808884, 0.04509023, -0.0035644607, -0.11369094, -0.10172118, -0.180728, -0.07854714, -0.012872641, 0.04659572, -0.04905525, 0.081013545, 0.028163118, -0.060586505, 0.052944634, 0.114860825, 0.028485693, 0.061481606, -0.009400473, -0.19164057, -0.24709252, -0.23487747, -0.0074340943, -0.05655317, -0.16385846, 0.07774455, -0.16463527, -0.010027057, -0.07328268, -0.025301773, 0.031960204, -0.20656191, -0.023810664, -0.02492893, -0.060724493, -0.06796685, -0.20983857, -0.19357072, -0.26432332, 0.045569733, 0.020003567, -0.12196956, -0.045032106, 0.007735495, -0.119002186, -0.20428154, -0.021580178, -0.030560788, -0.13736564, -0.31274396, -0.38466957, -0.26120627, -0.30648658, 0.053219717, 0.0046273037, 0.073215015, -0.09737095, -0.03545864, -0.07455392, 0.030935721, 0.035859555, -0.09317892, -0.41264534, -0.55115294, -0.26020914, -0.09280463, -0.07598107, 0.1656059, 0.042948473, 0.15535566, -0.022714784, -0.011169301, 0.09058488, 0.017603444, 0.02119705, -0.0063522393, -0.30415633, -0.46722308, -0.12990952, -0.026839843, -0.011615196, 0.033260133, 0.043561403, 0.1201463, -0.025791446, 0.1207735, 0.19554667, 0.26586068, 0.122134835, -0.053406917, -0.049961995, -0.16950637, -0.061361432, -0.04954571, 0.020134911, 0.06929622, 0.019829066, 0.020604646, -0.11242129, 0.0730683, 0.35910165, 0.34770676, 0.3556589, 0.2683686, 0.10272414, 0.056419097, 0.02025384, -0.092303805, 0.017884452, 0.08123375, 0.008024229, -0.09297682, 0.028228503, 0.16937204, 0.30704233, 0.24940586, 0.25922638, 0.3790297, 0.17744096, 0.04735437, 0.14127591, -0.066472724, 0.00065922877, 0.02344134, -0.10328571, -0.06719401, 0.09798719, -0.045946166, 0.113102004, 0.058008235, -0.0771791, -0.0012159119, -0.11628049, 0.021271365, 0.080392435, -0.11785797, 0.01068244, -0.10756751, -0.02969794, 0.069700725, -0.049463656, -0.115608536, 0.018395765, -0.107866526, -0.117715046, -0.20766085, -0.13430531, -0.14185601, -0.17603359, -0.059560157, -0.025312943, -0.025753412, 0.0749548, 0.077756256, -0.056708243, -0.05747616, 0.06351939, 0.06600273, -0.15107623, -0.13956146, -0.14409178, -0.14777847, -0.065252386, -0.021152806, 0.003437053, 0.015209471, 0.044053886, 0.06588471, 0.073092535, 0.02777631, 0.10047656, -0.016546352, 0.037762064, 0.05143791, -0.060433414, 0.042600736, 0.060205337, 0.0308467, 0.105722606, 0.008312522, 0.03327794, -0.054274872, 0.1365259, 0.15679336, 0.22037393, 0.16804554, 0.18374072, 0.14994282, 0.15293956, 0.11868235, 0.10842153, 0.04252345, 0.054096095, 0.076522194, -0.02786495, -0.012051848, -0.17531951, -0.17678127, 0.061381396, 0.12966236, 0.20552133, 0.12625135, 0.16177216, 0.13266876, 0.07947062, -0.027208658, 0.058567822, -0.0030263858, -0.10409943, -0.00588106, -0.04445632, -0.033517458, 0.05106439, 0.14749305, 0.18869573, 0.15985902, 0.10449559, 0.11361576, 0.085601635, 0.055948064, 0.054930292, -0.076952174, -0.13379489, -0.05348854, 0.05680251, 0.049730968, 0.009185082, -0.09702806, 0.023196919, 0.036092103, 0.043607973, 0.02610792, 0.052410603, 0.052474067, -0.016801888, -0.19762889, -0.16015397, -0.018562676, 0.02812199, 0.06985602, -0.049051512, -0.06520843, -0.03870974, 0.008575512, 0.0902293, 0.107770465, 0.10689979, 0.05970753, 0.08444072, -0.042165473, -0.1692704, -0.09339104, 0.014535253, -0.024535777, 0.028307853, 0.04819373, 0.075405255, 0.075723566, 0.06976512, 0.09037619, 0.044173382, 0.0837647, 0.07405319, 0.032420095, -0.08767036, -0.25922993, 0.023973769, -0.03198304, -0.03197088, 0.016664758, 0.010905444, 0.08572224, 0.07061825, -0.009593925, 0.012133276, 0.06020487, 0.07348721, 0.031971816, -0.12228205, -0.043156628, -0.049952883, -0.026928399, -0.007622513, -0.0541804, 0.00918409, 0.018968483, -0.084336124, -0.030394854, 0.02874064, 0.0035691066, 0.042893443, -0.014327233, -0.14666893, -0.25369295, -0.09345739, -0.06906267, -0.15807873, -0.2986501, -0.28616554, -0.18865407, -0.09076823, -0.0020203257, 0.026863128, -0.06398877, -0.065875985, -0.03714228, -0.033638585, -0.4973636, 0.074788965, -0.0027172905, -0.18811642, -0.3429691, -0.36761224, -0.23968773, 0.0016403385, 0.06374664, 0.015582336, 0.009501955, 0.0602064, -0.06544828, -0.008401492, -0.40418288, 0.10474119, 0.066769324, -0.07919339, -0.17556451, -0.18281533, -0.13864706, -0.08479732, 0.10238002, 0.114886, 0.1478143, 0.0783357, -0.01683749, -0.07210782, -0.4526065, 0.068558745, 0.14730254, 0.09599852, 0.03692246, -0.0056794486, 0.026363187, 0.063009545, 0.15056118, 0.13422175, 0.04294584, -0.009429731, -0.02365776, -0.121568136, 0.013189239, 0.071735606, 0.100313626, 0.15865482, 0.048213553, 0.024374884, 0.025262201, 0.17053738, 0.21548584, -0.013603117, 0.090079255, -0.009841053, -0.088562526, -0.041254364, -0.12545806, 0.09737841, 0.09912051, 0.13640952, 0.11657531, 0.060802408, 0.01406168, 0.02052785, 0.03814083, -0.00065025, -0.011537879, -0.15432402, -0.082339145, -0.01146418, -0.15002182, 0.096016034, 0.3737571, 0.48148996, 0.11964207, 0.024924096, -0.06360703, -0.15501048, -0.030891035, -0.10249648, -0.16232093, -0.12830345, -0.101256944, -0.16112046, -0.054850042, -0.1867288, 0.15912586, 0.29079047, 0.29113233, 0.0710397, -0.100854374, -0.17936265, -0.20357628, -0.16545379, -0.14370267, -0.085477784, -0.15360762, -0.15597443, -0.16149996, -0.0064422875, 0.028226377, -0.10724487, -0.14738123, -0.039145622, -0.11752497, -0.024976691, -0.066680506, -0.02363183, 0.05720354, 0.02387327, -0.13907258, -0.30881813, -0.008333188, -0.15174317, -0.111535326, -0.11511638, -0.15689339, -0.1350434, -0.09609573, -0.15724643, -0.12261484, -0.14621644, -0.10989367, -0.1747927, -0.17758198, -0.113247655, -0.11929557, -0.1449406, -0.12532686, -0.14049138, -0.0644793, 0.017014416, 0.15871212, 0.18616922, 0.062811375, 0.0010536324, -0.13760823, -0.16035481, -0.21551825, -0.15047862, -0.14037293, -0.10804769, -0.047389824, -0.012729226, 0.101757206, 0.29773015, 0.30060187, 0.21869242, 0.1402698, -0.03133455, -0.14602835, -0.3646598, -0.37583047, -0.1350354, -0.11905622, -0.14061467, 0.01648844, 0.013869941, 0.11725344, 0.17500062, 0.17056756, 0.060746484, -0.025179427, -0.13183536, -0.18948278, -0.35423747, -0.3817857, -0.19843969, -0.09351306, -0.16964258, -0.044085532, 0.10087592, 0.16136144, 0.11452306, 0.0932116, 0.024737628, -0.0015175571, -0.084803626, -0.18907043, -0.22434142, -0.15483539, -0.15286207, -0.08871819, -0.08821647, 0.033272788, 0.11391046, 0.098826915, 0.10321645, 0.030244844, 0.003581255, 0.00731764, 0.040094275, -0.05983695, -0.02313354, 0.025391473, -0.03637265, -0.16650528, -0.042010292, -0.013366294, 0.10114953, 0.11699145, 0.11724655, 0.09622556, 0.20723343, 0.16346657, 0.04150358, 0.11017155, 0.12104235, 0.16332543, 0.028279386, -0.15782532, -0.12434372, -0.15901646, -0.060007673, 0.07286168, 0.0588975, 0.17611052, 0.24401794, 0.15950654, 0.047057733, 0.03215849, -0.027974697, -0.086523004, -0.17975378, -0.24662511, -0.094322145, -0.19721015, -0.046061296, 0.13824756, 0.16541296, 0.21712595, 0.19884317, 0.1050576, -0.012590475, -0.065908745, -0.2036378, -0.20335586, -0.28628585, -0.1599205, -0.002615062, 0.011417893, 0.028059036, 0.11156007, 0.10655115, 0.19846104, 0.1286093, -0.02094693, -0.07930516, -0.09619522, -0.14792871, -0.16064306, -0.054479282, -0.05849864, -0.12145826, 0.021504065, 0.059713602, 0.17489712, 0.0864873, 0.1403784, 0.010861801, -0.04148504, -0.06636487, -0.028062358, -0.12517701, -0.14999004, -0.03710671, -0.1252356, -0.1414085, -0.04426749, 0.0315028, 0.068472244, 0.053160094, 0.08859905, -0.011112742, -0.018297324, -0.023063513, -0.023089934, -0.11306398, -0.102559485, -0.10596453, -0.124717295, -0.11218131, -0.049001988, -0.02162856, 0.03209969, 0.0890273, 0.07724993, 0.08943177, 0.04649769, 0.0048087854, -0.018839875, -0.046630375, -0.045969553, -0.17948453, -0.09107352, -0.1277419, 0.008066343, 0.10413311, 0.17952272, 0.11965469, 0.13402079, 0.080708586, 0.043805204, 0.0646687, -0.044870336, -0.01351494, -0.08129731, -0.118720666, -0.1345989 },
    { -0.09898105, -0.13277274, -0.2780333, -0.20253737, -0.37460747, -0.34636107, -0.23506781, -0.04874639, 0.0060775806, -0.07886774, -0.04369755, 0.02671105, 0.0965808, 0.1631223, -0.17892545, -0.1764279, -0.13832921, -0.13905638, -0.025914622, 0.010230259, 0.006251358, -0.14616482, -0.09438706, -0.05996986, -0.094953746, -0.07334153, 0.03301037, 0.11692655, -0.17269665, -0.07547757, 0.07122087, -0.019828845, -0.050505195, -0.06086427, -0.11272317, -0.1978379, -0.21395376, -0.15691176, -0.1293906, -0.089881994, -0.02446562, 0.04080198, 0.06588772, 0.035571102, -0.01645795, 0.040774204, -0.030895038, -0.004794774, -0.11895958, -0.16536282, -0.11013557, 0.03760671, 0.022940885, 0.026328964, 0.0015888226, -0.114135064, 0.093675256, -0.008960195, 0.036026213, 0.0036333892, 0.085766375, 0.049993023, 0.04259065, -0.014550973, 0.15491576, 0.1326855, 0.11296884, 0.049687818, -0.06274168, -0.2675922, 0.045055103, -0.059889868, 0.041227505, 0.14326784, 0.078667134, 0.086698994, 0.03612029, 0.062784694, 0.07802938, 0.094965965, 0.08467938, 0.28403705, 0.086219035, -0.06633085, -0.020487018, 0.04659699, 0.08051186, 0.1052754, 0.121538505, 0.014779608, -0.027029563, 0.03855636, 0.11136744, 0.15381333, 0.16231516, 0.10685271, 0.027054194, 0.10833166, 0.053101588, 0.06171089, 0.083345324, 0.025374355, 0.114086285, -0.045110177, -0.18870899, 0.09635534, 0.15257734, 0.18617845, 0.03387443, 0.14161412, 0.08090708, -0.077883154, 0.010763851, 0.05957855, 0.08471003, -0.007963668, -0.0022886966, -0.04106573, -0.049230624, 0.07302146, 0.11723915, 0.015778318, -0.029895822, 0.0794336, -0.037708744, -0.20526108, 0.084327966, -0.025530666, 0.04374341, 0.00023926196, -0.039625425, 0.013947161, -0.013988773, -0.009084333, -0.21770199, -0.32878432, -0.42894772, -0.25997502, -0.18289366, -0.112729855, -0.04073394, -0.053840067, 0.037652962, -0.041568134, -0.068759054, -0.01695938, -0.015195096, 0.0022158488, -0.15030989, -0.25324723, -0.2697554, 0.10066441, 0.080078885, 0.19469282, -0.028927928, -0.06200325, 0.12614065, 0.030106306, 0.053554326, 0.018995272, 0.12920597, 0.1720468, 0.19343057, 0.19168812, 0.007938243, 0.035415504, 0.04266594, -0.09030494, -0.17234074, -0.0019518206, 0.01690401, 0.05389408, 0.0056289183, 0.0010652688, 0.15250604, 0.18956988, 0.20984827, 0.18695569, 0.23616812, -0.07970109, 0.054585498, 0.11050407, 0.00081331993, 0.01953987, -0.07603952, 0.055807415, 0.0053040045, 0.032238595, 0.050398916, 0.062310584, 0.090478435, 0.057015847, 0.12707914, 0.109413244, 0.05726507, -0.072048426, -0.11870451, -0.1857124, -0.14481828, -0.1897952, -0.21479863, 0.060755707, -0.06256131, -0.13560249, 0.15120074, 0.0057014585, -0.03745209, -0.0051033776, -0.09545391, -0.008899829, -0.082774766, -0.04562932, 0.0517842, 0.14911725, 0.083681986, 0.12985787, 0.31223965, 0.40659514, 0.40520728, 0.35217506, 0.2205023, 0.053092092, -0.045776345, 0.045857877, 0.12814373, 0.13287917, 0.15839943, 0.2086501, 0.12161936, 0.19870365, 0.3711633, 0.5611194, 0.5637758, 0.45042038, 0.29695314, 0.09138679, 0.013100201, -0.026398368, 0.106610276, -0.004402858, -0.1289089, -0.08591224, -0.022587785, 0.11665466, 0.24275117, 0.3641705, 0.39353338, 0.4052403, 0.26507714, 0.03146886, 0.053538244, -0.036197055, -0.060193863, -0.0918683, -0.16147257, -0.1895866, -0.017679412, 0.022074295, -0.2121656, -0.13389622, -0.052146778, 0.19856168, 0.15397994, 0.016105665, -0.009773377, -0.06742745, -0.12430271, -0.056940947, -0.097987466, -0.22626477, -0.092400245, 0.00967472, -0.03970289, -0.15294248, -0.19565865, 0.09927385, 0.06342412, -0.08080538, -0.031327568, -0.2020137, 0.12364738, -0.21747465, -0.245394, -0.12582019, 0.03231256, -0.030649401, -0.15339841, -0.092485026, -0.42614213, -0.04103203, 0.03804428, -0.04376029, -0.027253374, -0.28952208, -0.0054811486, -0.272178, -0.2317862, -0.1475166, -0.07293412, 0.06466045, -0.028021725, -0.28917122, -0.106047116, 0.12064961, 0.040822856, 0.080324724, -0.021764025, -0.14874004, 0.057943013, 0.21658053, 0.049494084, 0.005619237, 0.034656767, -0.004940549, -0.08742421, -0.10426321, -0.029008605, 0.08076485, 0.033162605, 0.059492607, 0.03886462, -0.1478467, 0.07702845, 0.10426869, 0.17138757, 0.12460511, 0.047689967, -0.09889383, -0.016319463, 0.015421946, 0.04708166, 0.0677013, 0.029060364, 0.046698757, 0.10234673, -0.05094078, -0.025305107, -0.002879808, 0.062939905, 0.0778688, 0.072228014, -0.03729026, -0.046054464, -0.04570572, 0.028847536, 0.057777755, 0.07017068, 0.013762041, 0.119740054, -0.14030579, 0.13976687, 0.13327554, 0.07379894, 0.030171089, -0.11991863, -0.08855945, -0.04846985, -0.028375862, -0.058250155, 0.020173935, -0.062167965, -0.057589695, 0.058519177, -0.052139513, 0.11427513, 0.10781268, -0.00017378073, -0.21315937, -0.09007696, -0.16473864, -0.089115836, -0.10700302, -0.043672673, -0.0487449, -0.014834482, -0.02989236, 0.07319447, -0.030744726, -0.09340126, -0.09484234, 0.011810548, 0.093098454, 0.079885736, 0.045130216, -0.015214282, -0.075277105, -0.049971864, -0.03559617, -0.023864713, -0.15065445, -0.031791102, 0.036525574, -0.11712592, -0.17984697, -0.17207657, -0.31454903, -0.35113582, -0.091215186, -0.13003214, -0.20360261, -0.18667282, -0.12231386, -0.059799917, -0.054220557, -0.068028286, -0.010449945, -0.012746872, -0.027425857, 0.021646606, -0.02998857, -0.17161343, -0.083033696, -0.066442326, -0.03532741, -0.06842193, 0.0020990954, 0.08967033, 0.028803661, 0.023322634, -0.07625791, 0.1585747, 0.027212275, 0.13449974, 0.07016675, 0.077119164, -0.042409446, -0.06799262, -0.03015287, -0.054464314, -0.05811561, 0.041996296, 0.14312142, 0.17322013, 0.21684864, 0.006605908, 0.09999445, 0.022560453, 0.14453088, 0.13838668, -0.012621379, -0.120117635, -0.13577807, -0.19312647, -0.18212841, -0.14321445, -0.12701999, 0.07486434, 0.022117568, -0.10008584, 0.030418932, -0.00778269, 0.11038239, 0.14006156, 0.0053932895, -0.22490044, -0.20974424, -0.16814062, -0.08269738, -0.18836538, -0.31202847, -0.09122488, 0.06442281, -0.073568635, 0.033784624, 0.071697935, 0.11603747, 0.11317197, 0.059982933, -0.14123891, -0.22238703, -0.09387633, 0.050722644, -0.05939996, -0.28561032, -0.21318302, -0.060562443, 0.044044666, -0.10598798, 0.1526191, 0.10363744, 0.119232014, 0.17591313, 0.009605035, -0.10341819, -0.058693904, -0.09822863, -0.028238231, -0.019078774, -0.07834475, -0.091956876, 0.035228133, -0.082494445, 0.0151934475, 0.12638591, 0.09369883, 0.06017846, 0.018422423, 0.009756977, -0.097081475, 0.036438726, 0.025020268, 0.10243304, -0.055290394, -0.11876057, -0.0058068484, -0.12093156, -0.13741608, 0.018652774, 0.09786275, 0.08917626, 0.078017056, -0.09902089, -0.055448286, 0.01593114, 0.09053835, 0.06752567, -0.05902549, -0.096663475, -0.017819764, -0.07869681, -0.20129454, -0.08094272, 0.011052186, 0.08331685, -0.028123604, -0.12040147, -0.10357957, -0.018349752, 0.029202394, 0.07251853, 0.0654793, -0.13324949, -0.24966283, -0.10518614, -0.062460624, -0.18406704, -0.294483, -0.30438054, -0.3641423, -0.106772825, -0.01714618, 0.02706735, 0.011062051, -0.017734895, -0.06542899, -0.24093638, 0.11480238, 0.062088314, -0.20370868, -0.21300983, -0.23269787, -0.16684906, -0.047433253, -0.0057028756, 0.03969586, 0.056500193, -0.013107, 0.087925576, 0.054421015, -0.10203213, 0.12703568, 0.090594836, -0.092522174, -0.30326745, -0.00712921, 0.10814145, 0.092722595, 0.11211189, 0.09111295, 0.039054427, 0.11138335, 0.014809607, 0.009934054, -0.09885522, -0.032024194, -0.011685172, -0.027480101, 0.032539047, -0.048604373, 0.068220325, -0.05103208, -0.0928269, -0.097240806, -0.1313007, -0.13113995, -0.21547101, -0.018977113, 0.021489728, 0.004932058, 0.0014609864, 0.0037922638, 0.054278985, 0.027099272, 0.04946798, 0.0063320375, 0.041052062, -0.019693349, 0.023715548, 0.010886597, 0.0022537292, 0.014559824, -0.01063451, 0.011265778, 0.0012033153, -0.03354772, 0.004886327, -0.060193818, -0.08921378, -0.19702102, -0.33931282, -0.31691548, -0.15507367, -0.1331299, -0.059819035, -0.013440369, -0.006063571, 0.023993285, -0.08968774, -0.041418195, -0.16493085, -0.30174482, -0.344795, -0.61205274, -0.7991617, -0.45249918, -0.21240874, -0.31143636, -0.19772059, -0.060920086, 0.013024768, -0.0037493757, -0.012569719, -0.07483186, -0.12112266, -0.26622078, -0.45146725, -0.49391383, -0.66647226, -0.57192755, -0.63558537, -0.47382206, -0.117377095, 0.015208227, 0.019745588, 0.004476821, -0.04360489, -0.018931432, -0.16415285, -0.15073518, -0.31772986, -0.38334173, -0.31288415, -0.27124065, -0.37192932, -0.3046292, -0.08485969, 0.07227077, 0.13746822, 0.077728696, -0.08485279, -0.21726148, -0.21402305, -0.18245085, -0.27578512, -0.22619754, -0.009009501, 0.020865727, -0.20439763, -0.31800097, -0.19812162, -0.042604484, 0.09158816, -0.083741926, -0.035471145, -0.11615061, -0.15676665, -0.06192782, 0.026297407, 0.016747601, -0.13733496, -0.29133308, 0.0012984793, -0.018650655, -0.043427974, -0.046450634, -0.075730085, -0.02355829, 0.055021033, -0.006814625, 0.045631617, 0.10960419, 0.09355187, 0.1909874, 0.06391105, 0.07243513, 0.101878405, 0.11692801, 0.05458153, -0.018120386, -0.13585928, 0.07324132, 0.0473883, 0.06546738, 0.037162405, 0.041802067, -0.00884745, 0.11014272, 0.1131032, 0.1071718, 0.05995132, 0.06607632, 0.0040740436, -0.100857094, -0.08000497, 0.016284741, -0.043529958, 0.06756917, 0.093462914, -0.008199944, -0.010672212, -0.0071415394, 0.009865053, 0.0059461845, 0.056863643, 0.07311776, 0.008123898, -0.050600998, -0.060580373, 0.06743387, -0.0106723625, 0.018858073, 0.04072317, -0.0430928, -0.08363864, -0.07152964, -0.03812742, -0.0030810845, 0.018203776, 0.07377554, 0.04753207, 0.004164954, -0.052581742, -0.030216524, 0.0199457, -0.021574067, -0.07224683, -0.050625004, -0.09340266, -0.080514014, -0.078731515, -0.06899178, 0.012640171, 0.006795132, 0.045637954, -0.014198646, -0.03512577, 0.0077211526, -0.024343098, -0.07605785, -0.009154157, -0.060218014, -0.06572624, -0.07585772, -0.06539132, -0.08477077, -0.012612834, 0.02554205, 0.029990062, 0.06920831, -0.011878299, 0.05383338, 0.041484267, 0.035467204, 0.023665063, 0.017432949, -0.03313312, -0.0062481454, -0.032443807, -0.043269437, -0.032570455, -0.02398142, -0.04446857, 0.026758848, -0.016234001 },
    { 0.015216597, 0.15243489, -0.006363136, -0.09055622, -0.039042383, -0.017101755, -0.078391664, -0.027842196, 0.011726241, 0.11949603, 0.06366394, 0.016061652, -0.011445452, 0.09269286, 0.20300812, 0.02053008, -0.02190605, -0.049513876, 0.053286683, 0.014980255, -0.0033833706, -0.015896223, 0.037299875, 0.028833931, -0.032629736, -0.02158653, 0.016913217, 0.118948475, 0.08694866, -0.05735161, -0.0049176766, 0.030005913, -0.015924608, -0.023823902, -0.03103864, 0.04831383, 0.0658779, 0.23136406, 0.15110318, 0.25121906, 0.1409079, 0.15711443, -0.1237189, -0.023257675, -0.04241839, 0.025301075, -0.038710974, -0.06694074, 0.0052135023, -0.008809283, 0.08353045, 0.11099846, 0.3617738, 0.36569637, 0.37269634, 0.43025103, -0.25054136, -0.09461714, -0.017445153, 0.039552115, 0.016191546, -0.017669315, -0.050721083, -0.15646274, -0.27975973, -0.16255935, 0.034967262, 0.31543362, 0.39934948, 0.36928064, -0.26547274, -0.055365734, -0.037640776, -0.06331463, 0.007169732, 0.04313064, -0.040337883, -0.25811973, -0.40565595, -0.4351316, -0.28613928, 0.059417214, 0.21111614, 0.25524834, -0.15487182, -0.10317934, -0.034455135, -0.08305827, 0.0053702844, -0.004892366, -0.03797788, -0.26639527, -0.41668406, -0.4754687, -0.42492256, -0.15832464, 0.15745133, 0.078513436, -0.21342465, -0.15832794, -0.1487997, -0.09273145, -0.07380819, -0.05572187, -0.092376776, -0.10760661, -0.09542378, -0.1764023, -0.20474024, -0.27437094, -0.24158381, 0.02963888, -0.2568526, -0.16405667, -0.14650173, -0.14212331, -0.032819442, -0.13961276, -0.01839189, -0.0019249696, -0.0058701043, -0.026795434, -0.046600044, -0.113750696, -0.3192617, -0.10536685, -0.1561822, -0.07335859, -0.13256197, -0.099008195, -0.11582027, -0.111558445, 0.00641138, 0.10323783, 0.064046435, 0.10702036, 0.08246122, -0.029567793, -0.39325008, -0.21550795, -0.15281801, -0.00522427, -0.1267975, -0.15832229, -0.056502625, -0.050527494, 0.05875065, 0.07566385, 0.12291776, 0.10328236, 0.15409192, 0.07566396, -0.18639103, -0.22599733, -0.103308685, -0.06649506, -0.07346085, -0.1079324, -0.118944764, -0.08714742, -0.043014556, 0.23276734, 0.14620912, 0.15832089, 0.2567078, 0.16537903, 0.15437691, -0.039761797, 0.00052951946, -0.12756102, -0.10364317, -0.050744053, -0.06697156, -0.15149955, -0.11175725, -0.14858623, 0.14456305, 0.14142191, 0.25347176, 0.20816623, 0.2281224, -0.09189473, 0.21726052, -0.06641223, -0.10996113, 0.007648591, -0.111064106, -0.014018246, -0.208736, -0.14698237, -0.12922812, -0.022069005, 0.17093027, 0.07493357, -0.102908134, -0.2041862, 0.10452205, 0.029836975, 0.08874979, 0.08339406, 0.027607609, -0.026617737, 0.0032983269, 0.11929908, 0.12787706, 0.02328165, -0.041016288, 0.23948176, 0.11967364, -0.13861842, 0.1441252, 0.029298604, 0.037929486, 0.06637998, -0.058324, -0.071053006, -0.06264422, 0.015904337, 0.08161775, 0.17833385, 0.15272395, 0.13373147, -0.066563815, -0.062691115, 0.020409534, -0.004535358, -0.017350456, -0.07387479, -0.07583914, 0.053673957, -0.054937698, -0.055238735, 0.053414024, 0.08923705, 0.085540384, 0.03368557, -0.18223971, -0.12866639, -0.19492944, -0.19276625, -0.30580944, -0.33196792, -0.32788906, -0.22342966, 0.06572307, 0.1575799, -0.0043446035, -0.071365505, 0.08606284, -0.031417135, -0.24561994, -0.12301277, -0.051317766, -0.23817502, -0.34557936, -0.391797, -0.2292728, -0.078864254, 0.11736403, 0.17584835, 0.05319682, -0.08466118, -0.01282153, -0.059498552, -0.24066538, -0.07258758, -0.22813809, -0.22663647, -0.38617972, -0.3521162, -0.17923208, -0.0025915566, 0.12073908, 0.05629008, -0.021297486, -0.0742669, -0.07084669, -0.08216571, -0.14384973, -0.0024756012, -0.26046184, -0.1360474, -0.12659144, -0.35461912, -0.24568458, -0.06335326, 0.06568795, 0.035921887, -0.12525885, -0.21559043, -0.2364368, -0.067927316, -0.043466337, 0.082761966, -0.042404905, 0.07646606, -0.03323572, -0.09916786, -0.1706222, -0.062098753, 0.05554081, 0.009026693, -0.26738718, -0.22999795, -0.1926027, -0.056745127, -0.11414741, -0.020545844, 0.026540367, 0.33125538, 0.1818102, 0.1260695, -0.064384654, -0.12858249, -0.055045914, -0.0707818, -0.15919806, -0.25072408, -0.09794567, -0.09173756, -0.056443464, 0.029135702, 0.022705395, 0.24858873, 0.16529825, 0.13535981, -0.024102649, -0.10883071, -0.085707314, -0.03540275, -0.07954583, -0.02886195, -0.018266596, -0.041463215, 0.0046331547, 0.033191238, 0.059492372, 0.21105957, 0.28777292, 0.19042516, 0.18315542, 0.04360019, -0.05895673, 0.0675539, 0.032170195, 0.02613199, 0.0134338355, 0.06264478, 0.03547796, 0.106951654, -0.052983172, -0.0034102758, -0.00677394, 0.050161853, 0.022719225, 0.060980648, 0.09655515, 0.075630784, 0.08066386, 0.012159533, 0.046751484, 0.011353749, 0.07725933, 0.10653, 0.0449454, -0.04501358, -0.10731909, -0.05008739, -0.0579762, 0.055508275, 0.12897588, 0.13462512, 0.053140648, 0.08341004, 0.037196364, 0.00591231, 0.0015767533, 0.13185808, 0.20183311, 0.10124352, 0.028277993, 0.020696536, -0.026970929, 0.06440969, 0.036014203, 0.015695771, 0.047113996, -0.0016911707, 0.007436538, 0.018844929, 0.100307286, 0.18935354, 0.14959864, -0.011059032, 0.006572394, -0.043791946, 0.00053799956, -0.11483721, 0.0003547058, 0.039243713, 0.056306623, 0.040214673, -0.117848754, -0.008747106, 0.053692397, 0.025857702, 0.0046696546, -0.016143244, 0.048918806, 0.03284053, 0.023469726, -0.08038424, -0.11831835, -0.080697484, -0.028219424, -0.063806206, -0.08335036, -0.0012550111, 0.09628276, 0.061633717, -0.14718896, -0.09463459, -0.058139496, -0.014805253, 0.054687615, 0.006072017, -0.15556774, -0.17896336, -0.19691248, -0.1549279, -0.1343196, -0.11637133, -0.069316864, 0.20256998, -0.28334203, -0.1651034, -0.04729376, -0.0518085, -0.019728126, -0.06539484, -0.2074537, -0.24056143, -0.22096556, -0.18392612, -0.15399447, -0.035026927, -0.04992873, 0.2060747, -0.13696918, -0.23272671, -0.20572084, -0.0479604, -0.030137334, -0.0421716, -0.07865913, -0.16065611, -0.1793481, -0.10603705, -0.122741126, -0.02366291, 0.0737695, 0.14535199, -0.2345004, -0.24012108, -0.0881256, 0.0063765408, 0.06601819, -0.0016456035, 0.022390371, -0.0560198, -0.06910073, -0.019567873, -0.11048994, -0.078157485, 0.069591045, 0.3311385, -0.19843875, -0.18108693, -0.110722475, -0.047206607, -0.0034593388, 0.09691267, 0.07717706, 0.07946635, 0.12459045, 0.0858955, -0.033032652, -0.0463747, -0.013629425, 0.18038134, -0.06020662, 0.055995304, 0.07707869, -0.0145410625, 0.0031936658, 0.0107269995, 0.070116326, 0.060450904, 0.075388916, 0.046520125, 0.0182765, 0.018484231, -0.018692138, 0.06744088, -0.050736856, 0.1813733, 0.22267573, 0.078871846, 0.073109396, -0.0312908, -0.02675914, 0.0028603638, -0.00079433643, -0.021205526, 0.039014712, 0.031213006, 0.007883281, 0.082020625, -0.07203702, 0.10828843, 0.090825796, 0.13374285, 0.052597668, 0.03832835, -0.00013927638, -0.06539238, 0.017681552, -0.009216615, -0.05813982, -0.018184897, -0.035882607, 0.04118682, 0.16185692, 0.10742205, 0.10666586, 0.075581305, 0.0129384035, 0.05002271, 0.0033494413, -0.04865309, -0.09199349, -0.106762245, -0.08589219, 0.010050804, 0.06695027, -0.0040575736, 0.06158088, 0.07034453, -0.019140944, 0.06846792, 0.034266956, -0.023487816, 0.068732485, 0.047776066, 0.0455261, -0.040501285, -0.04311872, 0.044014636, 0.043886878, -0.019384848, 0.0088641355, -0.12572104, 0.07104864, -0.0017211979, 0.048692305, 0.074237354, -0.032271903, -0.03988562, -0.12208136, -0.058952056, -0.0737154, -0.081115186, -0.00023694284, 0.08364891, 0.015315598, -0.009708063, 0.008105797, -0.18267214, -0.2941444, -0.23226571, -0.05277502, -0.015538462, 0.018014356, 0.041323397, -0.020721951, 0.13471776, 0.18490534, 0.15611638, 0.09940958, 0.066055514, 0.02802538, 0.08883403, 0.024842732, 0.0872532, -0.0058080293, 0.033579454, 0.015656957, 0.0065405117, 0.050854698, 0.077785715, 0.0721076, 0.095180154, 0.04132478, 0.057785537, 0.061676815, 0.038599644, -0.017465834, 0.05581467, -0.01522251, 0.13415022, 0.22742341, 0.12631777, 0.106603354, 0.090531215, 0.12824498, 0.067031704, 0.09283041, -0.046458974, -0.060485326, -0.26048043, -0.3617721, -0.41733772, -0.15657403, 0.16885123, 0.16432725, 0.09310509, 0.2688945, 0.20272349, 0.1003951, 0.060917675, 0.083259374, -0.040316112, -0.12508059, -0.2884908, -0.27151737, -0.27990615, 0.05963468, 0.12420579, 0.26460564, 0.30294043, 0.32245156, 0.29092813, 0.18643048, 0.08433494, -0.024771089, -0.084691145, -0.0753094, -0.20580414, -0.073827595, -0.04351113, 0.06887144, 0.19282047, 0.32314035, 0.3080274, 0.2920118, 0.2998649, 0.14841473, 0.08184089, -0.023645952, -0.056813102, -0.07647781, -0.0036457232, 0.002496269, 0.046840448, 0.030525355, 0.082792036, 0.18086675, 0.3086722, 0.26482683, 0.27137268, 0.20897914, 0.2561077, 0.018296937, -0.044864584, 0.10147647, 0.10907977, 0.123268545, 0.06961678, 0.085023716, 0.06853929, 0.18278433, 0.25101286, 0.15039249, 0.15881747, 0.23912248, 0.20831984, -0.010069445, 0.11201994, 0.19757468, 0.16632342, 0.20758927, 0.14531626, 0.012855585, 0.022049602, -0.038408637, -0.039791208, -0.040268354, -0.007623829, 0.072863616, 0.065694585, 0.027296398, 0.13369389, 0.06308297, 0.14265434, 0.16731286, 0.15353432, 0.06842189, 0.012397153, -0.015012391, -0.0037649367, -0.1407691, -0.13510388, -0.14386988, 0.051030453, 0.023073077, 0.08026482, 0.10717664, 0.08764187, 0.17808141, 0.082400344, -0.016288461, -0.11939153, -0.09248947, -0.13060722, -0.10689679, -0.1539543, -0.1608642, 0.010829348, -0.055143185, -0.04149484, 0.028917324, 0.07043261, 0.14016227, 0.11120115, 0.063276485, -0.011336343, -0.05495654, -0.02218645, -0.035108984, 0.021171944, 0.0077065793, 0.0037199138, 0.07426227, -0.03310024, -0.013093343, 0.027205152, 0.058976486, 0.08358139, 0.06560829, 0.011572007, -0.048585318, -0.020926345, -0.047776524, -0.04228603, 0.033265878, 0.032117616, 0.107702725, 0.055306956, -0.023539327, -0.022616634, 0.00933006, 0.03124271, 0.04956617, 0.02774591, -0.02090377, -0.022777654, -0.04015951, 0.015221749, 0.0025601762, 0.11776888, 0.09826193, 0.06789939, -0.08755173, -0.011070894, 0.09003392, 0.09681277, 0.11978086, 0.10011492, 0.07426484, 0.02572847, 0.039810043, 0.057691455, 0.06746147, 0.114727505 },
    { -0.13825981, 0.042768974, 0.3271671, 0.27603284, 0.35127038, 0.20467663, 0.18085684, 0.053872786, -0.031349707, -0.07461352, -0.010144302, 0.040550064, 0.040872734, -0.07053242, -0.18970862, 0.09236278, 0.27256072, 0.19179994, 0.1841623, 0.04844577, -0.05036252, 0.0085825715, -0.061923567, -0.016373523, -0.003982195, 0.014613843, -0.09102885, 0.032766726, -0.0962489, 0.19523127, 0.14473152, 0.17552, 0.038705617, -0.01784158, 0.039943457, 0.0044313567, 0.00091023796, -0.03890646, -0.0066508753, -0.032479525, -0.028834857, -0.33019507, -0.053873252, 0.18020193, 0.106299125, 0.047868263, -0.0097051235, -0.031247346, 0.03207461, 0.039934624, 0.014396725, 0.178811, 0.12188023, 0.227847, 0.018889466, -0.2045817, 0.0013407042, 0.05924295, 0.026660103, 0.070874214, 0.039328195, 0.016542308, 0.048573818, 0.026047379, 0.080278136, 0.1649435, 0.2838115, 0.36982122, 0.2791895, 0.15740336, 0.10540865, -0.062052097, 0.11422033, 0.1278307, 0.09339118, 0.06519705, 0.03697563, 0.029424846, 0.02045644, 0.03284325, 0.123671845, 0.21015035, 0.1686351, 0.093129255, 0.05924803, 0.05960887, 0.07780605, 0.13302888, 0.082203455, 0.03736442, 0.016265078, -0.05360867, 0.0022140604, -0.07772133, -0.08022223, -0.06776867, -0.15828814, -0.22725022, -0.022827664, 0.12709892, 0.03111493, 0.15268882, 0.10358419, 0.034179617, 0.015217102, -0.016936919, -0.10048946, -0.13518666, -0.011907084, -0.08610756, -0.34334338, -0.14260952, -0.03458505, 0.08693704, 0.06803239, 0.09293286, 0.16339621, -0.008222479, 0.05645427, -0.10514744, -0.10833447, -0.12398034, -0.027023226, -0.11011302, -0.17901257, -0.124133795, -0.06541401, 0.040851608, 0.054750863, 0.061912227, 0.115950525, 0.048695616, -0.050603464, -0.025560157, -0.031066304, -0.050318632, -0.001328821, 0.09224935, 0.057691693, 0.1491612, -0.040234372, -0.025837475, 0.039338306, 0.029802565, 0.04458783, -0.07570714, -0.22802497, -0.09800451, -0.01238222, -0.0024963894, -0.08401283, -0.136805, 0.0044188537, -0.1922792, -0.020046545, -0.1089896, -0.0772459, 0.031520743, 0.026584439, -0.04803945, -0.29259145, -0.43765947, -0.26827896, -0.30003166, -0.15393953, -0.09107631, -0.09582932, -0.036994826, -0.15214936, -0.33714697, -0.019342326, 0.021485021, -0.07375166, 0.041707292, -0.24140513, -0.40540406, -0.45432377, -0.48733974, -0.30949798, -0.23528573, -0.09533054, -0.07961273, -0.09340004, -0.53747135, -0.23608774, -0.12980443, -0.15971872, -0.07843026, -0.23165114, -0.20887418, -0.31542212, -0.1628428, -0.45044938, 0.05955953, 0.027843872, -0.31716356, 0.0042110616, 0.2153816, 0.2050836, 0.2362573, 0.19995324, 0.21525435, 0.19919413, 0.048505038, 0.28109962, 0.3155334, 0.18003283, 0.005526205, 0.13617039, 0.14500411, 0.11735121, 0.20066534, 0.0635763, 0.1538985, -0.083362326, 0.06312602, 0.25626004, 0.16015643, 0.09501176, 0.08794365, 0.042906195, 0.020971922, -0.03136321, -0.015058696, 0.115411334, -0.021154236, -0.027152957, 0.013253921, 0.06241935, 0.08536693, 0.2993289, 0.2625903, 0.14154671, 0.13974552, -0.09422452, -0.05159429, -0.1022546, -0.12057354, 0.084650874, -0.16180946, -0.024135849, 0.057433076, 0.030619835, 0.04848716, 0.20731969, 0.10743827, 0.01803592, -0.0070594284, -0.19259521, -0.08483098, -0.09841442, -0.13622177, -0.07618552, -0.13182434, 0.010695146, -0.012819171, 0.15306534, 0.27560583, 0.18969153, 0.12848231, 0.14426792, -0.15323617, -0.2623009, -0.1003565, -0.016652111, -0.06691922, -0.2684529, 0.091042094, -0.06973443, -0.06519684, 0.2220594, 0.16388793, 0.07186886, 0.0375983, -0.059501253, -0.14076535, -0.37226328, -0.2405277, -0.12875265, -0.046974123, -0.20129038, -0.050704226, -0.27342978, -0.21930708, 0.0973266, -0.039572448, 0.09422303, 0.10539654, 0.0067659756, -0.19789962, -0.31375372, -0.22365515, 0.014220771, 0.08496406, 0.027268954, -0.1579083, -0.27170762, -0.32635692, 0.0798545, 0.010238333, 0.1055722, 0.1307578, -0.02680563, -0.1580536, -0.15766518, -0.017248081, 0.1131941, 0.11401527, 0.080795415, -0.29242712, -0.518702, -0.5963757, -0.13454844, -0.03503246, 0.075764, -0.022051493, -0.18994103, 0.038926188, 0.10203421, 0.075048774, 0.034798883, 0.08393345, 0.014780856, -0.19597177, -0.4140907, -0.65295476, -0.4255826, -0.02656827, 0.096504614, -0.07051073, 0.06006602, 0.053097766, 0.066953234, 0.035568524, 0.016627181, 0.02945747, -0.040948126, -0.19998209, -0.20160373, -0.24548228, -0.44738257, -0.15127161, -0.094261155, -0.0040200483, 0.06873625, 0.07163562, 0.010317201, -0.029477233, -0.04657794, 0.027220411, 0.084097415, 0.09788026, -0.06042893, -0.19929783, -0.19417495, -0.0661108, -0.0057033673, 0.033401385, 0.028990582, -0.0012954038, 0.000104192324, 0.023565672, -0.009203745, -0.057665374, -0.016376656, -0.17686298, -0.024232034, -0.005151987, -0.03965501, 0.006023907, -0.038840186, -0.048423667, -0.010183892, 0.02281397, 0.006493913, 0.058459252, -0.108001105, -0.179518, 0.039159205, -0.15076791, -0.20071295, -0.11896619, -0.16461708, -0.058311693, -0.091011874, -0.039309934, 0.04899909, 0.098141626, 0.07892098, 0.022475177, -0.18373473, -0.09543559, 0.046610963, 0.21560748, 0.24214545, 0.21659674, 0.112922095, 0.108743824, -0.0021687364, -0.0058241775, 0.06349288, 0.18890528, 0.25411427, 0.039818857, -0.0033241073, -0.010147229, 0.052744593, 0.13876249, 0.08071031, 0.09470887, 0.00091773574, -0.100126654, 0.0011606645, -0.057143744, -0.057671178, -0.012458919, 0.16284563, 0.1620501, 0.12908326, 0.0015575299, 0.07950855, -0.04311479, 0.003135119, -0.005069689, -0.088359565, -0.12605007, -0.20328324, -0.25084966, -0.18953271, -0.12273818, -0.090528436, 0.044338375, 0.11646657, -0.11152957, 0.023552092, -0.111035176, -0.048918076, -0.11219468, -0.1013226, -0.245857, -0.23080575, -0.2854172, -0.23720658, -0.10748, -0.09684697, -0.18188716, -0.07814595, 0.0037618743, -0.25043, -0.066601485, 0.01053514, -0.010440553, -0.028835349, -0.0761855, -0.19790533, -0.18252216, -0.19719538, -0.10095901, -0.040003467, -0.07392611, -0.074679784, -0.12347911, -0.29554483, 0.12849717, -0.0026482556, -0.008278043, 0.055887677, -0.015614127, -0.039323404, 0.046148255, 0.0063105337, 0.025802737, 0.06147919, 0.11468787, -0.057765193, -0.3579737, -0.244265, -0.0119411545, -0.030642113, -0.1406517, 0.06228364, 0.080347255, 0.08438749, 0.10365921, 0.15080865, 0.12091923, 0.16293208, 0.07760462, 0.108313814, -0.055710588, -0.04008104, -0.18864635, 0.078145444, -0.044062935, -0.08007969, 0.09596637, 0.05604775, 0.08813602, 0.12887172, 0.11971806, 0.09169921, 0.07311648, 0.16506721, -0.01892117, -0.017440178, -0.18802667, 0.056772187, -0.034342498, -0.14497422, 0.0025116133, 0.1191158, 0.118991256, 0.11833822, 0.079200886, 0.012203161, 0.0377652, 0.14177921, 0.07523899, -0.17714728, -0.3397571, -0.16916607, -0.066413, 0.0065731504, -0.016526196, 0.0054002767, -0.0021095693, -0.028729852, 0.039182674, 0.05273448, -0.0712669, 0.03504746, 0.05367377, -0.16717966, -0.38257074, -0.2903341, -0.054907512, -0.0024552802, 0.009565813, 0.06866066, 0.026026024, 0.01904708, -0.027526252, -0.05249047, -0.14373797, -0.02719743, 0.090207405, -0.05507613, -0.20741907, -0.2917703, -0.09159174, 0.025354283, 0.11400077, 0.10666231, 0.014380967, -0.03633418, -0.09207432, -0.0635858, -0.0851631, -0.108436845, -0.12523729, 0.007538899, -0.079313904, -0.06515756, -0.13293202, -0.20959654, -0.25451767, -0.30437163, -0.22884627, -0.08932597, -0.059291486, 0.025703114, -0.010485103, -0.18679075, -0.34583405, 0.020403242, -0.024287548, -0.033542402, -0.0972222, -0.10750907, -0.19736443, -0.15423028, -0.28288594, -0.24142613, -0.2407928, -0.10874584, -0.15076998, -0.1637401, -0.046893995, -0.05267514, -0.019286586, -0.05584554, -0.06735243, -0.071881816, -0.12651137, -0.13743807, -0.08165171, -0.09250407, -0.059941415, -0.07475274, -0.04038323, -0.084162526, 0.008396131, -0.04983426, -0.033197697, -0.061018173, -0.13683446, -0.26103133, -0.2996573, -0.2979168, 0.03318308, 0.114627026, 0.27410865, 0.31355816, 0.12560181, 0.07287727, -0.022985283, -0.061719365, -0.057359923, -0.14384124, -0.17410634, -0.33880764, -0.26806802, -0.2605443, -0.22124527, -0.07105071, 0.02772743, 0.13939656, 0.10869923, 0.12379899, -0.107662305, -0.025611056, -0.10327335, -0.16361271, -0.28154552, -0.41589564, -0.31127915, -0.22638999, -0.011960751, 0.18768093, 0.2958315, 0.3129661, 0.29138067, 0.19957133, 0.1495513, -0.016145498, 0.00054715446, -0.08979355, -0.37419787, -0.4830709, -0.34561485, -0.099238776, 0.013105741, 0.055840064, 0.23303567, 0.26794615, 0.24439827, 0.11438512, 0.06023274, -0.009706261, -0.16830537, -0.096308164, -0.38276383, -0.6447909, -0.3507146, -0.1844474, -0.16076116, 0.0073870067, 0.17875716, 0.2652001, 0.1306358, -0.1848876, -0.27967957, 0.018172476, -0.09551816, -0.20755373, -0.25813413, -0.40527388, -0.29784587, -0.15979478, -0.03303745, 0.0117911305, 0.05432439, -0.013505663, -0.18373822, -0.3071899, -0.2632762, -0.020345028, -0.03743572, -0.1537157, -0.23914234, -0.28972125, -0.32609355, -0.15011406, -0.0519322, -0.08318962, -0.11044, -0.21350107, -0.072258785, -0.052365668, 0.019554326, -0.08117821, -0.029743345, -0.047381796, -0.11355078, -0.13869892, -0.1868971, -0.18370177, -0.0009358579, 0.020456243, -0.03648232, 0.020821117, 0.07592843, 0.10956543, 0.058617473, 0.044446297, 0.07270872, -0.058022257, -0.11417454, -0.05140248, -0.09059245, 0.053056158, 0.033342797, -0.008093346, 0.06804378, -0.015999354, -0.023135098, 0.03255726, 0.04348204, 0.012321155, -0.052956335, -0.08729948, -0.025965268, 0.019094678, 0.040857535, -0.00040203857, 0.05134133, 0.02679053, 0.022492053, -0.0076403255, -0.04494627, -0.0065876376, 0.03923118, -0.005297378, -0.13250282, -0.07368526, -0.041745104, -0.007252538, 0.044733215, 0.034341127, 0.07048404, 0.082181215, 0.023767222, -0.011091756, -0.03938185, -0.0106652975, -0.0050120843, 0.002414158, -0.060780678, -0.13321513, -0.085888095, -0.039587457, -0.040239323, 0.053877175, 0.058569957, 0.06434083, -0.013786126, -0.0052317483, 0.042692956, -0.097457856, -0.060861304, -0.0115405945, -0.036783665, -0.030857015, -0.15648408, -0.16800095, -0.1860935, -0.10491101, -0.0064657666, 0.033111244, 0.022314683, -0.042936344, -0.022122283, -0.060259122, -0.059964817 },
    { 0.03710933, -0.011594276, -0.10408313, -0.31209922, -0.38476396, -0.67823243, -0.4039649, -0.3047583, -0.26998177, -0.35169622, -0.8738756, -0.659313, -0.35354277, -0.1417728, 0.06946479, 0.05411351, -0.06178701, -0.016359849, -0.08560078, -0.12570645, -0.08820262, -0.06265892, -0.037545588, -0.093791395, -0.07118171, -0.18838309, -0.1481026, -0.2940584, 0.0034534591, -0.021948703, -0.053534858, -0.039198354, -0.057464644, -0.05997937, -0.098458976, -0.12639453, -0.05943138, -0.0016950711, 0.06960928, 0.030381683, 0.01949391, -0.0875195, 0.016431473, -0.05520009, 0.049306378, -0.09389311, -0.05246268, -0.06469136, -0.07520815, -0.06297682, -0.03148831, 0.0065168156, -0.043611534, 0.0007863969, 0.004744809, -0.06109824, -0.018758988, 0.060027633, -0.0017044507, -0.047201373, -0.07175443, -0.025732463, 0.014635974, 0.029901791, 0.024198797, 0.05799523, 0.14034706, 0.06778562, -0.063193746, -0.16980603, -0.024367055, 0.001205626, -0.05838501, -0.051964566, 0.0145367095, -0.05607588, 0.009661446, 0.06557524, 0.05473061, 0.039449714, 0.07086544, 0.022441795, -0.014606427, 0.032824643, 0.046071745, 0.027038919, -0.027259117, -0.033321235, -0.011846228, 0.0034841888, 0.1434733, 0.08061128, -0.006416657, -0.09784349, -0.11317624, 0.08331973, 0.009599239, -0.14392498, -0.017610759, 0.030251617, -0.0049588457, 0.13484192, 0.14382148, 0.089249805, 0.112625, 0.09542947, 0.06739042, -0.0328856, 0.024064498, -0.009877334, -0.10800524, -0.22408128, -0.04755365, 0.033555567, 0.038605213, 0.20760414, 0.22472595, -0.0093149105, 0.109802365, 0.15416138, 0.18874697, 0.13537449, 0.088224955, 0.11021627, -0.047882512, -0.18580456, -0.16796555, -0.05006468, 0.08304211, 0.21310227, -0.03165064, -0.015170725, 0.055919085, 0.14734276, 0.08553209, 0.0569043, -0.022089172, -0.24855188, -0.02195841, -0.12687807, -0.14361532, -0.10537163, 0.11688735, 0.038942847, -0.01689319, 0.025309175, 0.05593692, 0.0010915863, -0.09005943, -0.24387076, -0.61262304, -0.3084846, -0.1375335, -0.18950298, -0.20460299, 0.057333585, 0.11786376, -0.0075117582, 0.08997857, 0.15072517, 0.08629536, 0.1205342, -0.05543826, -0.19365259, -0.47247314, -0.23184049, -0.13656645, -0.1435821, -0.116354875, 0.08514531, 0.02717331, 0.0034532992, 0.11373447, 0.14398234, 0.2895827, 0.24811539, 0.14566493, -0.06724375, -0.014774607, -0.40511087, -0.09361085, -0.022063745, 0.09324187, 0.05461916, 0.12617633, 0.059394624, 0.13307175, 0.12029983, 0.25420684, 0.24628955, 0.17134713, 0.044404715, -0.02519592, -0.1095712, -0.0050511267, -0.24066414, 0.021708883, -0.032371316, -0.1236814, -0.26951092, -0.2571005, -0.17354879, -0.39057046, -0.6615816, -0.44232515, -0.16415522, -0.43981525, -0.17367372, -0.008008561, 0.009254739, 0.0335726, 0.10583846, 0.0953658, -0.053896338, -0.059151277, -0.026493166, -0.05351738, -0.15825722, -0.2527805, -0.18944383, 0.062012248, -0.15440887, -0.14627099, -0.13982563, -0.07985991, 0.015302519, -0.011127135, 0.056070287, 0.014731289, 0.017865254, -0.2992068, -0.16214538, -0.099502645, -0.13215545, 0.027081372, -0.1087421, 0.0049809436, 0.028602738, 0.011524181, 0.023600955, -0.051004875, -0.2738565, -0.16584401, -0.23441009, -0.20083524, -0.045511503, -0.19669533, 0.21268131, 0.13029124, -0.05678076, 0.14015265, -0.0573617, 0.039735053, -0.08961022, -0.24205132, -0.30443835, -0.17855795, -0.21838756, 0.0034846307, 0.0045618205, 0.04822015, 0.24674423, 0.09534644, 0.053430002, 0.09818132, -0.12013546, 0.09739386, -0.1307915, -0.13608201, -0.12649117, -0.123851106, -0.12281008, 0.1385023, 0.14212409, 0.063152514, 0.0722698, 0.04511786, 0.08014919, 0.06910181, -0.13901958, -0.024250466, -0.07224454, -0.05307729, -0.049460765, 0.031623594, 0.0632914, 0.12703077, 0.072370216, 0.09646717, 0.09949516, 0.027730798, 0.010529581, 0.103991225, -0.07619696, 0.113266945, 0.008160067, 0.30230552, 0.40375882, 0.31117716, 0.14126123, 0.08460267, -0.15103473, -0.14421147, -0.10858045, -0.050567616, 0.019776559, 0.045287367, -0.10691953, 0.14945394, -0.005885957, 0.12844875, 0.32959098, 0.2684105, 0.1200462, -0.14050259, -0.17242724, -0.07025099, 0.021271333, 0.05468745, 0.117404655, 0.043579526, -0.045057703, -0.21341321, 0.0105933575, 0.2084627, 0.22817819, 0.12542336, -0.07683283, -0.086507514, -0.09368567, 0.054943338, 0.077142656, 0.05198003, 0.17156348, -0.009390151, -0.10950797, 0.025325004, 0.22126943, 0.124902464, 0.10243828, -0.060789842, -0.09473555, -0.0699014, 0.056145035, -0.026698478, -0.0072321827, 0.04464565, 0.05066664, -0.033075046, -0.1500381, 0.26467088, 0.054804225, 0.04252729, 0.034343556, -0.038969103, -0.07387634, -0.03324521, -0.066092186, -0.06500884, -0.008526969, -0.047106773, 0.025709102, -0.12812866, -0.1689933, -0.1636202, -0.2698066, -0.18134594, -0.019698614, -0.04752271, -0.06359078, -0.12769121, -0.14669518, -0.07384365, 0.019965567, -0.087523356, -0.033094607, -0.14194226, -0.10356128, 0.02457694, 0.20144607, 0.16697195, -0.007582554, -0.11005236, -0.060159404, -0.12149313, -0.10385957, -0.09396286, -0.09961797, -0.10718234, 0.0325386, -0.09872146, 0.03899233, -0.09197493, -0.22572148, -0.30245915, -0.62284523, -0.36421663, -0.27566826, -0.30109504, -0.71705675, -0.7022456, -0.4069976, -0.26131514, -0.15043211, -0.08657654, 0.017887693, -0.006026057, 0.040653884, 0.026796404, 0.055162665, -0.08083987, -0.088645846, -0.08423935, -0.098119624, -0.23676202, -0.48877722, -0.475252, -0.59039444, -0.19543189, -0.104899205, -0.06696029, 0.05900713, 0.04403118, 0.08968198, 0.08273123, 0.055399362, -0.0021383874, -0.03331648, 0.031932592, -0.06318335, -0.1530756, -0.2449619, -0.25924644, -0.20012785, 0.13191247, 0.14624582, 0.10438713, 0.12262261, 0.09576368, 0.0643051, 0.004659298, -0.022145528, -0.0032189458, 0.053829808, 0.027828231, -0.1795423, -0.21622226, -0.10717476, 0.112874575, 0.09928647, 0.17089874, 0.25683334, 0.26225486, 0.14015175, 0.09465761, -0.005722874, 0.042836487, 0.08484864, 0.022229115, -0.13139366, -0.15210222, -0.16519304, 0.17757602, -0.02106107, -0.00040002615, 0.11278295, 0.041151896, -0.11666365, -0.09632226, 0.035800345, 0.000919887, -0.075121336, -0.04991372, -0.05695956, -0.01332276, -0.15349385, -0.1696598, -0.045162745, -0.1462918, -0.09976143, -0.1470406, -0.20503578, -0.1921183, -0.15041251, -0.0929257, -0.039249685, -0.045600638, -0.053410225, -0.18568903, -0.3494554, 0.007140855, -0.2782264, -0.28677258, -0.07640325, -0.18212713, -0.19455, -0.23520903, -0.3095805, -0.12249709, -0.10484199, 0.01708317, -0.047929823, -0.24076073, -0.18475643, -0.04914704, -0.40138504, -0.30678618, -0.10439123, -0.11163159, -0.092212126, -0.24803697, -0.22063568, -0.12362784, 0.053263657, 0.06871791, -0.006244959, -0.04636058, -0.2516173, -0.15839417, -0.17190154, -0.20814803, -0.07071222, 0.0143006295, -0.10395255, -0.24311641, -0.2748467, -0.105166316, 0.005758306, 0.041775502, 0.06285564, -0.01666028, -0.11451231, 0.037949048, 0.106251344, -0.04374236, -0.15055501, -0.13015294, -0.1603914, -0.29334185, -0.17312457, -0.09777182, -0.12793642, -0.049364284, -0.015863566, -0.18851581, -0.081114024, 0.20316848, -0.0068572825, -0.046598516, -0.19426647, -0.202344, -0.12940143, -0.17024705, -0.13473755, -0.066614844, 0.023454774, -0.07775177, -0.16602686, -0.24963179, -0.17758772, -0.26301956, -0.26785213, -0.2803521, -0.08406647, 0.12884665, 0.20462291, 0.16589843, 0.059195317, -0.017154116, -0.019030154, -0.12026494, -0.06969365, -0.32647145, -0.20640714, 0.028479915, 0.01836572, 0.10385597, 0.08541144, 0.07391909, 0.2233358, 0.19478567, 0.05039153, -0.0377221, -0.07069592, -0.0061583533, -0.044104464, -0.12982878, 0.0062496806, 0.07209469, 0.035576075, 0.057721168, 0.02884915, 0.06417307, 0.014347634, 0.05179138, 0.07536955, 0.07033167, 0.032812092, 0.059017897, 0.027904486, 0.053296767, 0.0044624773, 0.010877063, 0.06159598, 0.039477985, 0.011411014, 0.052997243, 0.019727206, 0.066697545, 0.11474285, 0.10517959, 0.107088394, 0.15940948, 0.09445489, 0.05084763, 0.0723599, 0.078251086, 0.106242105, 0.1675384, 0.1758073, 0.18193302, 0.1750095, 0.36130077, 0.37570652, 0.18926053, 0.22755237, -0.087259665, -0.028894471, 0.045461107, 0.077921376, 0.015901651, 0.025636783, -0.025531147, 0.1507103, 0.20759612, 0.22711973, 0.18195747, 0.22020034, 0.08069837, -0.23360611, -0.20386331, -0.12347341, -0.07189793, 0.038149215, 0.105584525, -0.004246633, 0.074478745, 0.14497083, 0.17789008, 0.21753125, 0.21989124, 0.17030154, 0.107716, 0.035288095, -0.042865153, -0.27283257, -0.16929412, -0.07530901, 0.03314565, 0.05534397, 0.11890543, 0.2132982, 0.17287089, 0.11494369, 0.079644255, 0.09690311, 0.14309944, 0.10135912, 0.045026757, -0.00028139108, 0.016101817, 0.013103057, 0.12965949, 0.0827275, -0.03327477, 0.19350983, 0.08879089, 0.048368704, -0.023227707, -0.013552138, 0.07722525, 0.102811426, -0.029611774, -0.07084416, -0.012195432, -0.03689137, 0.037878286, 0.059350602, 0.07737253, 0.111627564, 0.06932234, -0.011480342, -0.21201827, -0.26492304, -0.055535506, 0.080542944, 0.0077165863, -0.11298576, -0.18788458, -0.06044875, -0.034304768, 0.01141419, 0.025782159, 0.04412, -0.04031369, -0.12935278, -0.21826382, -0.12984134, 0.05781765, 0.09123416, 0.12147475, 0.002749255, 0.0064406963, -0.116112195, 0.039023098, 0.0024529644, 0.070143126, -0.0002423339, -0.1381634, -0.20816693, -0.16087355, -0.015389114, 0.12412516, 0.021575464, 0.09581531, 0.02941263, -0.0778497, -0.048563384, -0.008198189, 0.031496532, -0.046571378, -0.16803744, -0.27078447, -0.30607367, -0.21625356, -0.053745355, -0.067735836, -0.15169348, -0.012537054, 0.023146441, -0.002456623, 0.039119016, -0.05153237, -0.047949456, -0.13020006, -0.16814722, -0.22940831, -0.18456931, -0.08518374, 0.014962485, -0.008151383, -0.1124736, -0.1344528, -0.03876897, -0.054915097, -0.010884615, 0.018412068, 0.06555387, 0.035818778, -0.02751433, -0.08727636, -0.1391504, -0.11773065, -0.07677799, -0.08752462, -0.061258044, -0.105697386, -0.113787346, -0.08640212, 0.010587233, 0.08685045, 0.008091978, 0.08644796, 0.026280815, 0.042022508, -0.08700451, -0.119141616, -0.1390867, -0.06829643, -0.038961053, -0.023387691, -0.023155434, -0.017589707, 0.05567799 },
    { -0.011453644, -0.07889322, -0.1969589, -0.5169937, -0.14081979, 0.003554107, -0.054655503, 0.004266266, -0.0075989743, 0.030202273, 0.020176137, -0.08677917, 0.0011593201, -0.014662551, -0.07366856, -0.29736385, -0.25651044, 0.115490384, 0.002090209, 0.020679364, 0.135271, 0.103578836, 0.11601652, 0.094472535, 0.06264652, 0.0062951357, -0.02805368, -0.070772484, -0.3005462, -0.13304487, 0.037951417, 0.07008116, 0.05684252, 0.10508086, 0.09370688, 0.08039376, 0.013645736, 0.123364046, 0.1926766, 0.18065448, 0.08700719, 0.12777843, -0.11403188, 0.019151082, 0.1152878, 0.028639313, 0.04317611, 0.032964993, 0.012890802, -0.08185762, -0.09528447, -0.046952553, 0.018175887, 0.08415727, 0.0506563, -0.08341816, 0.11939944, -0.029575074, 0.044781804, 0.13013583, 0.043831415, -0.036174353, -0.10658196, -0.14714372, -0.14273803, -0.1288005, -0.13441788, -0.12092047, -0.08199764, -0.106750496, 0.07442207, 0.02661544, 0.039537515, 0.07112256, -0.0661659, -0.12666212, -0.17167588, -0.17390306, -0.065208666, 0.090759546, 0.021551514, 0.08769858, -0.09608791, -0.2244057, 0.05700415, 0.034221586, 0.007492967, 0.05253627, -0.042230044, -0.022837577, -0.05189514, -0.034877334, 0.036985386, 0.08861998, 0.20436849, 0.10795471, -0.0658599, 0.08159532, 0.017623002, 0.056424223, 0.057703696, 0.055776227, -0.021864492, 0.018387573, 0.11291387, 0.0030447268, -0.09716966, -0.18111596, -0.15899564, 0.07028351, 0.13396786, 0.16891868, -0.179843, 0.045560326, 0.14801201, 0.13641989, 0.09385994, 0.15115966, 0.032310884, -0.16780348, -0.244436, -0.4339845, -0.118833974, -0.07339261, -0.18017936, -0.123332635, -0.14451332, 0.13256317, 0.0795903, 0.12020854, 0.13414505, 0.13286544, -0.014862924, -0.24719104, -0.07300653, -0.04877187, -0.117190436, -0.27633777, -0.32582858, -0.41773987, -0.03110116, 0.055026814, 0.037470758, 0.037006926, -0.010519169, -0.028210577, -0.14775604, -0.095001005, 0.05918996, 0.011050122, -0.006561151, -0.1388499, -0.31260723, 0.00814398, -0.0007001139, 0.04525798, -0.033948027, -0.040009744, -0.1532807, -0.14066637, -0.20840622, -0.19596039, -0.05888251, -0.011807219, 0.051867895, 0.020110834, -0.22894733, 0.049305763, -0.037450947, -0.0022896475, -0.027447, -0.070447765, -0.061930493, -0.056079917, -0.27891955, -0.3334769, -0.2203808, -0.15998153, 0.029221514, -0.13648793, -0.14798191, -0.072639875, -0.061685123, -0.11004997, -0.04219895, -0.032896757, -0.10868819, -0.0026345053, -0.0138002755, -0.005353766, -0.13645534, 0.04414559, -0.18886285, -0.17578106, -0.014655282, 0.19142944, -0.077400036, -0.063328646, -0.16788058, 0.0049439752, -0.1502855, -0.117555834, -0.03969267, 0.05036571, -0.042708382, -0.121929914, 0.07108628, -0.12409123, -0.114144236, 0.0073044384, -0.109649375, -0.1531057, 0.100475244, 0.04362689, 0.0794046, 0.12194881, -0.08100982, 0.026490293, 0.09300814, -0.0050170277, 0.10169717, -0.074132316, 0.061569646, -0.06220082, 0.089704506, -0.028776065, 0.004457468, 0.05109288, 0.05327591, 0.06511788, 0.058238126, -0.018765764, -0.07586146, -0.12566152, 0.071434714, 0.029721446, 0.061395552, 0.025047027, 0.041202553, 0.03526508, 0.04486563, 0.11607682, 0.16259497, 0.22024128, 0.018903807, -0.058938432, -0.009155272, -0.036368262, 0.017124202, 0.05454004, 0.046224307, 0.05648881, -0.0012916352, -0.030933753, 0.062531546, 0.11334041, 0.040074293, 0.028103484, -0.077182986, -0.026995799, 0.012220319, 0.05962943, 0.046044663, 0.08667727, 0.026035141, 0.00029651812, 0.047013737, 0.109359935, -0.24386947, -0.25089493, -0.23151608, -0.16536026, -0.06954986, -0.016804105, 0.04450726, 0.06977672, 0.085674636, 0.094666466, 0.04499725, 0.051889222, -0.102695055, -0.050747197, -0.29584998, -0.22718967, -0.183808, -0.30264834, -0.11447373, 0.06892099, 0.15085585, 0.08205661, 0.09254473, 0.04716819, 0.021834783, 0.046828926, -0.0042096954, 0.1506811, 0.09947654, -0.0716206, -0.089700945, -0.057211656, 0.02995982, 0.16160719, 0.1010595, 0.03169484, 0.009363144, -0.057342414, -0.14739478, 0.027951255, -0.009370773, 0.06518604, 0.13920629, 0.11716772, 0.16886401, 0.19422854, 0.24160033, 0.084426336, -0.031424765, -0.015463574, -0.035972547, -0.0610056, -0.12885326, 0.013512589, -0.08565543, 0.01685288, -0.036064565, -0.06317869, 0.076113164, 0.1209735, 0.1386166, 0.03410224, -0.006226303, 0.053216565, 0.028821828, -0.050323486, -0.0661056, 0.062322266, -0.0080867, -0.08442088, -0.33261862, -0.339057, -0.28191137, -0.21936002, -0.090515174, -0.050889466, 0.060896773, 0.10801629, 0.06083713, 0.009231003, 0.03987177, 0.044410262, -0.04876501, -0.29510278, -0.25847155, -0.323291, -0.2500988, -0.11707066, -0.10144674, 0.04654119, -0.010395495, 0.07194516, 0.016651994, 0.010993247, 0.052444372, -0.0050427457, -0.13641158, 0.04411198, 0.019123662, -0.045611948, -0.12915695, 0.03171169, -0.022625657, 0.028308578, 0.028972669, -0.04384693, -0.025827227, -0.017694468, 0.020003492, -0.078008525, -0.048003472, -0.15912671, -0.16706385, -0.10738375, -0.048421625, -0.049695812, -0.0023495578, 0.065463595, 0.030671792, 0.026763188, 0.020768603, 0.021589248, -0.109653234, -0.12955703, -0.11191444, -0.32503226, -0.06581065, 0.021113504, -0.1164743, -0.04477484, 0.00087796064, 0.003261666, -0.04768627, -0.03737311, 0.017100997, 0.10385651, 0.010356791, -0.032252945, -0.24612688, -0.094128504, 0.061870903, 0.027474055, 0.077439375, 0.047742214, 0.077313945, 0.049067464, 0.040975735, -0.00014689303, -0.08942577, -0.07499655, -0.13953382, -0.008718907, 0.1426299, -0.050149202, 0.0068609407, -0.010679156, -0.05293895, 0.013777747, 0.026272742, 0.017487057, 0.1062809, 0.029407382, 0.050754428, 0.026835872, 0.0967553, 0.12852414, 0.026352594, 0.018643484, 0.032319747, 0.012980823, -0.043803297, -0.025540335, -0.0022467605, 0.036363155, 0.09579412, 0.1503112, 0.14203045, 0.18231851, 0.05101773, -0.06952533, 0.04754543, 0.12724742, 0.09183568, 0.08842786, 0.041812696, 0.14508961, 0.12954862, 0.07421142, 0.04886806, 0.073264405, 0.17332043, 0.19175074, 0.1280622, -0.0041065835, 0.049512994, 0.11800355, 0.057164025, 0.15189284, 0.1933639, 0.29889622, 0.31527376, 0.12500331, -0.015142752, -0.047133822, 0.116543286, 0.16723764, 0.14986323, 0.039301023, -0.24727532, 0.020215157, 0.1236363, 0.20052321, 0.23290178, 0.23010206, 0.17565812, 0.02184959, 0.012419345, 0.059817273, 0.10678179, 0.07787269, 0.08853873, 0.068535365, -0.0148506, 0.0648355, 0.1447844, 0.16276774, 0.26971918, 0.20752068, 0.14521071, 0.08341504, 0.064608246, 0.0691792, 0.09783316, 0.036723074, 0.027653962, -0.13630532, -0.07461626, 0.038882636, -0.0031508254, -0.07068705, 0.04425538, 0.10456837, 0.13786149, 0.15094621, 0.14302869, 0.14383468, 0.1326689, 0.09829617, -0.0005486271, -0.09171519, -0.077971645, 0.02270675, -0.07366722, -0.19812496, -0.16897628, -0.034710735, 0.058164287, 0.1971026, 0.18252344, 0.14928505, 0.056770816, 0.00770996, 0.050733503, 0.0681838, 0.021223962, -0.18953526, -0.017958598, -0.03474775, -9.860705e-05, 0.026223633, 0.025010245, 0.035825513, 0.044655725, 0.082159385, 0.003138588, -0.08183905, -0.08985127, -0.15506338, -0.3484102, -0.3982984, -0.12275237, 0.1020878, 0.20971079, 0.19193837, 0.06267606, -0.012046882, -0.0052204216, -0.026035512, -0.06782429, -0.042953998, 0.005311625, -0.10426737, -0.07368771, -0.2396009, -0.099258274, 0.2126162, 0.026529294, -0.027573153, 0.048473902, 0.11606419, -0.032380573, -0.069617875, -0.08961122, 0.048543278, 0.06721538, -0.14065593, -0.052948322, -0.09685022, -0.16593541, -0.31804648, -0.3136492, -0.35964802, -0.25096443, -0.23798084, -0.17839414, -0.25744647, -0.18041405, -0.2462125, -0.3503885, -0.26373973, -0.026303498, -0.02851145, -0.040009174, -0.027336428, -0.052714262, -0.015087212, -0.05307188, -0.06800604, -0.07249673, -0.04686614, -0.07837338, -0.033936042, -0.0810212, -0.025345318, -0.044738486, -0.023505354, -0.036402483, -0.084734246, -0.10324256, -0.12486893, -0.12957825, -0.36415607, -0.6088488, -0.38943097, -0.2845672, -0.12629336, -0.099846534, -0.014428618, -0.06871696, -0.059279516, -0.04151803, -0.14042225, -0.08724211, -0.065649755, -0.049054317, -0.20929156, 0.009177129, 0.00025049385, 0.10088975, 0.03821608, 0.06287875, 0.028490368, -0.02796815, -0.08206016, 0.065901265, -0.09728155, -0.12678581, -0.10807951, -0.01727257, -0.106504805, -0.15599526, -0.058075093, 0.07205727, 0.09826944, -0.048862144, -0.15947613, 0.03475096, 0.06266869, -0.018716162, -0.094480135, -0.12847869, -0.10468388, -0.011508669, -0.0007868937, -0.06864084, -0.06653701, -0.066555515, -0.041022133, 0.009057013, -0.10801076, -0.016703248, -0.019654231, -0.06580054, -0.10937429, -0.10090075, -0.14153117, -0.15103935, 0.09300971, -0.11256226, -0.12568763, 0.049876988, 0.018525986, 0.0027749576, -0.060713727, 0.0080877915, 0.008132934, -0.043222014, -0.04348804, -0.08856912, -0.19502869, -0.10152652, 0.10791234, -0.111333385, -0.11509814, 0.03675346, 0.14509849, 0.09058792, 0.06867694, -0.07071521, 0.029648626, 0.042454515, 0.04960604, -0.15333426, -0.29708654, -0.057853006, 0.04063234, 0.010869429, 0.036956612, 0.12293371, 0.1285928, 0.03480158, -0.053339515, -0.05277936, 0.03847181, 0.062022597, -0.13138781, -0.21113512, -0.20176049, -0.063544825, -0.06351356, -0.06271053, -0.031196529, 0.011869498, -0.10265667, -0.13336687, -0.14247875, -0.012022463, 0.003110669, -0.0882889, -0.14838174, -0.254544, -0.19027704, -0.1597047, -0.09622873, -0.1265861, -0.09827693, -0.14447954, -0.075596645, -0.06923458, 0.014334556, -0.052767143, -0.013623875, -0.06423246, -0.10856802, -0.10256357, -0.020422999, -0.034413233, -0.10004471, -0.1661694, -0.06977172, -0.1393798, -0.13853489, -0.093654044, 0.023308968, -0.0019486946, -0.0056098467, -0.008901975, -0.044999532, -0.0650638, -0.047257658, -0.08248873, -0.02791029, 0.0061444556, 0.025978215, -0.0014494413, -0.060295317, -0.023241127, -0.077214465, -0.03708831, -0.10347499, -0.03426472, -0.0794875, -0.029098272, -0.061591297, 0.023792434, 0.019564098, 0.050518252, -0.03073737, 0.009191324, -0.014699044, 0.031179827, -0.076171905, -0.07512484, -0.11369797, -0.0958305, -0.02896096, 0.031360097, 0.060012225, 0.043969292, 0.086816914, 0.04943376, -0.0068704016, -0.009254503, -0.005821101, -0.04782492, -0.045351043 },
